{"learner":{"attributes":{"scikit_learn":"{\"_estimator_type\": \"classifier\"}"},"feature_names":["competition_Brasileirão - Série A Betano","competition_Brasileirão - Série B","competition_Bundesliga","competition_La Liga","competition_Ligue 1","competition_Premier League","competition_Série A","consistency_away","consistency_home","elo_away_pre","elo_diff","elo_home_pre","form_avg_away_5","form_avg_home_5","form_pts_away_3","form_pts_away_5","form_pts_home_3","form_pts_home_5","gd_avg_away_5","gd_avg_home_5","gd_away_5","gd_home_5","momentum_away","momentum_home","pool_key_POOL_BRASIL","pool_key_POOL_BUNDESLIGA+UCL","pool_key_POOL_LA_LIGA+UCL","pool_key_POOL_LIGUE_1+UCL","pool_key_POOL_PREMIER_LEAGUE+UCL","pool_key_POOL_SÉRIE_A+UCL"],"feature_types":["i","i","i","i","i","i","i","float","float","float","float","float","float","float","float","float","float","float","float","float","float","float","float","float","i","i","i","i","i","i"],"gradient_booster":{"model":{"cats":{"enc":[],"feature_segments":[],"sorted_idx":[]},"gbtree_model_param":{"num_parallel_tree":"1","num_trees":"945"},"iteration_indptr":[0,3,6,9,12,15,18,21,24,27,30,33,36,39,42,45,48,51,54,57,60,63,66,69,72,75,78,81,84,87,90,93,96,99,102,105,108,111,114,117,120,123,126,129,132,135,138,141,144,147,150,153,156,159,162,165,168,171,174,177,180,183,186,189,192,195,198,201,204,207,210,213,216,219,222,225,228,231,234,237,240,243,246,249,252,255,258,261,264,267,270,273,276,279,282,285,288,291,294,297,300,303,306,309,312,315,318,321,324,327,330,333,336,339,342,345,348,351,354,357,360,363,366,369,372,375,378,381,384,387,390,393,396,399,402,405,408,411,414,417,420,423,426,429,432,435,438,441,444,447,450,453,456,459,462,465,468,471,474,477,480,483,486,489,492,495,498,501,504,507,510,513,516,519,522,525,528,531,534,537,540,543,546,549,552,555,558,561,564,567,570,573,576,579,582,585,588,591,594,597,600,603,606,609,612,615,618,621,624,627,630,633,636,639,642,645,648,651,654,657,660,663,666,669,672,675,678,681,684,687,690,693,696,699,702,705,708,711,714,717,720,723,726,729,732,735,738,741,744,747,750,753,756,759,762,765,768,771,774,777,780,783,786,789,792,795,798,801,804,807,810,813,816,819,822,825,828,831,834,837,840,843,846,849,852,855,858,861,864,867,870,873,876,879,882,885,888,891,894,897,900,903,906,909,912,915,918,921,924,927,930,933,936,939,942,945],"tree_info":[0,1,2,0,1,2,0,1,2,0,1,2,0,1,2,0,1,2,0,1,2,0,1,2,0,1,2,0,1,2,0,1,2,0,1,2,0,1,2,0,1,2,0,1,2,0,1,2,0,1,2,0,1,2,0,1,2,0,1,2,0,1,2,0,1,2,0,1,2,0,1,2,0,1,2,0,1,2,0,1,2,0,1,2,0,1,2,0,1,2,0,1,2,0,1,2,0,1,2,0,1,2,0,1,2,0,1,2,0,1,2,0,1,2,0,1,2,0,1,2,0,1,2,0,1,2,0,1,2,0,1,2,0,1,2,0,1,2,0,1,2,0,1,2,0,1,2,0,1,2,0,1,2,0,1,2,0,1,2,0,1,2,0,1,2,0,1,2,0,1,2,0,1,2,0,1,2,0,1,2,0,1,2,0,1,2,0,1,2,0,1,2,0,1,2,0,1,2,0,1,2,0,1,2,0,1,2,0,1,2,0,1,2,0,1,2,0,1,2,0,1,2,0,1,2,0,1,2,0,1,2,0,1,2,0,1,2,0,1,2,0,1,2,0,1,2,0,1,2,0,1,2,0,1,2,0,1,2,0,1,2,0,1,2,0,1,2,0,1,2,0,1,2,0,1,2,0,1,2,0,1,2,0,1,2,0,1,2,0,1,2,0,1,2,0,1,2,0,1,2,0,1,2,0,1,2,0,1,2,0,1,2,0,1,2,0,1,2,0,1,2,0,1,2,0,1,2,0,1,2,0,1,2,0,1,2,0,1,2,0,1,2,0,1,2,0,1,2,0,1,2,0,1,2,0,1,2,0,1,2,0,1,2,0,1,2,0,1,2,0,1,2,0,1,2,0,1,2,0,1,2,0,1,2,0,1,2,0,1,2,0,1,2,0,1,2,0,1,2,0,1,2,0,1,2,0,1,2,0,1,2,0,1,2,0,1,2,0,1,2,0,1,2,0,1,2,0,1,2,0,1,2,0,1,2,0,1,2,0,1,2,0,1,2,0,1,2,0,1,2,0,1,2,0,1,2,0,1,2,0,1,2,0,1,2,0,1,2,0,1,2,0,1,2,0,1,2,0,1,2,0,1,2,0,1,2,0,1,2,0,1,2,0,1,2,0,1,2,0,1,2,0,1,2,0,1,2,0,1,2,0,1,2,0,1,2,0,1,2,0,1,2,0,1,2,0,1,2,0,1,2,0,1,2,0,1,2,0,1,2,0,1,2,0,1,2,0,1,2,0,1,2,0,1,2,0,1,2,0,1,2,0,1,2,0,1,2,0,1,2,0,1,2,0,1,2,0,1,2,0,1,2,0,1,2,0,1,2,0,1,2,0,1,2,0,1,2,0,1,2,0,1,2,0,1,2,0,1,2,0,1,2,0,1,2,0,1,2,0,1,2,0,1,2,0,1,2,0,1,2,0,1,2,0,1,2,0,1,2,0,1,2,0,1,2,0,1,2,0,1,2,0,1,2,0,1,2,0,1,2,0,1,2,0,1,2,0,1,2,0,1,2,0,1,2,0,1,2,0,1,2,0,1,2,0,1,2,0,1,2,0,1,2,0,1,2,0,1,2,0,1,2,0,1,2,0,1,2,0,1,2,0,1,2,0,1,2,0,1,2,0,1,2,0,1,2,0,1,2,0,1,2,0,1,2,0,1,2,0,1,2,0,1,2,0,1,2,0,1,2,0,1,2,0,1,2,0,1,2,0,1,2,0,1,2,0,1,2,0,1,2,0,1,2,0,1,2,0,1,2,0,1,2,0,1,2,0,1,2,0,1,2,0,1,2,0,1,2,0,1,2,0,1,2,0,1,2,0,1,2,0,1,2,0,1,2,0,1,2,0,1,2,0,1,2,0,1,2,0,1,2,0,1,2,0,1,2,0,1,2,0,1,2,0,1,2,0,1,2,0,1,2,0,1,2,0,1,2,0,1,2,0,1,2,0,1,2,0,1,2,0,1,2,0,1,2,0,1,2,0,1,2,0,1,2,0,1,2,0,1,2,0,1,2,0,1,2,0,1,2,0,1,2,0,1,2,0,1,2,0,1,2,0,1,2,0,1,2,0,1,2,0,1,2,0,1,2,0,1,2,0,1,2,0,1,2,0,1,2,0,1,2,0,1,2],"trees":[{"base_weights":[8.137362E-3,-1.0769372E-1,3.5395697E-1,-1.61137E-2,-2.646502E-1,1.9812724E-1,5.9597534E-1,-9.3886316E-2,3.6328368E-2,-1.5928277E-1,-3.303644E-1,2.857727E-1,-8.347724E-2,7.2432506E-1,1.8955944E-1,2.0728658E-3,-1.3301641E-3,2.560122E-3,2.2199221E-5,-2.041287E-3,-3.0540043E-4,-4.123633E-3,-3.622354E-4,5.524321E-3,2.5204793E-3,-7.8885125E-5,-2.8278735E-3,7.076757E-3,9.782551E-3,3.9305114E-3,-0E0],"categories":[],"categories_nodes":[],"categories_segments":[],"categories_sizes":[],"default_left":[0,0,0,0,0,0,0,0,0,0,0,0,0,0,0,0,0,0,0,0,0,0,0,0,0,0,0,0,0,0,0],"id":0,"left_children":[1,3,5,7,9,11,13,15,17,19,21,23,25,27,29,-1,-1,-1,-1,-1,-1,-1,-1,-1,-1,-1,-1,-1,-1,-1,-1],"loss_changes":[2.993374E2,7.949576E1,6.870677E1,1.4565342E1,1.2898712E1,2.8869106E1,3.562024E1,7.7482233E0,1.2624316E1,1.1629009E0,7.6586304E0,9.760864E0,2.6047666E0,3.5366516E0,5.6189895E0,0E0,0E0,0E0,0E0,0E0,0E0,0E0,0E0,0E0,0E0,0E0,0E0,0E0,0E0,0E0,0E0],"parents":[2147483647,0,0,1,1,2,2,3,3,4,4,5,5,6,6,7,7,8,8,9,9,10,10,11,11,12,12,13,13,14,14],"right_children":[2,4,6,8,10,12,14,16,18,20,22,24,26,28,30,-1,-1,-1,-1,-1,-1,-1,-1,-1,-1,-1,-1,-1,-1,-1,-1],"split_conditions":[3.505754E-1,4.003153E-1,1.4697709E0,-5.843566E-1,8.351588E-1,8.351588E-1,8.351588E-1,-1.5564806E0,-1.1402799E0,3.8706284E-2,1E0,-6.8679357E-1,1.7112436E0,2.1458423E0,1.4927534E0,2.0728658E-3,-1.3301641E-3,2.560122E-3,2.2199221E-5,-2.041287E-3,-3.0540043E-4,-4.123633E-3,-3.622354E-4,5.524321E-3,2.5204793E-3,-7.8885125E-5,-2.8278735E-3,7.076757E-3,9.782551E-3,3.9305114E-3,-0E0],"split_indices":[11,20,11,11,20,20,20,20,15,11,0,20,18,11,18,0,0,0,0,0,0,0,0,0,0,0,0,0,0,0,0],"split_type":[0,0,0,0,0,0,0,0,0,0,0,0,0,0,0,0,0,0,0,0,0,0,0,0,0,0,0,0,0,0,0],"sum_hessian":[7.456557E3,5.5802666E3,1.8762905E3,3.5345618E3,2.0457047E3,1.1481332E3,7.281573E2,1.4430503E3,2.0915115E3,8.011115E2,1.2445931E3,8.825373E2,2.6559595E2,5.484351E2,1.7972218E2,9.080214E1,1.3522482E3,3.188694E2,1.7726421E3,6.991131E2,1.01998436E2,1.147064E3,9.752925E1,2.2831448E2,6.542228E2,1.9021202E2,7.538393E1,2.8248215E2,2.6595294E2,1.06135864E2,7.358633E1],"tree_param":{"num_deleted":"0","num_feature":"30","num_nodes":"31","size_leaf_vector":"1"}},{"base_weights":[5.3299437E-3,3.0396916E-2,-2.0590772E-1,-1.9546002E-1,5.9878994E-2,-1.4281176E-1,-3.6907184E-1,-2.2940126E-1,-8.5820325E-2,-1.9670898E-2,8.147804E-2,-1.6590886E-1,-0E0,-3.9984846E-1,-0E0,-2.73324E-3,-0E0,2.1770027E-5,-1.70791E-3,-8.151609E-4,3.8259584E-4,-4.1324922E-4,1.0109994E-3,-0E0,-2.1318875E-3,2.497584E-3,-6.374873E-5,-0E0,-4.8682424E-3,-1.7527243E-3,5.9446826E-4],"categories":[],"categories_nodes":[],"categories_segments":[],"categories_sizes":[],"default_left":[0,0,0,0,0,0,0,0,0,0,0,0,0,0,0,0,0,0,0,0,0,0,0,0,0,0,0,0,0,0,0],"id":1,"left_children":[1,3,5,7,9,11,13,15,17,19,21,23,25,27,29,-1,-1,-1,-1,-1,-1,-1,-1,-1,-1,-1,-1,-1,-1,-1,-1],"loss_changes":[3.9225517E1,4.4327705E1,6.746277E0,2.0332737E0,1.0372126E1,2.2321758E0,2.0191784E0,7.873001E-1,1.4279695E0,3.374773E0,2.9934273E0,1.4829111E0,4.9387625E-1,1.1311474E0,2.2541156E-1,0E0,0E0,0E0,0E0,0E0,0E0,0E0,0E0,0E0,0E0,0E0,0E0,0E0,0E0,0E0,0E0],"parents":[2147483647,0,0,1,1,2,2,3,3,4,4,5,5,6,6,7,7,8,8,9,9,10,10,11,11,12,12,13,13,14,14],"right_children":[2,4,6,8,10,12,14,16,18,20,22,24,26,28,30,-1,-1,-1,-1,-1,-1,-1,-1,-1,-1,-1,-1,-1,-1,-1,-1],"split_conditions":[1.1073073E0,-1.3408561E0,2.000403E0,-1.5757238E0,-5.541353E-1,9.364713E-1,8.776612E-1,1.3801548E0,-7.919514E-1,-1.7673394E-1,-1.1364545E0,-1.5661104E0,6.187923E-1,1.17685765E-1,3.428632E-1,-2.73324E-3,-0E0,2.1770027E-5,-1.70791E-3,-8.151609E-4,3.8259584E-4,-4.1324922E-4,1.0109994E-3,-0E0,-2.1318875E-3,2.497584E-3,-6.374873E-5,-0E0,-4.8682424E-3,-1.7527243E-3,5.9446826E-4],"split_indices":[10,10,10,10,10,12,23,22,11,13,11,18,18,13,22,0,0,0,0,0,0,0,0,0,0,0,0,0,0,0,0],"split_type":[0,0,0,0,0,0,0,0,0,0,0,0,0,0,0,0,0,0,0,0,0,0,0,0,0,0,0,0,0,0,0],"sum_hessian":[7.4920825E3,6.708378E3,7.8370435E2,7.643578E2,5.9440205E3,5.7685596E2,2.0684839E2,5.656095E2,1.9874825E2,1.2439789E3,4.7000415E3,5.0844052E2,6.841541E1,1.8881798E2,1.803041E1,5.562804E2,9.329144E0,6.409969E1,1.3464856E2,6.60498E2,5.834809E2,1.793864E2,4.5206553E3,4.5255867E1,4.6318466E2,1.0442335E1,5.7973076E1,9.088132E0,1.7972984E2,8.57011E0,9.4603E0],"tree_param":{"num_deleted":"0","num_feature":"30","num_nodes":"31","size_leaf_vector":"1"}},{"base_weights":[3.1797779E-3,4.316077E-1,-1.5187934E-1,7.5152266E-1,3.0342472E-1,-3.5811044E-2,-3.320954E-1,9.1876084E-1,8.160618E-3,4.8012537E-1,2.6063025E-1,3.6335077E-2,-1.1746412E-1,-2.553849E-1,-5.250211E-1,1.1085348E-2,-0E0,6.0313814E-3,-0E0,2.8367897E-3,8.041262E-3,7.996694E-4,-4.26745E-4,-1.0194809E-3,-2.5675087E-3,-2.5006377E-3,-3.4822258E-3,-0E0,-6.17373E-3],"categories":[],"categories_nodes":[],"categories_segments":[],"categories_sizes":[],"default_left":[0,0,0,0,0,0,0,0,0,0,0,0,0,0,0,0,0,0,0,0,0,0,0,0,0,0,0,0,0],"id":2,"left_children":[1,3,5,7,9,11,13,15,-1,17,19,21,23,25,27,-1,-1,-1,-1,-1,-1,-1,-1,-1,-1,-1,-1,-1,-1],"loss_changes":[4.9675696E2,7.878644E1,1.136459E2,5.515747E-1,8.8517E0,1.9891235E1,2.959703E1,1.430397E0,0E0,5.301567E0,6.221924E0,4.213143E0,4.0952797E0,1.3931351E0,1.6119537E0,0E0,0E0,0E0,0E0,0E0,0E0,0E0,0E0,0E0,0E0,0E0,0E0,0E0,0E0],"parents":[2147483647,0,0,1,1,2,2,3,3,4,4,5,5,6,6,7,7,9,9,10,10,11,11,12,12,13,13,14,14],"right_children":[2,4,6,8,10,12,14,16,-1,18,20,22,24,26,28,-1,-1,-1,-1,-1,-1,-1,-1,-1,-1,-1,-1,-1,-1],"split_conditions":[-5.541353E-1,-1.5757238E0,3.8622633E-1,-2.381898E0,-1.2739322E0,-4.2629983E-2,1.3389043E0,-4.4837552E-1,8.160618E-3,6.3667357E-1,2.3667145E0,1E0,6.83768E-1,4.0397665E-1,3.8488436E-1,1.1085348E-2,-0E0,6.0313814E-3,-0E0,2.8367897E-3,8.041262E-3,7.996694E-4,-4.26745E-4,-1.0194809E-3,-2.5675087E-3,-2.5006377E-3,-3.4822258E-3,-0E0,-6.17373E-3],"split_indices":[10,10,10,10,10,10,10,11,0,11,18,5,21,11,11,0,0,0,0,0,0,0,0,0,0,0,0,0,0],"split_type":[0,0,0,0,0,0,0,0,0,0,0,0,0,0,0,0,0,0,0,0,0,0,0,0,0,0,0,0,0],"sum_hessian":[7.4663667E3,1.9884021E3,5.4779644E3,5.626907E2,1.4257114E3,3.3408389E3,2.1371257E3,1.2027414E2,4.4241653E2,2.6573502E2,1.1599764E3,1.757124E3,1.5837147E3,1.5390907E3,5.9803503E2,1.1394485E2,6.3292904E0,2.4883719E2,1.6897825E1,1.1209203E3,3.9056213E1,1.2429071E3,5.14217E2,1.2448351E3,3.3887967E2,8.210662E2,7.1802454E2,3.9894214E0,5.940456E2],"tree_param":{"num_deleted":"0","num_feature":"30","num_nodes":"29","size_leaf_vector":"1"}},{"base_weights":[-3.781709E-3,-1.3873005E-1,4.1999108E-1,-3.666044E-1,-1.9449396E-2,2.6527157E-1,7.499482E-1,-4.905117E-1,-2.9837483E-1,-1.1414028E-1,4.2414926E-2,1.5835172E-1,3.2966226E-1,6.206888E-1,9.8238033E-1,-0E0,-5.740733E-3,-0E0,-3.520396E-3,-1.0842202E-3,-2.664376E-3,2.3020183E-4,1.1308384E-3,2.1501475E-3,-0E0,3.260099E-3,5.4805884E-3,7.3790927E-3,-0E0,4.871351E-3,1.2316055E-2],"categories":[],"categories_nodes":[],"categories_segments":[],"categories_sizes":[],"default_left":[0,0,0,0,0,0,0,0,0,0,0,0,0,0,0,0,0,0,0,0,0,0,0,0,0,0,0,0,0,0,0],"id":3,"left_children":[1,3,5,7,9,11,13,15,17,19,21,23,25,27,29,-1,-1,-1,-1,-1,-1,-1,-1,-1,-1,-1,-1,-1,-1,-1,-1],"loss_changes":[4.2821527E2,1.5376465E2,8.959506E1,1.4415222E1,2.212252E1,7.245079E0,1.2889435E1,1.3117981E-1,1.2802124E0,2.793518E0,2.4826293E0,2.1244936E0,3.3615646E0,2.6277008E0,4.277115E0,0E0,0E0,0E0,0E0,0E0,0E0,0E0,0E0,0E0,0E0,0E0,0E0,0E0,0E0,0E0,0E0],"parents":[2147483647,0,0,1,1,2,2,3,3,4,4,5,5,6,6,7,7,8,8,9,9,10,10,11,11,12,12,13,13,14,14],"right_children":[2,4,6,8,10,12,14,16,18,20,22,24,26,28,30,-1,-1,-1,-1,-1,-1,-1,-1,-1,-1,-1,-1,-1,-1,-1,-1],"split_conditions":[5.020926E-1,-5.6593096E-1,1.3389043E0,-1.4343117E0,-1.1679781E-1,2.4573955E-1,2.000403E0,-2.3966265E0,-1.34762E0,1E0,2.9562753E-1,1E0,1.0499376E0,1.3976679E0,4.024102E-1,-0E0,-5.740733E-3,-0E0,-3.520396E-3,-1.0842202E-3,-2.664376E-3,2.3020183E-4,1.1308384E-3,2.1501475E-3,-0E0,3.260099E-3,5.4805884E-3,7.3790927E-3,-0E0,4.871351E-3,1.2316055E-2],"split_indices":[10,10,10,10,10,21,10,19,18,4,10,25,10,23,17,0,0,0,0,0,0,0,0,0,0,0,0,0,0,0,0],"split_type":[0,0,0,0,0,0,0,0,0,0,0,0,0,0,0,0,0,0,0,0,0,0,0,0,0,0,0,0,0,0,0],"sum_hessian":[7.4999263E3,5.6931904E3,1.806736E3,1.9485745E3,3.7446157E3,1.2356199E3,5.7111615E2,6.7800464E2,1.2705698E3,1.495968E3,2.2486477E3,4.7974512E2,7.5587476E2,3.7476947E2,1.963467E2,4.1643906E0,6.738403E2,1.50094595E1,1.2555604E3,1.2814685E3,2.1449962E2,1.6217261E3,6.269217E2,4.1637347E2,6.3371624E1,5.7090826E2,1.8496645E2,3.6723035E2,7.539102E0,2.6877123E1,1.6946957E2],"tree_param":{"num_deleted":"0","num_feature":"30","num_nodes":"31","size_leaf_vector":"1"}},{"base_weights":[-7.675201E-3,1.6121343E-2,-2.1207264E-1,-1.9022503E-1,4.4843856E-2,-1.4954165E-1,-3.8180226E-1,-2.3800826E-1,-9.886105E-2,-1.8824205E-1,5.0344065E-2,-8.666021E-2,-2.3012686E-1,-0E0,-4.006587E-1,-2.9171281E-3,3.0162575E-4,-1.3151519E-4,-2.4692423E-3,1.479542E-3,-3.0091156E-3,-1.2243251E-4,8.1504014E-4,-4.1237377E-4,-2.3007118E-3,-2.8277305E-3,-0E0,-0E0,-4.9201986E-3],"categories":[],"categories_nodes":[],"categories_segments":[],"categories_sizes":[],"default_left":[0,0,0,0,0,0,0,0,0,0,0,0,0,0,0,0,0,0,0,0,0,0,0,0,0,0,0,0,0],"id":4,"left_children":[1,3,5,7,9,11,13,15,17,19,21,23,25,-1,27,-1,-1,-1,-1,-1,-1,-1,-1,-1,-1,-1,-1,-1,-1],"loss_changes":[3.679347E1,3.9175335E1,7.001198E0,2.643179E0,7.1729174E0,2.1647806E0,1.795124E0,2.204361E0,2.345932E0,3.0844774E0,6.9802923E0,1.3817089E0,1.005147E0,0E0,1.4842072E0,0E0,0E0,0E0,0E0,0E0,0E0,0E0,0E0,0E0,0E0,0E0,0E0,0E0,0E0],"parents":[2147483647,0,0,1,1,2,2,3,3,4,4,5,5,6,6,7,7,8,8,9,9,10,10,11,11,12,12,14,14],"right_children":[2,4,6,8,10,12,14,16,18,20,22,24,26,-1,28,-1,-1,-1,-1,-1,-1,-1,-1,-1,-1,-1,-1,-1,-1],"split_conditions":[1.1073073E0,-1.2739322E0,2.000403E0,-1.7578265E-1,-1.7344497E0,-1.6235192E-1,-1.5594691E0,1E0,3.428632E-1,-1.3137438E0,-4.769115E-1,5.687623E-1,1.9808295E0,-0E0,1.17685765E-1,-2.9171281E-3,3.0162575E-4,-1.3151519E-4,-2.4692423E-3,1.479542E-3,-3.0091156E-3,-1.2243251E-4,8.1504014E-4,-4.1237377E-4,-2.3007118E-3,-2.8277305E-3,-0E0,-0E0,-4.9201986E-3],"split_indices":[10,10,10,22,15,23,9,0,22,9,10,8,14,0,13,0,0,0,0,0,0,0,0,0,0,0,0,0,0],"split_type":[0,0,0,0,0,0,0,0,0,0,0,0,0,0,0,0,0,0,0,0,0,0,0,0,0,0,0,0,0],"sum_hessian":[7.460951E3,6.6719336E3,7.8901733E2,8.041448E2,5.867789E3,5.880054E2,2.0101196E2,5.0930878E2,2.9483603E2,1.24326836E2,5.743462E3,3.4845358E2,2.395518E2,7.319378E0,1.9369258E2,4.9624158E2,1.306719E1,1.7894861E2,1.1588742E2,1.5846143E1,1.0848069E2,1.3643347E3,4.3791274E3,2.5410648E2,9.43471E1,2.3287958E2,6.6722255E0,1.0674803E1,1.8301778E2],"tree_param":{"num_deleted":"0","num_feature":"30","num_nodes":"29","size_leaf_vector":"1"}},{"base_weights":[-2.649627E-4,-6.444158E-2,3.1431386E-1,3.2076918E-2,-2.1175143E-1,4.097741E-1,3.859952E-2,2.1697623E-3,1.98303E-1,-1.8169346E-1,-4.2833284E-1,4.770036E-1,-9.044578E-2,-0E0,4.5022276E-1,1.020323E-3,-5.812738E-4,2.734649E-3,-0E0,-2.5081532E-3,-5.652971E-4,-0E0,-5.0920844E-3,5.0438074E-3,9.68272E-3,-3.5037734E-3,-0E0,6.7609515E-5,-4.4266437E-3,-0E0,7.151621E-3],"categories":[],"categories_nodes":[],"categories_segments":[],"categories_sizes":[],"default_left":[0,0,0,0,0,0,0,0,0,0,0,0,0,0,0,0,0,0,0,0,0,0,0,0,0,0,0,0,0,0,0],"id":5,"left_children":[1,3,5,7,9,11,13,15,17,19,21,23,25,27,29,-1,-1,-1,-1,-1,-1,-1,-1,-1,-1,-1,-1,-1,-1,-1,-1],"loss_changes":[1.5028587E2,8.883894E1,3.200963E1,1.8104988E1,1.4503151E1,3.2242752E1,6.330074E0,1.4240357E1,4.510189E0,9.015038E0,1.4275475E0,9.61972E0,2.0088441E0,1.5418226E0,2.726438E0,0E0,0E0,0E0,0E0,0E0,0E0,0E0,0E0,0E0,0E0,0E0,0E0,0E0,0E0,0E0,0E0],"parents":[2147483647,0,0,1,1,2,2,3,3,4,4,5,5,6,6,7,7,8,8,9,9,10,10,11,11,12,12,13,13,14,14],"right_children":[2,4,6,8,10,12,14,16,18,20,22,24,26,28,30,-1,-1,-1,-1,-1,-1,-1,-1,-1,-1,-1,-1,-1,-1,-1,-1],"split_conditions":[1.0525806E0,2.4383979E-1,6.83768E-1,6.1773705E-1,1.7841117E0,1E0,2.5852046E0,-6.303173E-1,4.3138877E-1,6.4222956E-1,7.065252E-1,2.5852046E0,1E0,2.664267E0,-1.8478945E-1,1.020323E-3,-5.812738E-4,2.734649E-3,-0E0,-2.5081532E-3,-5.652971E-4,-0E0,-5.0920844E-3,5.0438074E-3,9.68272E-3,-3.5037734E-3,-0E0,6.7609515E-5,-4.4266437E-3,-0E0,7.151621E-3],"split_indices":[20,19,21,20,19,24,18,21,16,15,13,18,0,19,8,0,0,0,0,0,0,0,0,0,0,0,0,0,0,0,0],"split_type":[0,0,0,0,0,0,0,0,0,0,0,0,0,0,0,0,0,0,0,0,0,0,0,0,0,0,0,0,0,0,0],"sum_hessian":[7.475182E3,6.215528E3,1.2596544E3,3.7447788E3,2.4707488E3,9.286936E2,3.3096085E2,3.1870537E3,5.5772504E2,2.180479E3,2.902699E2,8.2318585E2,1.05507774E2,2.9758643E2,3.3374428E1,1.2256034E3,1.9614504E3,4.8087555E2,7.684948E1,1.7283086E3,4.521704E2,3.4179482E0,2.8685193E2,7.380149E2,8.517096E1,3.1558308E1,7.394947E1,2.8723978E2,1.0346654E1,8.264952E0,2.5109478E1],"tree_param":{"num_deleted":"0","num_feature":"30","num_nodes":"31","size_leaf_vector":"1"}},{"base_weights":[8.813876E-4,-1.034736E-1,3.6038864E-1,4.535935E-2,-2.8293917E-1,4.8836952E-1,-1.1018943E-1,1.4581816E-2,2.5128856E-1,-1.9467118E-1,-4.31777E-1,3.0716342E-1,7.339165E-1,-2.4542868E-1,2.4558563E-2,-5.5903435E-4,7.393033E-4,4.2783134E-3,1.7477558E-3,-2.6081142E-3,-2.5135657E-4,-5.0628195E-3,-0E0,4.2181E-3,9.74681E-4,1.0137209E-2,7.622081E-3,-0E0,-3.6510255E-3,-2.8959117E-4,2.5690247E-3],"categories":[],"categories_nodes":[],"categories_segments":[],"categories_sizes":[],"default_left":[0,0,0,0,0,0,0,0,0,0,0,0,0,0,0,0,0,0,0,0,0,0,0,0,0,0,0,0,0,0,0],"id":6,"left_children":[1,3,5,7,9,11,13,15,17,19,21,23,25,27,29,-1,-1,-1,-1,-1,-1,-1,-1,-1,-1,-1,-1,-1,-1,-1,-1],"loss_changes":[2.777037E2,1.533372E2,1.0136893E2,1.9081383E1,3.2530594E1,5.5771606E1,6.9879513E0,8.351285E0,3.2867985E0,7.608818E0,1.4713287E0,8.150627E0,1.9426575E0,2.9868803E0,2.1186395E0,0E0,0E0,0E0,0E0,0E0,0E0,0E0,0E0,0E0,0E0,0E0,0E0,0E0,0E0,0E0,0E0],"parents":[2147483647,0,0,1,1,2,2,3,3,4,4,5,5,6,6,7,7,8,8,9,9,10,10,11,11,12,12,13,13,14,14],"right_children":[2,4,6,8,10,12,14,16,18,20,22,24,26,28,30,-1,-1,-1,-1,-1,-1,-1,-1,-1,-1,-1,-1,-1,-1,-1,-1],"split_conditions":[4.6399823E-1,-1.6987956E-1,8.9533114E-1,5.9796743E-2,8.9533114E-1,1.4697709E0,1.4697709E0,-6.160567E-1,-6.8455654E-1,4.7364596E-2,2.2241895E0,1.8616009E-1,-5.828946E-1,6.187923E-1,1.7841117E0,-5.5903435E-4,7.393033E-4,4.2783134E-3,1.7477558E-3,-2.6081142E-3,-2.5135657E-4,-5.0628195E-3,-0E0,4.2181E-3,9.74681E-4,1.0137209E-2,7.622081E-3,-0E0,-3.6510255E-3,-2.8959117E-4,2.5690247E-3],"split_indices":[11,9,9,11,9,11,11,11,9,11,19,9,9,18,19,0,0,0,0,0,0,0,0,0,0,0,0,0,0,0,0],"split_type":[0,0,0,0,0,0,0,0,0,0,0,0,0,0,0,0,0,0,0,0,0,0,0,0,0,0,0,0,0,0,0],"sum_hessian":[7.3841025E3,5.7175464E3,1.6665563E3,3.117842E3,2.5997043E3,1.3144875E3,3.5206876E2,2.7235264E3,3.9431552E2,1.6431156E3,9.565888E2,7.6270526E2,5.517823E2,1.8507227E2,1.669965E2,1.171109E3,1.5524174E3,1.7219054E2,2.2212498E2,1.3949497E3,2.481659E2,9.5419855E2,2.3903067E0,6.038766E2,1.5882867E2,1.9275356E2,3.5902872E2,4.0948597E1,1.4412367E2,1.2310923E2,4.388728E1],"tree_param":{"num_deleted":"0","num_feature":"30","num_nodes":"31","size_leaf_vector":"1"}},{"base_weights":[5.8467905E-3,-2.384223E-1,3.3141185E-2,-2.5325313E-3,-2.676992E-1,6.333314E-2,-1.9170305E-1,-2.1495903E-1,5.405878E-2,-4.2296737E-1,-2.3928104E-1,-0E0,8.23714E-2,-1.2858513E-1,-3.5995597E-1,-4.455038E-3,-0E0,-5.4756623E-5,2.601189E-3,-5.336075E-3,-0E0,-2.4642881E-3,-5.3523686E-3,-8.2573574E-4,8.8902714E-4,7.846006E-4,1.6726723E-3,-9.2354894E-4,-2.2205757E-3,-0E0,-4.6394663E-3],"categories":[],"categories_nodes":[],"categories_segments":[],"categories_sizes":[],"default_left":[0,0,0,0,0,0,0,0,0,0,0,0,0,0,0,0,0,0,0,0,0,0,0,0,0,0,0,0,0,0,0],"id":7,"left_children":[1,3,5,7,9,11,13,15,17,19,21,23,25,27,29,-1,-1,-1,-1,-1,-1,-1,-1,-1,-1,-1,-1,-1,-1,-1,-1],"loss_changes":[4.946309E1,4.4476395E0,4.552086E1,1.52225E0,1.1547432E0,7.3551903E0,7.1213264E0,1.2780923E0,1.1888314E0,1.1316309E0,1.7366447E0,7.3015957E0,3.707035E0,1.0941238E0,1.8952045E0,0E0,0E0,0E0,0E0,0E0,0E0,0E0,0E0,0E0,0E0,0E0,0E0,0E0,0E0,0E0,0E0],"parents":[2147483647,0,0,1,1,2,2,3,3,4,4,5,5,6,6,7,7,8,8,9,9,10,10,11,11,12,12,13,13,14,14],"right_children":[2,4,6,8,10,12,14,16,18,20,22,24,26,28,30,-1,-1,-1,-1,-1,-1,-1,-1,-1,-1,-1,-1,-1,-1,-1,-1],"split_conditions":[-1.3408561E0,1.2063568E0,1.1073073E0,8.2056844E-1,-2.4889135E0,-5.089761E-1,2.000403E0,-8.563544E-1,-4.0506944E-1,3.2267983E0,1E0,-1.9980101E-1,6.1773705E-1,-1.6235192E-1,4.1210547E-1,-4.455038E-3,-0E0,-5.4756623E-5,2.601189E-3,-5.336075E-3,-0E0,-2.4642881E-3,-5.3523686E-3,-8.2573574E-4,8.8902714E-4,7.846006E-4,1.6726723E-3,-9.2354894E-4,-2.2205757E-3,-0E0,-4.6394663E-3],"split_indices":[10,9,10,9,10,10,10,19,16,20,25,17,20,23,13,0,0,0,0,0,0,0,0,0,0,0,0,0,0,0,0],"split_type":[0,0,0,0,0,0,0,0,0,0,0,0,0,0,0,0,0,0,0,0,0,0,0,0,0,0,0,0,0,0,0],"sum_hessian":[7.4970425E3,7.4386884E2,6.753174E3,9.181376E1,6.5205505E2,5.963928E3,7.892458E2,2.865486E1,6.31589E1,8.6329575E1,5.6572546E2,1.3543477E3,4.6095806E3,5.8536896E2,2.0387682E2,1.7636242E1,1.1018618E1,3.5836975E1,2.7321926E1,7.9144485E1,7.185089E0,5.1262067E2,5.310481E1,7.1570557E2,6.386421E2,3.729676E3,8.7990436E2,3.4872772E2,2.3664124E2,2.5019365E1,1.7885745E2],"tree_param":{"num_deleted":"0","num_feature":"30","num_nodes":"31","size_leaf_vector":"1"}},{"base_weights":[1.0042064E-3,4.1379893E-1,-1.5407991E-1,6.461907E-1,2.5026128E-1,-3.163759E-2,-3.3385047E-1,6.64868E-1,-0E0,1.957574E-1,4.0607002E-1,4.186854E-2,-1.1287184E-1,-2.3679565E-1,-4.6479237E-1,6.3258065E-3,9.001283E-3,-2.370945E-3,1.3124925E-4,2.8087492E-3,1.1580846E-3,5.2723875E-3,1.6593887E-3,6.7685556E-4,-9.519833E-4,-9.423093E-4,-2.5256847E-3,-2.9011378E-3,-4.920492E-4,-0E0,-5.6793354E-3],"categories":[],"categories_nodes":[],"categories_segments":[],"categories_sizes":[],"default_left":[0,0,0,0,0,0,0,0,0,0,0,0,0,0,0,0,0,0,0,0,0,0,0,0,0,0,0,0,0,0,0],"id":8,"left_children":[1,3,5,7,9,11,13,15,17,19,21,23,25,27,29,-1,-1,-1,-1,-1,-1,-1,-1,-1,-1,-1,-1,-1,-1,-1,-1],"loss_changes":[4.7621127E2,7.492862E1,1.1781845E2,1.12196045E1,8.630264E0,1.9399048E1,2.5844498E1,7.15506E0,3.851653E-1,3.0441132E0,2.084015E0,3.281254E0,4.373596E0,2.189087E0,8.351227E0,0E0,0E0,0E0,0E0,0E0,0E0,0E0,0E0,0E0,0E0,0E0,0E0,0E0,0E0,0E0,0E0],"parents":[2147483647,0,0,1,1,2,2,3,3,4,4,5,5,6,6,7,7,8,8,9,9,10,10,11,11,12,12,13,13,14,14],"right_children":[2,4,6,8,10,12,14,16,18,20,22,24,26,28,30,-1,-1,-1,-1,-1,-1,-1,-1,-1,-1,-1,-1,-1,-1,-1,-1],"split_conditions":[-5.303795E-1,-1.2739322E0,3.6775354E-1,6.3667357E-1,-2.2531648E-1,-4.2629983E-2,9.744663E-1,1.9546995E0,1.4927534E0,1.3159653E-2,8.1842846E-1,2.1615091E-1,1E0,1E0,2.1615091E-1,6.3258065E-3,9.001283E-3,-2.370945E-3,1.3124925E-4,2.8087492E-3,1.1580846E-3,5.2723875E-3,1.6593887E-3,6.7685556E-4,-9.519833E-4,-9.423093E-4,-2.5256847E-3,-2.9011378E-3,-4.920492E-4,-0E0,-5.6793354E-3],"split_indices":[10,10,10,11,11,10,10,9,18,16,11,11,24,1,11,0,0,0,0,0,0,0,0,0,0,0,0,0,0,0,0],"split_type":[0,0,0,0,0,0,0,0,0,0,0,0,0,0,0,0,0,0,0,0,0,0,0,0,0,0,0,0,0,0,0],"sum_hessian":[7.427762E3,2.0328488E3,5.3949136E3,8.328484E2,1.2000005E3,3.2178188E3,2.1770947E3,8.120783E2,2.0770071E1,9.016615E2,2.9833896E2,1.6728011E3,1.5450176E3,1.2620259E3,9.150687E2,3.904694E2,4.2160892E2,8.993964E0,1.1776106E1,5.9615576E2,3.0550574E2,2.456084E2,5.2730564E1,1.4976205E3,1.7518066E2,1.1992167E3,3.4580087E2,1.1765288E3,8.5497086E1,4.6216137E1,8.688526E2],"tree_param":{"num_deleted":"0","num_feature":"30","num_nodes":"31","size_leaf_vector":"1"}},{"base_weights":[-0E0,-1.14562266E-1,3.38148E-1,-1.3204855E-2,-3.850678E-1,5.327387E-1,2.343669E-2,4.0551234E-2,-1.2846279E-1,-3.0418637E-1,-4.6775237E-1,3.9483806E-1,7.645061E-1,1.940919E-1,-1.9235632E-1,-2.9997365E-4,1.2820406E-3,-2.0870212E-3,9.881087E-5,-3.8817888E-3,-1.0767037E-3,-5.5020163E-3,-0E0,4.966922E-3,1.6274203E-3,-0E0,8.969382E-3,-0E0,4.4115065E-3,-3.3130366E-3,-0E0],"categories":[],"categories_nodes":[],"categories_segments":[],"categories_sizes":[],"default_left":[0,0,0,0,0,0,0,0,0,0,0,0,0,0,0,0,0,0,0,0,0,0,0,0,0,0,0,0,0,0,0],"id":9,"left_children":[1,3,5,7,9,11,13,15,17,19,21,23,25,27,29,-1,-1,-1,-1,-1,-1,-1,-1,-1,-1,-1,-1,-1,-1,-1,-1],"loss_changes":[2.8787543E2,1.5140208E2,1.136754E2,2.5326786E1,8.071304E0,3.390512E1,2.6656897E1,1.2849047E1,9.448975E0,3.6310654E0,1.4981232E0,4.3402634E0,1.3506622E0,1.385327E1,5.4281254E0,0E0,0E0,0E0,0E0,0E0,0E0,0E0,0E0,0E0,0E0,0E0,0E0,0E0,0E0,0E0,0E0],"parents":[2147483647,0,0,1,1,2,2,3,3,4,4,5,5,6,6,7,7,8,8,9,9,10,10,11,11,12,12,13,13,14,14],"right_children":[2,4,6,8,10,12,14,16,18,20,22,24,26,28,30,-1,-1,-1,-1,-1,-1,-1,-1,-1,-1,-1,-1,-1,-1,-1,-1],"split_conditions":[3.505754E-1,3.8421497E-1,1.2123695E-1,-2.598705E-1,1.2957001E0,1.5656976E0,1.2063568E0,-4.873645E-1,-1.9164263E-1,4.7364596E-2,1.7841117E0,1E0,-1.6256167E0,1.0530763E0,1.7722584E0,-2.9997365E-4,1.2820406E-3,-2.0870212E-3,9.881087E-5,-3.8817888E-3,-1.0767037E-3,-5.5020163E-3,-0E0,4.966922E-3,1.6274203E-3,-0E0,8.969382E-3,-0E0,4.4115065E-3,-3.3130366E-3,-0E0],"split_indices":[11,9,9,9,9,11,9,11,11,11,19,4,9,11,11,0,0,0,0,0,0,0,0,0,0,0,0,0,0,0,0],"split_type":[0,0,0,0,0,0,0,0,0,0,0,0,0,0,0,0,0,0,0,0,0,0,0,0,0,0,0,0,0,0,0],"sum_hessian":[7.4382173E3,5.5589795E3,1.8792377E3,4.0508884E3,1.5080911E3,1.1560836E3,7.2315405E2,2.7474646E3,1.3034238E3,7.7868427E2,7.2940674E2,7.322305E2,4.2385312E2,4.1044687E2,3.127072E2,1.3863777E3,1.3610869E3,9.659218E2,3.3750204E2,6.7515656E2,1.0352771E2,7.2381116E2,5.5955877E0,6.437562E2,8.847434E1,2.7170641E0,4.2113605E2,2.0576279E2,2.0468408E2,2.1049896E2,1.0220826E2],"tree_param":{"num_deleted":"0","num_feature":"30","num_nodes":"31","size_leaf_vector":"1"}},{"base_weights":[-5.244534E-4,-2.192362E-1,2.3736835E-2,-2.5888866E-1,-9.958974E-2,5.4139026E-2,-2.0571779E-1,-2.673491E-1,-0E0,-0E0,-1.6605343E-1,-2.0437768E-2,7.83827E-2,-1.455798E-1,-3.6629656E-1,-3.177103E-3,-0E0,3.1026292E-3,-0E0,1.8612079E-3,-1.3066586E-3,-2.3558214E-3,-0E0,-9.93188E-4,1.6285961E-4,-2.0327976E-3,1.0062454E-3,-0E0,-1.9088945E-3,-0E0,-4.9938816E-3],"categories":[],"categories_nodes":[],"categories_segments":[],"categories_sizes":[],"default_left":[0,0,0,0,0,0,0,0,0,0,0,0,0,0,0,0,0,0,0,0,0,0,0,0,0,0,0,0,0,0,0],"id":10,"left_children":[1,3,5,7,9,11,13,15,17,19,21,23,25,27,29,-1,-1,-1,-1,-1,-1,-1,-1,-1,-1,-1,-1,-1,-1,-1,-1],"loss_changes":[3.9911858E1,2.6438675E0,4.6181534E1,1.6240501E0,1.7168727E0,1.0823902E1,6.1222267E0,1.1001625E0,2.79185E-1,1.3351909E0,1.3049862E0,3.3504703E0,8.719679E0,1.8205566E0,4.4021645E0,0E0,0E0,0E0,0E0,0E0,0E0,0E0,0E0,0E0,0E0,0E0,0E0,0E0,0E0,0E0,0E0],"parents":[2147483647,0,0,1,1,2,2,3,3,4,4,5,5,6,6,7,7,8,8,9,9,10,10,11,11,12,12,13,13,14,14],"right_children":[2,4,6,8,10,12,14,16,18,20,22,24,26,28,30,-1,-1,-1,-1,-1,-1,-1,-1,-1,-1,-1,-1,-1,-1,-1,-1],"split_conditions":[-1.3408561E0,-1.5757238E0,1.1073073E0,1.3801548E0,-6.886132E-1,-4.769115E-1,2.000403E0,6.1473703E-1,-8.232986E-1,7.505097E-1,6.568938E-1,-4.0506944E-1,-1.7344497E0,-1.962379E-1,4.6387863E-1,-3.177103E-3,-0E0,3.1026292E-3,-0E0,1.8612079E-3,-1.3066586E-3,-2.3558214E-3,-0E0,-9.93188E-4,1.6285961E-4,-2.0327976E-3,1.0062454E-3,-0E0,-1.9088945E-3,-0E0,-4.9938816E-3],"split_indices":[10,10,10,22,11,10,10,11,16,14,11,16,15,19,19,0,0,0,0,0,0,0,0,0,0,0,0,0,0,0,0],"split_type":[0,0,0,0,0,0,0,0,0,0,0,0,0,0,0,0,0,0,0,0,0,0,0,0,0,0,0,0,0,0,0],"sum_hessian":[7.426861E3,7.5188354E2,6.674977E3,5.484115E2,2.0347205E2,5.904073E3,7.7090405E2,5.369549E2,1.1456623E1,6.820466E1,1.352674E2,1.4225691E3,4.481504E3,5.7285144E2,1.9805258E2,5.3199866E2,4.956241E0,3.6559024E0,7.80072E0,3.624448E1,3.1960175E1,1.2330515E2,1.1962244E1,5.193877E2,9.031814E2,1.2577638E2,4.3557275E3,5.1749012E1,5.211024E2,2.9181623E1,1.6887096E2],"tree_param":{"num_deleted":"0","num_feature":"30","num_nodes":"31","size_leaf_vector":"1"}},{"base_weights":[-8.228282E-4,-6.3179545E-2,3.0810934E-1,3.780606E-2,-2.1487707E-1,3.9588457E-1,4.98783E-2,-4.4216574E-3,1.2123408E-1,-1.8434292E-1,-4.3815926E-1,4.5868042E-1,-7.038838E-2,-0E0,4.8026648E-1,8.1091933E-4,-6.095932E-4,1.0267108E-3,2.813018E-3,-2.689116E-3,-1.1686244E-3,-5.1681856E-3,-0E0,4.0939655E-3,7.1091736E-3,-3.4349721E-3,1.9898189E-5,2.0858574E-4,-5.4603657E-3,6.9906116E-3,-0E0],"categories":[],"categories_nodes":[],"categories_segments":[],"categories_sizes":[],"default_left":[0,0,0,0,0,0,0,0,0,0,0,0,0,0,0,0,0,0,0,0,0,0,0,0,0,0,0,0,0,0,0],"id":11,"left_children":[1,3,5,7,9,11,13,15,17,19,21,23,25,27,29,-1,-1,-1,-1,-1,-1,-1,-1,-1,-1,-1,-1,-1,-1,-1,-1],"loss_changes":[1.4230159E2,9.5132545E1,2.6941406E1,1.333553E1,1.5292786E1,2.7863922E1,6.7548633E0,8.578926E0,4.1855984E0,7.674591E0,6.928177E-1,1.0691666E1,2.434706E0,2.2780693E0,1.6402979E0,0E0,0E0,0E0,0E0,0E0,0E0,0E0,0E0,0E0,0E0,0E0,0E0,0E0,0E0,0E0,0E0],"parents":[2147483647,0,0,1,1,2,2,3,3,4,4,5,5,6,6,7,7,8,8,9,9,10,10,11,11,12,12,13,13,14,14],"right_children":[2,4,6,8,10,12,14,16,18,20,22,24,26,28,30,-1,-1,-1,-1,-1,-1,-1,-1,-1,-1,-1,-1,-1,-1,-1,-1],"split_conditions":[1.0557728E0,2.4383979E-1,6.83768E-1,1.8289353E-1,1.7841117E0,1E0,2.5852046E0,-6.303173E-1,8.351588E-1,1.8289353E-1,1E0,1.7112436E0,1E0,2.664267E0,2.1043053E0,8.1091933E-4,-6.095932E-4,1.0267108E-3,2.813018E-3,-2.689116E-3,-1.1686244E-3,-5.1681856E-3,-0E0,4.0939655E-3,7.1091736E-3,-3.4349721E-3,1.9898189E-5,2.0858574E-4,-5.4603657E-3,6.9906116E-3,-0E0],"split_indices":[18,19,21,20,19,24,18,21,20,20,1,18,0,19,16,0,0,0,0,0,0,0,0,0,0,0,0,0,0,0,0],"split_type":[0,0,0,0,0,0,0,0,0,0,0,0,0,0,0,0,0,0,0,0,0,0,0,0,0,0,0,0,0,0,0],"sum_hessian":[7.4188687E3,6.179977E3,1.2388916E3,3.7001345E3,2.4798428E3,9.1709863E2,3.217929E2,2.4364917E3,1.2636428E3,2.192062E3,2.8778067E2,8.130872E2,1.04011406E2,2.8932257E2,3.2470345E1,9.360754E2,1.5004163E3,1.00681287E3,2.5683002E2,1.3948378E3,7.9722424E2,2.8488135E2,2.899327E0,4.8496448E2,3.2812274E2,3.3733982E1,7.027743E1,2.7962723E2,9.695337E0,2.5308699E1,7.1616464E0],"tree_param":{"num_deleted":"0","num_feature":"30","num_nodes":"31","size_leaf_vector":"1"}},{"base_weights":[4.772039E-3,-7.772072E-2,4.6144444E-1,2.9953467E-2,-3.3120966E-1,5.7743263E-1,2.5351254E-2,-1.9088613E-2,2.2336473E-1,-2.3515485E-1,-4.4335705E-1,3.7645066E-1,7.0926803E-1,1.2968202E-1,-2.394307E-1,1.1449733E-3,-6.878181E-4,4.6443995E-3,1.5325526E-3,-3.4949917E-3,-3.34799E-4,-5.719429E-3,-4.0820865E-3,5.751051E-3,2.6441533E-3,1.0720644E-2,7.3603876E-3,2.7653392E-4,4.446992E-3,-3.970061E-3,-0E0],"categories":[],"categories_nodes":[],"categories_segments":[],"categories_sizes":[],"default_left":[0,0,0,0,0,0,0,0,0,0,0,0,0,0,0,0,0,0,0,0,0,0,0,0,0,0,0,0,0,0,0],"id":12,"left_children":[1,3,5,7,9,11,13,15,17,19,21,23,25,27,29,-1,-1,-1,-1,-1,-1,-1,-1,-1,-1,-1,-1,-1,-1,-1,-1],"loss_changes":[2.8093475E2,1.724425E2,5.6204575E1,4.233154E1,1.8509735E1,2.0918182E1,6.490967E0,1.6298351E1,1.3135792E1,1.283234E1,1.5578308E0,4.4790916E0,4.626343E0,3.8334432E0,1.6539724E0,0E0,0E0,0E0,0E0,0E0,0E0,0E0,0E0,0E0,0E0,0E0,0E0,0E0,0E0,0E0,0E0],"parents":[2147483647,0,0,1,1,2,2,3,3,4,4,5,5,6,6,7,7,8,8,9,9,10,10,11,11,12,12,13,13,14,14],"right_children":[2,4,6,8,10,12,14,16,18,20,22,24,26,28,30,-1,-1,-1,-1,-1,-1,-1,-1,-1,-1,-1,-1,-1,-1,-1,-1],"split_conditions":[8.7738895E-1,2.684598E-1,8.668616E-1,5.9796743E-2,1.2063568E0,1.5656976E0,1.7112436E0,-8.215015E-1,-6.8455654E-1,4.7364596E-2,-1.6981705E-1,-3.1443232E-1,-7.656606E-1,2.261047E0,2.2048962E0,1.1449733E-3,-6.878181E-4,4.6443995E-3,1.5325526E-3,-3.4949917E-3,-3.34799E-4,-5.719429E-3,-4.0820865E-3,5.751051E-3,2.6441533E-3,1.0720644E-2,7.3603876E-3,2.7653392E-4,4.446992E-3,-3.970061E-3,-0E0],"split_indices":[11,9,9,11,9,11,18,9,9,11,11,9,9,11,11,0,0,0,0,0,0,0,0,0,0,0,0,0,0,0,0],"split_type":[0,0,0,0,0,0,0,0,0,0,0,0,0,0,0,0,0,0,0,0,0,0,0,0,0,0,0,0,0,0,0],"sum_hessian":[7.43073E3,6.2892793E3,1.1414507E3,4.4073403E3,1.881939E3,8.9693195E2,2.4451874E2,3.5055034E3,9.018367E2,1.0264711E3,8.554679E2,3.634213E2,5.335107E2,1.8244234E2,6.2076397E1,8.733602E2,2.6321433E3,3.009049E2,6.0093176E2,7.725378E2,2.5393332E2,5.497942E2,3.0567368E2,1.9429744E2,1.6912386E2,1.3503146E2,3.9847922E2,1.3575256E2,4.6689785E1,4.483969E1,1.7236706E1],"tree_param":{"num_deleted":"0","num_feature":"30","num_nodes":"31","size_leaf_vector":"1"}},{"base_weights":[-1.1995627E-3,-1.9890612E-1,2.0801708E-2,-3.3404043E-1,-1.553617E-1,4.93044E-2,-1.926305E-1,-4.6211416E-3,-5.6542538E-2,1.3478057E-1,-1.6942872E-1,-1.1012669E-2,6.8967E-2,-1.3727954E-1,-3.3223113E-1,-0E0,-2.3199257E-3,3.3047753E-3,-0E0,-2.5677334E-3,-8.582304E-4,-7.301085E-4,4.9906503E-4,4.9697715E-5,9.933283E-4,-8.7493483E-4,-2.539796E-3,-0E0,-4.336399E-3],"categories":[],"categories_nodes":[],"categories_segments":[],"categories_sizes":[],"default_left":[0,0,0,0,0,0,0,0,0,0,0,0,0,0,0,0,0,0,0,0,0,0,0,0,0,0,0,0,0],"id":13,"left_children":[1,3,5,7,9,11,13,-1,15,17,19,21,23,25,27,-1,-1,-1,-1,-1,-1,-1,-1,-1,-1,-1,-1,-1,-1],"loss_changes":[3.2844444E1,3.1889324E0,4.0326458E1,1.7683277E0,2.4934673E0,7.1595573E0,4.793274E0,0E0,5.3499436E-1,8.575034E-1,2.010273E0,3.9972649E0,4.478796E0,2.104395E0,2.256607E0,0E0,0E0,0E0,0E0,0E0,0E0,0E0,0E0,0E0,0E0,0E0,0E0,0E0,0E0],"parents":[2147483647,0,0,1,1,2,2,3,3,4,4,5,5,6,6,8,8,9,9,10,10,11,11,12,12,13,13,14,14],"right_children":[2,4,6,8,10,12,14,-1,16,18,20,22,24,26,28,-1,-1,-1,-1,-1,-1,-1,-1,-1,-1,-1,-1,-1,-1],"split_conditions":[-1.3408561E0,-2.233841E0,1.1073073E0,5.687623E-1,-1.6488324E0,-4.769115E-1,2.000403E0,-4.6211416E-3,1E0,-1.2415277E0,-1.7578265E-1,-1.7673394E-1,-8.8991666E-1,-1.6235192E-1,4.1210547E-1,-0E0,-2.3199257E-3,3.3047753E-3,-0E0,-2.5677334E-3,-8.582304E-4,-7.301085E-4,4.9906503E-4,4.9697715E-5,9.933283E-4,-8.7493483E-4,-2.539796E-3,-0E0,-4.336399E-3],"split_indices":[10,10,10,8,13,10,10,0,5,16,22,13,14,23,13,0,0,0,0,0,0,0,0,0,0,0,0,0,0],"split_type":[0,0,0,0,0,0,0,0,0,0,0,0,0,0,0,0,0,0,0,0,0,0,0,0,0,0,0,0,0],"sum_hessian":[7.4454756E3,7.5699335E2,6.6884824E3,1.6969156E2,5.873018E2,5.9112744E3,7.7720795E2,1.3099292E2,3.869864E1,1.8632248E1,5.6866956E2,1.421298E3,4.4899766E3,5.7007666E2,2.071313E2,2.231634E1,1.63823E1,1.4671648E1,3.960599E0,3.541369E2,2.1453264E2,7.498386E2,6.714593E2,9.308695E2,3.559107E3,3.3967218E2,2.3040445E2,2.5487263E1,1.8164404E2],"tree_param":{"num_deleted":"0","num_feature":"30","num_nodes":"29","size_leaf_vector":"1"}},{"base_weights":[1.2222796E-3,4.177112E-1,-1.679525E-1,6.701751E-1,2.7646792E-1,-7.3043585E-2,-3.85575E-1,6.835155E-1,-0E0,3.0135062E-1,5.2662693E-2,1.7573059E-2,-1.421604E-1,-3.091743E-1,-5.111518E-1,9.101888E-3,7.0603103E-3,-1.338261E-4,-0E0,2.539481E-3,4.3386025E-3,-0E0,3.2791723E-3,-1.8858027E-5,2.2046075E-3,-1.318785E-3,-2.7548438E-3,-0E0,-3.6208136E-3,-0E0,-6.0293744E-3],"categories":[],"categories_nodes":[],"categories_segments":[],"categories_sizes":[],"default_left":[0,0,0,0,0,0,0,0,0,0,0,0,0,0,0,0,0,0,0,0,0,0,0,0,0,0,0,0,0,0,0],"id":14,"left_children":[1,3,5,7,9,11,13,15,17,19,21,23,25,27,29,-1,-1,-1,-1,-1,-1,-1,-1,-1,-1,-1,-1,-1,-1,-1,-1],"loss_changes":[5.239725E2,7.418585E1,1.0782341E2,7.4830627E0,6.805786E0,2.338939E1,1.3152664E1,2.0050354E0,6.974994E-4,5.7723694E0,2.150469E0,5.67177E0,4.8582764E0,5.721588E-1,2.1334991E0,0E0,0E0,0E0,0E0,0E0,0E0,0E0,0E0,0E0,0E0,0E0,0E0,0E0,0E0,0E0,0E0],"parents":[2147483647,0,0,1,1,2,2,3,3,4,4,5,5,6,6,7,7,8,8,9,9,10,10,11,11,12,12,13,13,14,14],"right_children":[2,4,6,8,10,12,14,16,18,20,22,24,26,28,30,-1,-1,-1,-1,-1,-1,-1,-1,-1,-1,-1,-1,-1,-1,-1,-1],"split_conditions":[-4.9954578E-1,-1.3408561E0,5.910766E-1,6.3667357E-1,1E0,-4.2629983E-2,1.3389043E0,-1.9314755E0,1.2086833E-1,-7.188018E-1,-6.015966E-1,1E0,6.83768E-1,-7.431397E-1,-7.655734E-1,9.101888E-3,7.0603103E-3,-1.338261E-4,-0E0,2.539481E-3,4.3386025E-3,-0E0,3.2791723E-3,-1.8858027E-5,2.2046075E-3,-1.318785E-3,-2.7548438E-3,-0E0,-3.6208136E-3,-0E0,-6.0293744E-3],"split_indices":[10,10,10,11,0,10,10,10,8,11,10,25,21,11,13,0,0,0,0,0,0,0,0,0,0,0,0,0,0,0,0],"split_type":[0,0,0,0,0,0,0,0,0,0,0,0,0,0,0,0,0,0,0,0,0,0,0,0,0,0,0,0,0,0,0],"sum_hessian":[7.426869E3,2.1495708E3,5.2772983E3,7.6427606E2,1.3852949E3,3.6831545E3,1.5941437E3,7.507396E2,1.3536428E1,1.2363094E3,1.4898544E2,1.5777797E3,2.1053748E3,1.00442725E3,5.897164E2,3.1938913E2,4.313505E2,5.008466E0,8.527963E0,5.8334656E2,6.529629E2,1.1683458E2,3.215086E1,1.4057996E3,1.7198013E2,1.6293231E3,4.7605164E2,2.3419468E0,1.0020853E3,5.2247386E0,5.8449164E2],"tree_param":{"num_deleted":"0","num_feature":"30","num_nodes":"31","size_leaf_vector":"1"}},{"base_weights":[-1.951423E-3,-1.2415958E-1,4.6073216E-1,-3.5038278E-1,-1.2687464E-2,3.1056243E-1,6.944318E-1,-1.6126396E-1,-3.936893E-1,-1.2677936E-1,5.497618E-2,2.5668305E-1,4.4949067E-1,5.784608E-1,8.924299E-1,-2.0302879E-3,-0E0,-5.792673E-3,-4.0372373E-3,2.202133E-3,-1.6323086E-3,-2.8105651E-5,1.0121509E-3,1.7095807E-3,3.426099E-3,-0E0,5.695209E-3,4.499144E-3,7.7760336E-3,-0E0,1.0514987E-2],"categories":[],"categories_nodes":[],"categories_segments":[],"categories_sizes":[],"default_left":[0,0,0,0,0,0,0,0,0,0,0,0,0,0,0,0,0,0,0,0,0,0,0,0,0,0,0,0,0,0,0],"id":15,"left_children":[1,3,5,7,9,11,13,15,17,19,21,23,25,27,29,-1,-1,-1,-1,-1,-1,-1,-1,-1,-1,-1,-1,-1,-1,-1,-1],"loss_changes":[4.2142273E2,1.4816144E2,5.1975525E1,1.4483383E1,3.0821947E1,5.304741E0,9.906647E0,1.0740747E0,5.481476E0,6.085888E0,4.737668E0,1.7255096E0,4.055958E0,3.841034E0,1.1006775E0,0E0,0E0,0E0,0E0,0E0,0E0,0E0,0E0,0E0,0E0,0E0,0E0,0E0,0E0,0E0,0E0],"parents":[2147483647,0,0,1,1,2,2,3,3,4,4,5,5,6,6,7,7,8,8,9,9,10,10,11,11,12,12,13,13,14,14],"right_children":[2,4,6,8,10,12,14,16,18,20,22,24,26,28,30,-1,-1,-1,-1,-1,-1,-1,-1,-1,-1,-1,-1,-1,-1,-1,-1],"split_conditions":[6.173573E-1,-5.6593096E-1,1.3389043E0,2.684598E-1,-1.1679781E-1,1.0499376E0,2.000403E0,4.6387863E-1,-1.6570181E0,-8.582133E-1,8.7989666E-2,5.9796743E-2,2.0339118E-1,6.8391746E-1,-4.1627675E-1,-2.0302879E-3,-0E0,-5.792673E-3,-4.0372373E-3,2.202133E-3,-1.6323086E-3,-2.8105651E-5,1.0121509E-3,1.7095807E-3,3.426099E-3,-0E0,5.695209E-3,4.499144E-3,7.7760336E-3,-0E0,1.0514987E-2],"split_indices":[10,10,10,9,10,10,10,19,10,9,10,11,11,19,19,0,0,0,0,0,0,0,0,0,0,0,0,0,0,0,0],"split_type":[0,0,0,0,0,0,0,0,0,0,0,0,0,0,0,0,0,0,0,0,0,0,0,0,0,0,0,0,0,0,0],"sum_hessian":[7.467692E3,5.911923E3,1.5557689E3,1.9437252E3,3.9681978E3,9.54227E2,6.01542E2,3.734262E2,1.5702991E3,1.491257E3,2.476941E3,7.014351E2,2.5279185E2,3.882141E2,2.1332785E2,3.5586404E2,1.7562172E1,4.7799533E2,1.0923037E3,5.1837017E1,1.43942E3,8.547205E2,1.6222203E3,1.9445366E2,5.0698148E2,2.1637503E1,2.3115436E2,1.3156026E2,2.5665384E2,2.9581628E0,2.1036969E2],"tree_param":{"num_deleted":"0","num_feature":"30","num_nodes":"31","size_leaf_vector":"1"}},{"base_weights":[1.4649783E-3,-2.2693737E-1,2.7478222E-2,-2.3566817E-1,6.767133E-4,5.9150197E-2,-1.8944971E-1,-2.0575163E-1,-4.892146E-3,2.4994649E-1,-0E0,-8.076187E-3,7.981785E-2,-1.3490553E-1,-3.50067E-1,-2.6136967E-3,-0E0,-0E0,4.946963E-3,-2.8754103E-3,-0E0,-8.236974E-4,6.7014486E-4,3.8271148E-3,8.856897E-4,1.1269781E-4,-1.7780762E-3,-0E0,-4.378313E-3],"categories":[],"categories_nodes":[],"categories_segments":[],"categories_sizes":[],"default_left":[0,0,0,0,0,0,0,0,0,0,0,0,0,0,0,0,0,0,0,0,0,0,0,0,0,0,0,0,0],"id":16,"left_children":[1,3,5,7,9,11,13,15,-1,17,19,21,23,25,27,-1,-1,-1,-1,-1,-1,-1,-1,-1,-1,-1,-1,-1,-1],"loss_changes":[4.3693672E1,2.0930252E0,4.5628426E1,2.4098892E0,5.679413E-1,8.308355E0,6.1219883E0,2.0686493E0,0E0,6.301209E-1,3.3594006E-1,5.553043E0,3.2929401E0,1.9919004E0,1.7871113E0,0E0,0E0,0E0,0E0,0E0,0E0,0E0,0E0,0E0,0E0,0E0,0E0,0E0,0E0],"parents":[2147483647,0,0,1,1,2,2,3,3,4,4,5,5,6,6,7,7,9,9,10,10,11,11,12,12,13,13,14,14],"right_children":[2,4,6,8,10,12,14,16,-1,18,20,22,24,26,28,-1,-1,-1,-1,-1,-1,-1,-1,-1,-1,-1,-1,-1,-1],"split_conditions":[-1.3408561E0,6.3667357E-1,1.0499376E0,2.3667145E0,7.065252E-1,-4.9954578E-1,2.000403E0,6.8391746E-1,-4.892146E-3,2.3800941E-2,1.7841117E0,-1.9980101E-1,-1.9565487E0,-1.5661104E0,1.17685765E-1,-2.6136967E-3,-0E0,-0E0,4.946963E-3,-2.8754103E-3,-0E0,-8.236974E-4,6.7014486E-4,3.8271148E-3,8.856897E-4,1.1269781E-4,-1.7780762E-3,-0E0,-4.378313E-3],"split_indices":[10,11,10,18,13,10,10,19,0,19,19,17,19,18,13,0,0,0,0,0,0,0,0,0,0,0,0,0,0],"split_type":[0,0,0,0,0,0,0,0,0,0,0,0,0,0,0,0,0,0,0,0,0,0,0,0,0,0,0,0,0],"sum_hessian":[7.439299E3,7.5036127E2,6.6889375E3,7.3345807E2,1.6903204E1,5.847233E3,8.4170447E2,6.432834E2,9.0174706E1,8.802002E0,8.101203E0,1.3458663E3,4.5013667E3,6.4061804E2,2.0108646E2,5.833835E2,5.98999E1,2.4319522E0,6.3700495E0,5.237733E0,2.8634703E0,7.0858765E2,6.372787E2,5.8680664E1,4.442686E3,5.35827E1,5.8703534E2,1.3585891E1,1.8750058E2],"tree_param":{"num_deleted":"0","num_feature":"30","num_nodes":"29","size_leaf_vector":"1"}},{"base_weights":[-1.1060846E-5,-1.2812956E-1,3.2281283E-1,-4.797582E-2,-4.1139445E-1,4.4785428E-1,-1.3589716E-1,3.4010135E-2,-1.270445E-1,-3.0984634E-1,-4.873955E-1,2.7821228E-1,6.620248E-1,-3.3764738E-1,-4.046925E-2,-1.2880951E-3,9.886727E-4,-1.7596604E-3,8.899869E-4,-2.0780643E-3,-4.1366233E-3,-0E0,-5.7109925E-3,3.8849793E-3,-6.0735765E-4,6.4542475E-3,8.614409E-3,-0E0,-4.8277304E-3,1.1864164E-3,-1.7934896E-3],"categories":[],"categories_nodes":[],"categories_segments":[],"categories_sizes":[],"default_left":[0,0,0,0,0,0,0,0,0,0,0,0,0,0,0,0,0,0,0,0,0,0,0,0,0,0,0,0,0,0,0],"id":17,"left_children":[1,3,5,7,9,11,13,15,17,19,21,23,25,27,29,-1,-1,-1,-1,-1,-1,-1,-1,-1,-1,-1,-1,-1,-1,-1,-1],"loss_changes":[3.066961E2,1.1967261E2,1.21527435E2,2.7182121E1,6.9223785E0,5.7786987E1,7.627549E0,1.4784141E1,1.0525219E1,1.656929E0,6.614227E-1,1.7630074E1,2.616516E0,4.058669E0,5.167091E0,0E0,0E0,0E0,0E0,0E0,0E0,0E0,0E0,0E0,0E0,0E0,0E0,0E0,0E0,0E0,0E0],"parents":[2147483647,0,0,1,1,2,2,3,3,4,4,5,5,6,6,7,7,8,8,9,9,10,10,11,11,12,12,13,13,14,14],"right_children":[2,4,6,8,10,12,14,16,18,20,22,24,26,28,30,-1,-1,-1,-1,-1,-1,-1,-1,-1,-1,-1,-1,-1,-1,-1,-1],"split_conditions":[3.8421497E-1,4.2319164E-1,6.3667357E-1,-4.873645E-1,1.0530763E0,1.4212608E0,8.668616E-1,-8.110099E-1,1.0744515E-1,1.2912561E-1,-2.4400713E0,1.9204329E-1,1.9948784E0,-2.2064728E-1,1.3718561E0,-1.2880951E-3,9.886727E-4,-1.7596604E-3,8.899869E-4,-2.0780643E-3,-4.1366233E-3,-0E0,-5.7109925E-3,3.8849793E-3,-6.0735765E-4,6.4542475E-3,8.614409E-3,-0E0,-4.8277304E-3,1.1864164E-3,-1.7934896E-3],"split_indices":[9,11,11,11,11,9,9,9,9,7,18,11,9,12,11,0,0,0,0,0,0,0,0,0,0,0,0,0,0,0,0],"split_type":[0,0,0,0,0,0,0,0,0,0,0,0,0,0,0,0,0,0,0,0,0,0,0,0,0,0,0,0,0,0,0],"sum_hessian":[7.4268003E3,5.32255E3,2.1042502E3,4.15594E3,1.1666104E3,1.6579014E3,4.463489E2,2.0245248E3,2.131415E3,5.1441376E2,6.5219653E2,9.321594E2,7.257419E2,1.3448344E2,3.1186548E2,5.1323193E2,1.5112928E3,1.9191532E3,2.1226175E2,1.4553351E2,3.6888028E2,3.2947721E0,6.489018E2,8.059543E2,1.2620516E2,3.1491168E2,4.1083017E2,2.1414013E1,1.1306943E2,1.283024E2,1.8356306E2],"tree_param":{"num_deleted":"0","num_feature":"30","num_nodes":"31","size_leaf_vector":"1"}},{"base_weights":[-5.226219E-3,-1.353075E-1,4.2041337E-1,-3.1283638E-1,4.4372628E-5,2.782167E-1,6.8926775E-1,-4.772197E-1,-2.4544238E-1,-7.582061E-2,5.8495473E-2,2.3043156E-1,4.235385E-1,5.779937E-1,8.7637824E-1,-0E0,-5.6063156E-3,-1.7646267E-3,-3.4998627E-3,-9.6234574E-4,3.325219E-3,5.9233693E-4,4.5948513E-3,1.819294E-3,3.2435877E-3,-0E0,5.370902E-3,4.0511573E-3,7.4465256E-3,-0E0,1.0373919E-2],"categories":[],"categories_nodes":[],"categories_segments":[],"categories_sizes":[],"default_left":[0,0,0,0,0,0,0,0,0,0,0,0,0,0,0,0,0,0,0,0,0,0,0,0,0,0,0,0,0,0,0],"id":18,"left_children":[1,3,5,7,9,11,13,15,17,19,21,23,25,27,29,-1,-1,-1,-1,-1,-1,-1,-1,-1,-1,-1,-1,-1,-1,-1,-1],"loss_changes":[4.1436978E2,1.3888992E2,6.4383514E1,2.5749557E1,1.4381433E1,6.29496E0,8.605347E0,1.2865753E0,7.991646E0,2.8622723E0,3.656479E0,2.001854E0,3.235756E0,2.785736E0,2.1957245E0,0E0,0E0,0E0,0E0,0E0,0E0,0E0,0E0,0E0,0E0,0E0,0E0,0E0,0E0,0E0,0E0],"parents":[2147483647,0,0,1,1,2,2,3,3,4,4,5,5,6,6,7,7,8,8,9,9,10,10,11,11,12,12,13,13,14,14],"right_children":[2,4,6,8,10,12,14,16,18,20,22,24,26,28,30,-1,-1,-1,-1,-1,-1,-1,-1,-1,-1,-1,-1,-1,-1,-1,-1],"split_conditions":[5.3849983E-1,-3.7768853E-1,1.3389043E0,-1.3957404E0,-8.1136E-3,1.0499376E0,2.000403E0,-2.3966265E0,2.1364048E-1,1.7841117E0,2.0041506E0,2.4383979E-1,2.1615091E-1,4.6387863E-1,-8.232986E-1,-0E0,-5.6063156E-3,-1.7646267E-3,-3.4998627E-3,-9.6234574E-4,3.325219E-3,5.9233693E-4,4.5948513E-3,1.819294E-3,3.2435877E-3,-0E0,5.370902E-3,4.0511573E-3,7.4465256E-3,-0E0,1.0373919E-2],"split_indices":[10,10,10,10,10,10,10,19,9,19,19,19,11,19,16,0,0,0,0,0,0,0,0,0,0,0,0,0,0,0,0],"split_type":[0,0,0,0,0,0,0,0,0,0,0,0,0,0,0,0,0,0,0,0,0,0,0,0,0,0,0,0,0,0,0],"sum_hessian":[7.496545E3,5.7465337E3,1.7500111E3,2.4939578E3,3.252576E3,1.1512313E3,5.987797E2,7.1361926E2,1.7803386E3,1.3963557E3,1.8562201E3,8.801664E2,2.71065E2,3.8479776E2,2.1398195E2,4.7232103E0,7.0889606E2,6.714569E2,1.1088817E3,1.3781128E3,1.8242989E1,1.8223135E3,3.39066E1,3.6507825E2,5.1508813E2,2.6565838E1,2.4449916E2,8.9142235E1,2.9565555E2,3.4910145E0,2.1049094E2],"tree_param":{"num_deleted":"0","num_feature":"30","num_nodes":"31","size_leaf_vector":"1"}},{"base_weights":[-5.4068714E-3,-2.17355E-1,1.8076908E-2,-2.2321077E-1,-0E0,4.47791E-2,-1.8231775E-1,-2.3962688E-1,-5.416979E-2,2.3407566E-3,-9.50924E-2,-1.276791E-2,6.3449256E-2,-1.2217089E-1,-3.452395E-1,-2.479258E-3,-4.784294E-3,9.2172413E-4,-1.731159E-3,-0E0,-2.9969183E-3,5.8514775E-5,-1.5260623E-3,-1.4882099E-3,8.084623E-4,-4.7470912E-4,-1.9260655E-3,-0E0,-4.539279E-3],"categories":[],"categories_nodes":[],"categories_segments":[],"categories_sizes":[],"default_left":[0,0,0,0,0,0,0,0,0,0,0,0,0,0,0,0,0,0,0,0,0,0,0,0,0,0,0,0,0],"id":19,"left_children":[1,3,5,7,9,11,13,15,17,-1,19,21,23,25,27,-1,-1,-1,-1,-1,-1,-1,-1,-1,-1,-1,-1,-1,-1],"loss_changes":[3.7406902E1,1.1505547E0,3.5302734E1,1.2828865E0,4.0431434E-1,6.4591017E0,6.3588886E0,1.4067345E0,1.1752506E0,0E0,2.988385E-1,3.2825775E0,4.8792133E0,1.4876375E0,3.5400352E0,0E0,0E0,0E0,0E0,0E0,0E0,0E0,0E0,0E0,0E0,0E0,0E0,0E0,0E0],"parents":[2147483647,0,0,1,1,2,2,3,3,4,4,5,5,6,6,7,7,8,8,10,10,11,11,12,12,13,13,14,14],"right_children":[2,4,6,8,10,12,14,16,18,-1,20,22,24,26,28,-1,-1,-1,-1,-1,-1,-1,-1,-1,-1,-1,-1,-1,-1],"split_conditions":[-1.3408561E0,6.7434376E-1,1.1073073E0,6.8391746E-1,7.911428E-1,-4.769115E-1,2.000403E0,4.1210547E-1,4.3138877E-1,2.3407566E-3,4.6387863E-1,1.4874241E0,-1.7344497E0,6.8391746E-1,2.4383979E-1,-2.479258E-3,-4.784294E-3,9.2172413E-4,-1.731159E-3,-0E0,-2.9969183E-3,5.8514775E-5,-1.5260623E-3,-1.4882099E-3,8.084623E-4,-4.7470912E-4,-1.9260655E-3,-0E0,-4.539279E-3],"split_indices":[10,11,10,19,11,10,10,13,16,0,19,20,15,19,19,0,0,0,0,0,0,0,0,0,0,0,0,0,0],"split_type":[0,0,0,0,0,0,0,0,0,0,0,0,0,0,0,0,0,0,0,0,0,0,0,0,0,0,0,0,0],"sum_hessian":[7.41248E3,7.50007E2,6.6624727E3,7.3424927E2,1.57577505E1,5.8905596E3,7.7191315E2,6.5534955E2,7.889973E1,7.9250336E0,7.8327165E0,1.4094042E3,4.481156E3,5.756186E2,1.9629456E2,5.791599E2,7.6189674E1,2.1467903E1,5.7431824E1,2.4836946E0,5.349022E0,1.206318E3,2.0308618E2,1.20405525E2,4.36075E3,2.1953436E2,3.5608426E2,1.853689E1,1.7775768E2],"tree_param":{"num_deleted":"0","num_feature":"30","num_nodes":"29","size_leaf_vector":"1"}},{"base_weights":[2.0024758E-3,3.93351E-1,-1.5493496E-1,6.3027716E-1,2.6425868E-1,-6.639215E-2,-3.6201194E-1,8.270219E-3,5.320819E-1,2.1584646E-1,3.6150306E-1,2.4489904E-2,-1.364599E-1,-2.8417438E-1,-4.9546167E-1,7.0712194E-3,2.9690322E-3,-5.3302175E-4,2.6722169E-3,4.800545E-3,-7.693188E-5,4.0002348E-4,-3.628859E-3,-1.1895782E-3,-2.4430202E-3,-0E0,-3.3826663E-3,-0E0,-5.843762E-3],"categories":[],"categories_nodes":[],"categories_segments":[],"categories_sizes":[],"default_left":[0,0,0,0,0,0,0,0,0,0,0,0,0,0,0,0,0,0,0,0,0,0,0,0,0,0,0,0,0],"id":20,"left_children":[1,3,5,7,9,11,13,-1,15,17,19,21,23,25,27,-1,-1,-1,-1,-1,-1,-1,-1,-1,-1,-1,-1,-1,-1],"loss_changes":[4.5522525E2,6.2607574E1,9.568279E1,2.456482E0,5.006302E0,2.3891052E1,1.4296982E1,0E0,4.87693E0,3.739231E0,9.176903E0,4.5557227E0,4.503292E0,1.9131927E0,1.6524963E0,0E0,0E0,0E0,0E0,0E0,0E0,0E0,0E0,0E0,0E0,0E0,0E0,0E0,0E0],"parents":[2147483647,0,0,1,1,2,2,3,3,4,4,5,5,6,6,8,8,9,9,10,10,11,11,12,12,13,13,14,14],"right_children":[2,4,6,8,10,12,14,-1,16,18,20,22,24,26,28,-1,-1,-1,-1,-1,-1,-1,-1,-1,-1,-1,-1,-1,-1],"split_conditions":[-4.9954578E-1,-1.3700138E0,5.910766E-1,1E0,8.668616E-1,-4.2629983E-2,1.3389043E0,8.270219E-3,-1.5757238E0,-1.2455997E0,-6.4246684E-1,1.7918772E0,4.6387863E-1,-1.6256167E0,-7.655734E-1,7.0712194E-3,2.9690322E-3,-5.3302175E-4,2.6722169E-3,4.800545E-3,-7.693188E-5,4.0002348E-4,-3.628859E-3,-1.1895782E-3,-2.4430202E-3,-0E0,-3.3826663E-3,-0E0,-5.843762E-3],"split_indices":[10,10,10,28,9,10,10,0,10,10,10,9,19,9,13,0,0,0,0,0,0,0,0,0,0,0,0,0,0],"split_type":[0,0,0,0,0,0,0,0,0,0,0,0,0,0,0,0,0,0,0,0,0,0,0,0,0,0,0,0,0],"sum_hessian":[7.4015044E3,2.1230955E3,5.2784087E3,7.414155E2,1.3816798E3,3.7063643E3,1.5720447E3,3.9581363E2,3.4560193E2,9.4063513E2,4.4104474E2,1.5977104E3,2.1086538E3,1.00558954E3,5.6645514E2,2.6513162E2,8.047031E1,3.609164E1,9.0454346E2,3.9429074E2,4.6753983E1,1.5600022E3,3.7708294E1,1.4567535E3,6.5190015E2,1.7508116E1,9.880814E2,6.0028024E0,5.6045233E2],"tree_param":{"num_deleted":"0","num_feature":"30","num_nodes":"29","size_leaf_vector":"1"}},{"base_weights":[-0E0,-2.2021532E-1,2.4309306E-1,-3.5689938E-1,-1.0419932E-1,1.3568589E-1,6.154735E-1,-4.6779624E-1,-2.863867E-1,-1.2985976E-1,-1.5730498E-2,8.0135144E-2,2.595086E-1,5.147888E-1,8.8146544E-1,-0E0,-5.495679E-3,-1.168084E-3,-3.5870718E-3,1.7638686E-3,-1.652804E-3,2.271284E-3,-4.0319044E-4,7.122673E-4,2.509102E-3,1.4189787E-3,3.6259838E-3,3.8152977E-3,6.8071494E-3,-0E0,1.0541813E-2],"categories":[],"categories_nodes":[],"categories_segments":[],"categories_sizes":[],"default_left":[0,0,0,0,0,0,0,0,0,0,0,0,0,0,0,0,0,0,0,0,0,0,0,0,0,0,0,0,0,0,0],"id":21,"left_children":[1,3,5,7,9,11,13,15,17,19,21,23,25,27,29,-1,-1,-1,-1,-1,-1,-1,-1,-1,-1,-1,-1,-1,-1,-1,-1],"loss_changes":[3.966651E2,6.04366E1,1.389684E2,1.1903488E1,4.422846E0,1.7973118E1,1.72742E1,1.0035706E0,3.2831955E0,5.364216E0,1.5658238E0,4.1954737E0,4.7917747E0,5.0572205E0,4.2254944E0,0E0,0E0,0E0,0E0,0E0,0E0,0E0,0E0,0E0,0E0,0E0,0E0,0E0,0E0,0E0,0E0],"parents":[2147483647,0,0,1,1,2,2,3,3,4,4,5,5,6,6,7,7,8,8,9,9,10,10,11,11,12,12,13,13,14,14],"right_children":[2,4,6,8,10,12,14,16,18,20,22,24,26,28,30,-1,-1,-1,-1,-1,-1,-1,-1,-1,-1,-1,-1,-1,-1,-1,-1],"split_conditions":[6.958878E-3,-6.307625E-1,1.1073073E0,-1.3957404E0,-1.1679781E-1,5.7919407E-1,2.000403E0,-2.3966265E0,-9.224571E-2,-8.582133E-1,-1.0716604E-1,1.1217964E0,-1.0308189E0,4.6387863E-1,1.4697709E0,-0E0,-5.495679E-3,-1.168084E-3,-3.5870718E-3,1.7638686E-3,-1.652804E-3,2.271284E-3,-4.0319044E-4,7.122673E-4,2.509102E-3,1.4189787E-3,3.6259838E-3,3.8152977E-3,6.8071494E-3,-0E0,1.0541813E-2],"split_indices":[10,10,10,10,10,10,10,19,9,9,10,21,9,19,11,0,0,0,0,0,0,0,0,0,0,0,0,0,0,0,0],"split_type":[0,0,0,0,0,0,0,0,0,0,0,0,0,0,0,0,0,0,0,0,0,0,0,0,0,0,0,0,0,0,0],"sum_hessian":[7.408905E3,3.886009E3,3.5228955E3,1.7736877E3,2.1123213E3,2.739885E3,7.830105E2,6.746834E2,1.0990044E3,1.6148708E3,4.9745032E2,1.905954E3,8.339311E2,5.755991E2,2.074114E2,5.2266107E0,6.694568E2,1.2471173E2,9.7429266E2,5.647829E1,1.5583926E3,2.9489859E1,4.6796045E2,1.6870867E3,2.1886734E2,2.4025847E2,5.936726E2,1.6495168E2,4.1064743E2,4.999943E0,2.0241145E2],"tree_param":{"num_deleted":"0","num_feature":"30","num_nodes":"31","size_leaf_vector":"1"}},{"base_weights":[-2.087285E-3,1.1278242E-2,-1.8793887E-1,2.32905E-2,-9.9462844E-2,-2.854457E-1,-1.16196156E-1,-2.057E-1,2.8912295E-2,-2.0998214E-1,-3.8759403E-2,-3.489936E-3,-0E0,-1.4558427E-1,6.0912307E-2,-0E0,-4.9057687E-3,4.876001E-4,-5.631411E-4,-0E0,-2.7312709E-3,-1.0847339E-3,8.3036034E-4,-1.3798286E-3,-6.0885516E-3,1.999715E-3,-0E0],"categories":[],"categories_nodes":[],"categories_segments":[],"categories_sizes":[],"default_left":[0,0,0,0,0,0,0,0,0,0,0,0,0,0,0,0,0,0,0,0,0,0,0,0,0,0,0],"id":22,"left_children":[1,3,5,7,9,11,13,15,17,19,21,-1,-1,23,25,-1,-1,-1,-1,-1,-1,-1,-1,-1,-1,-1,-1],"loss_changes":[1.8792727E1,8.951738E0,2.5178833E0,7.5613203E0,3.735515E0,1.4036255E0,1.8243318E0,5.2154098E0,6.0422893E0,1.6630507E0,2.6593258E0,0E0,0E0,1.1877112E0,4.171788E-1,0E0,0E0,0E0,0E0,0E0,0E0,0E0,0E0,0E0,0E0,0E0,0E0],"parents":[2147483647,0,0,1,1,2,2,3,3,4,4,5,5,6,6,7,7,8,8,9,9,10,10,13,13,14,14],"right_children":[2,4,6,8,10,12,14,16,18,20,22,-1,-1,24,26,-1,-1,-1,-1,-1,-1,-1,-1,-1,-1,-1,-1],"split_conditions":[1.9948784E0,1.3440341E0,-1.7673394E-1,-1.7344497E0,-5.288558E-1,1E0,2.9195573E0,-5.1399356E-1,7.954443E-1,-6.944285E-1,8.61509E-1,-3.489936E-3,-0E0,8.61509E-1,5.687623E-1,-0E0,-4.9057687E-3,4.876001E-4,-5.631411E-4,-0E0,-2.7312709E-3,-1.0847339E-3,8.3036034E-4,-1.3798286E-3,-6.0885516E-3,1.999715E-3,-0E0],"split_indices":[9,19,13,15,9,0,9,9,9,22,22,0,0,22,8,0,0,0,0,0,0,0,0,0,0,0,0],"split_type":[0,0,0,0,0,0,0,0,0,0,0,0,0,0,0,0,0,0,0,0,0,0,0,0,0,0,0],"sum_hessian":[7.382996E3,6.875079E3,5.07917E2,6.2233545E3,6.517245E2,1.9981725E2,3.0809973E2,1.3797224E2,6.0853823E3,2.1586023E2,4.3586426E2,1.9747629E2,2.3409522E0,2.7668628E2,3.1413443E1,7.571917E1,6.2253082E1,5.242856E3,8.4252606E2,1.2044521E1,2.038157E2,3.0747992E2,1.2838434E2,2.6468588E2,1.2000409E1,1.790255E1,1.3510894E1],"tree_param":{"num_deleted":"0","num_feature":"30","num_nodes":"27","size_leaf_vector":"1"}},{"base_weights":[1.8574377E-3,9.254883E-2,-2.9609156E-1,3.6558606E-2,4.7901922E-1,-3.5006505E-1,3.0010102E-2,-1.3404571E-2,1.6421634E-1,5.203143E-1,-0E0,-2.676902E-1,-4.4822913E-1,1.7718376E-1,-7.189569E-2,1.4542752E-3,-5.930257E-4,3.3328997E-3,1.0837597E-3,5.2095233E-3,9.11382E-3,-1.5965536E-3,1.0847877E-3,-2.857675E-3,-5.340161E-3,-5.334899E-3,-9.718847E-5,-1.0369497E-3,2.6567131E-3,-2.0409042E-3,1.8842495E-4],"categories":[],"categories_nodes":[],"categories_segments":[],"categories_sizes":[],"default_left":[0,0,0,0,0,0,0,0,0,0,0,0,0,0,0,0,0,0,0,0,0,0,0,0,0,0,0,0,0,0,0],"id":23,"left_children":[1,3,5,7,9,11,13,15,17,19,21,23,25,27,29,-1,-1,-1,-1,-1,-1,-1,-1,-1,-1,-1,-1,-1,-1,-1,-1],"loss_changes":[1.9992598E2,1.21877174E2,3.117398E1,3.214485E1,1.3882233E1,1.0152451E1,3.8488796E0,1.824377E1,1.1285877E1,9.390549E0,7.200543E-1,1.7173157E0,1.4915466E0,1.8142483E0,1.5946667E0,0E0,0E0,0E0,0E0,0E0,0E0,0E0,0E0,0E0,0E0,0E0,0E0,0E0,0E0,0E0,0E0],"parents":[2147483647,0,0,1,1,2,2,3,3,4,4,5,5,6,6,7,7,8,8,9,9,10,10,11,11,12,12,13,13,14,14],"right_children":[2,4,6,8,10,12,14,16,18,20,22,24,26,28,30,-1,-1,-1,-1,-1,-1,-1,-1,-1,-1,-1,-1,-1,-1,-1,-1],"split_conditions":[4.2319164E-1,1.2700024E0,1.2742631E0,4.003153E-1,1E0,1.3718561E0,1.0530763E0,-8.8881E-1,-6.29732E-1,2.3667145E0,1.4927534E0,1.7841117E0,1.3976679E0,-4.7115365E-1,1.9808295E0,1.4542752E-3,-5.930257E-4,3.3328997E-3,1.0837597E-3,5.2095233E-3,9.11382E-3,-1.5965536E-3,1.0847877E-3,-2.857675E-3,-5.340161E-3,-5.334899E-3,-9.718847E-5,-1.0369497E-3,2.6567131E-3,-2.0409042E-3,1.8842495E-4],"split_indices":[11,20,18,20,24,11,11,11,11,18,18,19,23,13,14,0,0,0,0,0,0,0,0,0,0,0,0,0,0,0,0],"split_type":[0,0,0,0,0,0,0,0,0,0,0,0,0,0,0,0,0,0,0,0,0,0,0,0,0,0,0,0,0,0,0],"sum_hessian":[7.41749E3,5.693314E3,1.7241764E3,4.978925E3,7.143891E2,1.4860441E3,2.3813237E2,3.5641787E3,1.4147458E3,6.5672675E2,5.7662376E1,8.227615E2,6.632826E2,1.07611824E2,1.3052055E2,7.455208E2,2.818658E3,5.0942392E2,9.0532196E2,5.20518E2,1.3620877E2,2.1142324E1,3.6520054E1,7.4775494E2,7.5006485E1,6.439921E2,1.9290466E1,9.082306E0,9.852952E1,7.3378E1,5.714255E1],"tree_param":{"num_deleted":"0","num_feature":"30","num_nodes":"31","size_leaf_vector":"1"}},{"base_weights":[-6.617339E-3,-1.404031E-1,4.2553502E-1,-3.438246E-1,-3.3074122E-2,2.8486964E-1,6.869447E-1,-4.7880283E-1,-2.687437E-1,-1.3349153E-1,2.79962E-2,1.7002466E-1,3.522794E-1,5.8749855E-1,8.603344E-1,-5.628361E-3,-0E0,-1.6999547E-3,-3.4158307E-3,3.4655223E-3,-1.6533397E-3,-2.2113922E-3,4.0048893E-4,-0E0,2.3935912E-3,1.9904994E-3,4.7122557E-3,-0E0,6.9664284E-3,-0E0,1.0165864E-2],"categories":[],"categories_nodes":[],"categories_segments":[],"categories_sizes":[],"default_left":[0,0,0,0,0,0,0,0,0,0,0,0,0,0,0,0,0,0,0,0,0,0,0,0,0,0,0,0,0,0,0],"id":24,"left_children":[1,3,5,7,9,11,13,15,17,19,21,23,25,27,29,-1,-1,-1,-1,-1,-1,-1,-1,-1,-1,-1,-1,-1,-1,-1,-1],"loss_changes":[4.3020795E2,1.2339599E2,6.2082153E1,1.7904205E1,2.3190163E1,7.545311E0,6.6381226E0,1.5068817E0,2.6403732E0,4.7041435E0,2.7905374E0,2.9444523E0,5.1838455E0,3.2045898E0,2.3524323E0,0E0,0E0,0E0,0E0,0E0,0E0,0E0,0E0,0E0,0E0,0E0,0E0,0E0,0E0,0E0,0E0],"parents":[2147483647,0,0,1,1,2,2,3,3,4,4,5,5,6,6,7,7,8,8,9,9,10,10,11,11,12,12,13,13,14,14],"right_children":[2,4,6,8,10,12,14,16,18,20,22,24,26,28,30,-1,-1,-1,-1,-1,-1,-1,-1,-1,-1,-1,-1,-1,-1,-1,-1],"split_conditions":[5.3849983E-1,-5.541353E-1,1.3389043E0,-1.3957404E0,-1.1679781E-1,2.4573955E-1,2.000403E0,7.911428E-1,-1.1517874E0,-1.5564806E0,-1.7253883E0,6.043725E-1,2.1615091E-1,3.8488436E-1,1.4193561E0,-5.628361E-3,-0E0,-1.6999547E-3,-3.4158307E-3,3.4655223E-3,-1.6533397E-3,-2.2113922E-3,4.0048893E-4,-0E0,2.3935912E-3,1.9904994E-3,4.7122557E-3,-0E0,6.9664284E-3,-0E0,1.0165864E-2],"split_indices":[10,10,10,10,10,21,10,11,11,20,21,10,11,11,11,0,0,0,0,0,0,0,0,0,0,0,0,0,0,0,0],"split_type":[0,0,0,0,0,0,0,0,0,0,0,0,0,0,0,0,0,0,0,0,0,0,0,0,0,0,0,0,0,0,0],"sum_hessian":[7.4530356E3,5.6958345E3,1.7572013E3,1.95881E3,3.7370242E3,1.1492032E3,6.0799805E2,6.8739667E2,1.2714135E3,1.4289564E3,2.3080679E3,4.394658E2,7.097374E2,3.9657233E2,2.1142574E2,6.83124E2,4.2726536E0,2.2630974E2,1.0451038E3,2.09027E1,1.4080537E3,5.370643E1,2.2543613E3,6.802927E1,3.7143652E2,1.6865224E2,5.410852E2,3.9562464E0,3.9261606E2,2.3610816E0,2.0906465E2],"tree_param":{"num_deleted":"0","num_feature":"30","num_nodes":"31","size_leaf_vector":"1"}},{"base_weights":[-0E0,-2.4426231E-1,1.9031567E-2,-2.9537794E-1,-7.2921984E-2,4.588204E-2,-1.8815671E-1,-3.7458035E-1,-2.088279E-1,-0E0,-3.4063703E-1,-9.84722E-3,6.3402995E-2,-1.279669E-1,-3.4512666E-1,-4.4447E-3,-0E0,-1.9390359E-4,-2.7967647E-3,-6.965127E-4,2.2133857E-3,-0E0,-5.6059193E-3,1.7253803E-4,-1.2233751E-3,-5.961612E-4,8.233801E-4,-4.3249907E-4,-2.1704494E-3,-0E0,-4.60499E-3],"categories":[],"categories_nodes":[],"categories_segments":[],"categories_sizes":[],"default_left":[0,0,0,0,0,0,0,0,0,0,0,0,0,0,0,0,0,0,0,0,0,0,0,0,0,0,0,0,0,0,0],"id":25,"left_children":[1,3,5,7,9,11,13,15,17,19,21,23,25,27,29,-1,-1,-1,-1,-1,-1,-1,-1,-1,-1,-1,-1,-1,-1,-1,-1],"loss_changes":[3.437223E1,3.730547E0,3.7980827E1,1.2259827E0,3.3875437E0,6.105831E0,6.1447964E0,4.424305E-1,5.76066E-1,1.4215518E0,2.8358145E0,3.5741267E0,3.9117756E0,2.4698067E0,3.5418396E0,0E0,0E0,0E0,0E0,0E0,0E0,0E0,0E0,0E0,0E0,0E0,0E0,0E0,0E0,0E0,0E0],"parents":[2147483647,0,0,1,1,2,2,3,3,4,4,5,5,6,6,7,7,8,8,9,9,10,10,11,11,12,12,13,13,14,14],"right_children":[2,4,6,8,10,12,14,16,18,20,22,24,26,28,30,-1,-1,-1,-1,-1,-1,-1,-1,-1,-1,-1,-1,-1,-1,-1,-1],"split_conditions":[-1.5757238E0,5.687623E-1,1.1073073E0,1.1606163E0,2.1396894E0,-5.541353E-1,2.000403E0,1.3801548E0,-1.2964321E0,1.4874241E0,-1.0832664E0,-1.1198237E-1,-1.6670455E0,3.1317836E-1,4.1210547E-1,-4.4447E-3,-0E0,-1.9390359E-4,-2.7967647E-3,-6.965127E-4,2.2133857E-3,-0E0,-5.6059193E-3,1.7253803E-4,-1.2233751E-3,-5.961612E-4,8.233801E-4,-4.3249907E-4,-2.1704494E-3,-0E0,-4.60499E-3],"split_indices":[10,8,10,14,20,10,10,22,19,20,11,11,12,7,13,0,0,0,0,0,0,0,0,0,0,0,0,0,0,0,0],"split_type":[0,0,0,0,0,0,0,0,0,0,0,0,0,0,0,0,0,0,0,0,0,0,0,0,0,0,0,0,0,0,0],"sum_hessian":[7.425937E3,5.3396625E2,6.8919707E3,3.9960953E2,1.3435677E2,6.11241E3,7.795609E2,1.9272333E2,2.0688618E2,9.928075E1,3.5076015E1,1.427148E3,4.6852617E3,5.756527E2,2.0390823E2,1.8922452E2,3.4988136E0,4.0238052E1,1.6664813E2,6.67377E1,3.254304E1,5.3293953E0,2.974662E1,1.1121492E3,3.149988E2,2.5584935E2,4.4294126E3,2.4192043E2,3.3373227E2,2.5465164E1,1.7844307E2],"tree_param":{"num_deleted":"0","num_feature":"30","num_nodes":"31","size_leaf_vector":"1"}},{"base_weights":[4.6209204E-3,3.9294028E-1,-1.5232834E-1,6.5537757E-1,2.5230193E-1,-6.843254E-2,-3.5499567E-1,9.1778375E-3,5.6328577E-1,1.9316009E-1,3.2757854E-1,2.3562435E-2,-1.4913452E-1,-2.7334547E-1,-4.8888808E-1,6.742948E-3,-0E0,2.083745E-3,7.4154576E-3,4.1857962E-3,5.172064E-4,6.0296914E-4,-4.5857276E-4,-7.664685E-4,-2.017655E-3,-3.2442708E-3,-0E0,-0E0,-5.752673E-3],"categories":[],"categories_nodes":[],"categories_segments":[],"categories_sizes":[],"default_left":[0,0,0,0,0,0,0,0,0,0,0,0,0,0,0,0,0,0,0,0,0,0,0,0,0,0,0,0,0],"id":26,"left_children":[1,3,5,7,9,11,13,-1,15,17,19,21,23,25,27,-1,-1,-1,-1,-1,-1,-1,-1,-1,-1,-1,-1,-1,-1],"loss_changes":[4.5309082E2,7.667529E1,8.8727684E1,5.3907166E0,4.887558E0,2.8127739E1,1.4820023E1,0E0,3.069336E0,3.0449848E0,4.260132E0,3.103105E0,3.3868828E0,1.4248657E0,1.4797821E0,0E0,0E0,0E0,0E0,0E0,0E0,0E0,0E0,0E0,0E0,0E0,0E0,0E0,0E0],"parents":[2147483647,0,0,1,1,2,2,3,3,4,4,5,5,6,6,8,8,9,9,10,10,11,11,12,12,13,13,14,14],"right_children":[2,4,6,8,10,12,14,-1,16,18,20,22,24,26,28,-1,-1,-1,-1,-1,-1,-1,-1,-1,-1,-1,-1,-1,-1],"split_conditions":[-4.9954578E-1,-1.3700138E0,6.043725E-1,-1.9838951E0,-5.005658E-1,-8.1136E-3,1.3389043E0,9.1778375E-3,1.3801548E0,2.1396894E0,8.1842846E-1,2.4573955E-1,-8.8991666E-1,1.8043102E0,3.8488436E-1,6.742948E-3,-0E0,2.083745E-3,7.4154576E-3,4.1857962E-3,5.172064E-4,6.0296914E-4,-4.5857276E-4,-7.664685E-4,-2.017655E-3,-3.2442708E-3,-0E0,-0E0,-5.752673E-3],"split_indices":[10,10,10,10,11,10,10,0,22,20,11,21,14,12,11,0,0,0,0,0,0,0,0,0,0,0,0,0,0],"split_type":[0,0,0,0,0,0,0,0,0,0,0,0,0,0,0,0,0,0,0,0,0,0,0,0,0,0,0,0,0],"sum_hessian":[7.423572E3,2.1413564E3,5.2822153E3,7.404304E2,1.4009261E3,3.7449668E3,1.5372485E3,2.92559E2,4.4787143E2,8.041542E2,5.967719E2,1.7353182E3,2.0096486E3,9.6733655E2,5.6991205E2,4.3429962E2,1.3571803E1,7.8464545E2,1.9508709E1,5.291474E2,6.762453E1,1.2270112E3,5.0830692E2,4.7111975E2,1.5385288E3,9.524743E2,1.4862283E1,3.948625E0,5.659634E2],"tree_param":{"num_deleted":"0","num_feature":"30","num_nodes":"29","size_leaf_vector":"1"}},{"base_weights":[-4.4893688E-5,-1.533959E-1,3.263436E-1,-3.283563E-1,-4.4938587E-2,2.1896465E-1,6.409167E-1,-2.344391E-1,-4.1419864E-1,-1.2981862E-1,2.8895121E-2,1.2835431E-1,2.8724098E-1,5.351868E-1,8.2693535E-1,-1.78446E-3,-3.2108892E-3,-5.2466732E-3,-3.6141847E-3,2.3020431E-3,-1.6104003E-3,1.551014E-4,1.6018206E-3,1.8570463E-3,-4.066645E-4,3.6444084E-3,1.179968E-3,-0E0,6.3085645E-3,-0E0,9.871582E-3],"categories":[],"categories_nodes":[],"categories_segments":[],"categories_sizes":[],"default_left":[0,0,0,0,0,0,0,0,0,0,0,0,0,0,0,0,0,0,0,0,0,0,0,0,0,0,0,0,0,0,0],"id":27,"left_children":[1,3,5,7,9,11,13,15,17,19,21,23,25,27,29,-1,-1,-1,-1,-1,-1,-1,-1,-1,-1,-1,-1,-1,-1,-1,-1],"loss_changes":[3.7268292E2,9.538311E1,7.8071655E1,1.3902985E1,1.996027E1,9.932228E0,8.164886E0,2.0150757E0,1.7198792E0,3.8524551E0,2.4307547E0,4.255924E0,3.6201706E0,1.5738754E0,4.320633E0,0E0,0E0,0E0,0E0,0E0,0E0,0E0,0E0,0E0,0E0,0E0,0E0,0E0,0E0,0E0,0E0],"parents":[2147483647,0,0,1,1,2,2,3,3,4,4,5,5,6,6,7,7,8,8,9,9,10,10,11,11,12,12,13,13,14,14],"right_children":[2,4,6,8,10,12,14,16,18,20,22,24,26,28,30,-1,-1,-1,-1,-1,-1,-1,-1,-1,-1,-1,-1,-1,-1,-1,-1],"split_conditions":[3.1508914E-1,-5.541353E-1,1.3389043E0,1.0272932E0,-1.1679781E-1,6.043725E-1,2.000403E0,1.99528E-1,2.8343206E-2,-1.5661104E0,1E0,1E0,1E0,3.505754E-1,1.4193561E0,-1.78446E-3,-3.2108892E-3,-5.2466732E-3,-3.6141847E-3,2.3020431E-3,-1.6104003E-3,1.551014E-4,1.6018206E-3,1.8570463E-3,-4.066645E-4,3.6444084E-3,1.179968E-3,-0E0,6.3085645E-3,-0E0,9.871582E-3],"split_indices":[10,10,10,9,10,10,10,9,11,18,0,4,2,11,11,0,0,0,0,0,0,0,0,0,0,0,0,0,0,0,0],"split_type":[0,0,0,0,0,0,0,0,0,0,0,0,0,0,0,0,0,0,0,0,0,0,0,0,0,0,0,0,0,0,0],"sum_hessian":[7.4541763E3,5.076851E3,2.3773252E3,1.93354E3,3.143311E3,1.7787694E3,5.985559E2,9.380909E2,9.9544916E2,1.4782887E3,1.6650225E3,7.808288E2,9.979406E2,3.9112332E2,2.0743256E2,3.3484793E2,6.03243E2,7.228392E2,2.7261002E2,2.8611347E1,1.4496772E3,1.4765854E3,1.8843692E2,6.6981885E2,1.1100992E2,8.664671E2,1.3147356E2,2.858527E0,3.882648E2,3.417581E0,2.0401498E2],"tree_param":{"num_deleted":"0","num_feature":"30","num_nodes":"31","size_leaf_vector":"1"}},{"base_weights":[3.726506E-3,2.8451128E-2,-1.9396766E-1,-2.0235E-1,5.8025323E-2,-4.038144E-2,-2.4723716E-1,-2.1268627E-1,2.57617E-2,-0E0,7.713153E-2,1.1195094E-1,-9.131479E-2,-1.8945718E-1,-3.7500054E-1,-2.5763405E-3,-0E0,2.660879E-3,-0E0,-1.7554485E-3,2.6485664E-4,-1.1098633E-3,9.666063E-4,3.1399212E-3,-0E0,3.3022114E-3,-1.4991228E-3,-2.5104177E-3,-0E0,-0E0,-4.502748E-3],"categories":[],"categories_nodes":[],"categories_segments":[],"categories_sizes":[],"default_left":[0,0,0,0,0,0,0,0,0,0,0,0,0,0,0,0,0,0,0,0,0,0,0,0,0,0,0,0,0,0,0],"id":28,"left_children":[1,3,5,7,9,11,13,15,17,19,21,23,25,27,29,-1,-1,-1,-1,-1,-1,-1,-1,-1,-1,-1,-1,-1,-1,-1,-1],"loss_changes":[3.5774734E1,4.464245E1,5.9023438E0,2.2227325E0,6.587248E0,1.6706768E0,2.8926964E0,1.8094902E0,6.0488194E-1,5.0634675E0,4.348421E0,1.1943686E0,2.1089716E0,1.6799698E0,6.206093E-1,0E0,0E0,0E0,0E0,0E0,0E0,0E0,0E0,0E0,0E0,0E0,0E0,0E0,0E0,0E0,0E0],"parents":[2147483647,0,0,1,1,2,2,3,3,4,4,5,5,6,6,7,7,8,8,9,9,10,10,11,11,12,12,13,13,14,14],"right_children":[2,4,6,8,10,12,14,16,18,20,22,24,26,28,30,-1,-1,-1,-1,-1,-1,-1,-1,-1,-1,-1,-1,-1,-1,-1,-1],"split_conditions":[1.0499376E0,-1.3408561E0,4.6387863E-1,5.551012E-1,-4.769115E-1,-1.3137438E0,2.000403E0,1.3801548E0,1.0009449E0,-1.776485E-1,-1.7344497E0,1.3801548E0,-1.7846006E0,8.3728254E-1,4.1210547E-1,-2.5763405E-3,-0E0,2.660879E-3,-0E0,-1.7554485E-3,2.6485664E-4,-1.1098633E-3,9.666063E-4,3.1399212E-3,-0E0,3.3022114E-3,-1.4991228E-3,-2.5104177E-3,-0E0,-0E0,-4.502748E-3],"split_indices":[10,10,19,11,10,9,10,22,13,9,15,22,18,18,13,0,0,0,0,0,0,0,0,0,0,0,0,0,0,0,0],"split_type":[0,0,0,0,0,0,0,0,0,0,0,0,0,0,0,0,0,0,0,0,0,0,0,0,0,0,0,0,0,0,0],"sum_hessian":[7.405045E3,6.593605E3,8.114397E2,7.389027E2,5.8547026E3,2.2146185E2,5.8997784E2,7.176216E2,2.1281181E1,1.4341757E3,4.420527E3,4.2818676E1,1.7864317E2,4.20537E2,1.6944084E2,7.023038E2,1.53178005E1,1.1606657E1,9.674523E0,1.9499937E2,1.2391763E3,1.2818141E2,4.292345E3,2.3643194E1,1.9175482E1,9.764881E0,1.688783E2,3.6199112E2,5.854586E1,5.433859E0,1.6400697E2],"tree_param":{"num_deleted":"0","num_feature":"30","num_nodes":"31","size_leaf_vector":"1"}},{"base_weights":[6.2563317E-3,4.081065E-1,-1.4389679E-1,6.5087694E-1,2.7288014E-1,-5.5531953E-2,-3.6548254E-1,6.640103E-1,-0E0,2.3354067E-1,3.7619764E-1,3.639791E-2,-1.293946E-1,-2.8660864E-1,-4.8160064E-1,8.631938E-3,6.688576E-3,2.8413807E-3,-0E0,5.175152E-3,5.2056566E-4,1.5277944E-4,2.452324E-3,7.924125E-5,-1.6683512E-3,-2.4016723E-3,-3.7071388E-3,-5.6442935E-3,-0E0],"categories":[],"categories_nodes":[],"categories_segments":[],"categories_sizes":[],"default_left":[0,0,0,0,0,0,0,0,0,0,0,0,0,0,0,0,0,0,0,0,0,0,0,0,0,0,0,0,0],"id":29,"left_children":[1,3,5,7,9,11,13,15,-1,17,19,21,23,25,27,-1,-1,-1,-1,-1,-1,-1,-1,-1,-1,-1,-1,-1,-1],"loss_changes":[4.5053784E2,6.431528E1,1.0509973E2,5.9328613E0,3.7501526E0,2.6622387E1,1.20781555E1,1.3763428E0,0E0,2.8563232E0,6.4381676E0,6.378248E0,4.383728E0,9.84642E-1,5.466919E-1,0E0,0E0,0E0,0E0,0E0,0E0,0E0,0E0,0E0,0E0,0E0,0E0,0E0,0E0],"parents":[2147483647,0,0,1,1,2,2,3,3,4,4,5,5,6,6,7,7,9,9,10,10,11,11,12,12,13,13,14,14],"right_children":[2,4,6,8,10,12,14,16,-1,18,20,22,24,26,28,-1,-1,-1,-1,-1,-1,-1,-1,-1,-1,-1,-1,-1,-1],"split_conditions":[-5.541353E-1,-1.3957404E0,6.043725E-1,6.3667357E-1,-2.2531648E-1,-5.0831027E-2,1.2989491E0,-1.8789711E0,-0E0,-2.7503785E-1,7.423159E-1,1E0,-1.0763932E0,2.0339118E-1,3.9845002E0,8.631938E-3,6.688576E-3,2.8413807E-3,-0E0,5.175152E-3,5.2056566E-4,1.5277944E-4,2.452324E-3,7.924125E-5,-1.6683512E-3,-2.4016723E-3,-3.7071388E-3,-5.6442935E-3,-0E0],"split_indices":[10,10,10,11,11,10,10,10,0,11,11,25,19,11,19,0,0,0,0,0,0,0,0,0,0,0,0,0,0],"split_type":[0,0,0,0,0,0,0,0,0,0,0,0,0,0,0,0,0,0,0,0,0,0,0,0,0,0,0,0,0],"sum_hessian":[7.4549966E3,2.0323702E3,5.4226265E3,7.1990656E2,1.3124636E3,3.885185E3,1.5374412E3,7.05155E2,1.4751526E1,9.69153E2,3.433106E2,1.7155317E3,2.1696533E3,9.292675E2,6.0817365E2,3.66583E2,3.3857202E2,9.3867615E2,3.047684E1,2.7872696E2,6.458364E1,1.526067E3,1.894648E2,1.8063135E2,1.989022E3,2.8289914E2,6.463684E2,6.0460645E2,3.567172E0],"tree_param":{"num_deleted":"0","num_feature":"30","num_nodes":"29","size_leaf_vector":"1"}},{"base_weights":[-2.561234E-3,-1.6051407E-1,3.1414133E-1,-3.4518713E-1,-4.0313594E-2,1.775669E-1,6.14799E-1,-2.5431308E-1,-4.2800304E-1,-1.00683875E-1,1.2727101E-2,1.2007863E-1,2.5907904E-1,5.214802E-1,8.320873E-1,-1.9576475E-3,-3.4760607E-3,-6.1457586E-3,-4.6132044E-3,1.5889152E-3,-1.3046531E-3,3.088937E-3,1.962344E-5,1.8265297E-3,7.065745E-4,-1.1799514E-3,3.2223987E-3,3.4955686E-3,6.9346586E-3,-0E0,9.823156E-3],"categories":[],"categories_nodes":[],"categories_segments":[],"categories_sizes":[],"default_left":[0,0,0,0,0,0,0,0,0,0,0,0,0,0,0,0,0,0,0,0,0,0,0,0,0,0,0,0,0,0,0],"id":30,"left_children":[1,3,5,7,9,11,13,15,17,19,21,23,25,27,29,-1,-1,-1,-1,-1,-1,-1,-1,-1,-1,-1,-1,-1,-1,-1,-1],"loss_changes":[3.715546E2,1.09254166E2,9.931978E1,1.2895584E1,9.886379E0,7.0057106E0,1.1927795E1,2.366764E0,8.067932E-1,3.7393503E0,3.727995E0,1.6545486E0,4.7112617E0,6.485779E0,2.125702E0,0E0,0E0,0E0,0E0,0E0,0E0,0E0,0E0,0E0,0E0,0E0,0E0,0E0,0E0,0E0,0E0],"parents":[2147483647,0,0,1,1,2,2,3,3,4,4,5,5,6,6,7,7,8,8,9,9,10,10,11,11,12,12,13,13,14,14],"right_children":[2,4,6,8,10,12,14,16,18,20,22,24,26,28,30,-1,-1,-1,-1,-1,-1,-1,-1,-1,-1,-1,-1,-1,-1,-1,-1],"split_conditions":[2.9562753E-1,-5.541353E-1,1.1655376E0,1.0272932E0,-1.1679781E-1,3.6947164E-1,2.000403E0,1.99528E-1,-2.1010103E0,-8.582133E-1,-1.7344497E0,-8.296246E-1,3.4788442E-1,4.6475375E-1,1.3718561E0,-1.9576475E-3,-3.4760607E-3,-6.1457586E-3,-4.6132044E-3,1.5889152E-3,-1.3046531E-3,3.088937E-3,1.962344E-5,1.8265297E-3,7.065745E-4,-1.1799514E-3,3.2223987E-3,3.4955686E-3,6.9346586E-3,-0E0,9.823156E-3],"split_indices":[10,10,10,9,10,11,10,9,10,9,15,9,10,21,11,0,0,0,0,0,0,0,0,0,0,0,0,0,0,0,0],"split_type":[0,0,0,0,0,0,0,0,0,0,0,0,0,0,0,0,0,0,0,0,0,0,0,0,0,0,0,0,0,0,0],"sum_hessian":[7.4347935E3,4.9661753E3,2.4686182E3,1.9493756E3,3.0167996E3,1.7036852E3,7.6493304E2,9.447605E2,1.00461505E3,1.433353E3,1.5834467E3,1.0178954E3,6.8578973E2,5.4404144E2,2.2089162E2,3.3746732E2,6.0729315E2,2.2758601E2,7.7702905E2,5.41304E1,1.3792225E3,5.6452255E1,1.5269944E3,6.0371954E2,4.1417587E2,2.4435814E1,6.6135394E2,1.4393274E2,4.001087E2,2.312759E0,2.1857886E2],"tree_param":{"num_deleted":"0","num_feature":"30","num_nodes":"31","size_leaf_vector":"1"}},{"base_weights":[1.111672E-3,1.8522026E-2,-2.4714203E-1,-9.954382E-2,6.510784E-2,-1.53134E-1,-3.6705276E-1,-2.1550724E-1,-5.1520627E-2,8.573286E-2,-2.2813447E-2,-1.9242692E-1,-0E0,-9.376437E-2,-4.2295405E-1,-3.1823032E-3,-1.3905371E-3,-1.220312E-3,-1.2918157E-4,-2.1360626E-3,1.0892738E-3,5.2411837E-4,-9.534583E-4,-0E0,-2.6180416E-3,9.351997E-4,-3.382502E-3,1.5192382E-3,-3.605908E-3,-5.027713E-3,-0E0],"categories":[],"categories_nodes":[],"categories_segments":[],"categories_sizes":[],"default_left":[0,0,0,0,0,0,0,0,0,0,0,0,0,0,0,0,0,0,0,0,0,0,0,0,0,0,0,0,0,0,0],"id":31,"left_children":[1,3,5,7,9,11,13,15,17,19,21,23,25,27,29,-1,-1,-1,-1,-1,-1,-1,-1,-1,-1,-1,-1,-1,-1,-1,-1],"loss_changes":[3.1498728E1,3.8119026E1,4.0280056E0,1.0172396E1,9.22221E0,1.7223506E0,1.6819115E0,2.0537415E0,2.699835E0,8.163733E0,3.7931871E0,1.3471107E0,1.2746875E0,2.479968E0,3.0571747E-1,0E0,0E0,0E0,0E0,0E0,0E0,0E0,0E0,0E0,0E0,0E0,0E0,0E0,0E0,0E0,0E0],"parents":[2147483647,0,0,1,1,2,2,3,3,4,4,5,5,6,6,7,7,8,8,9,9,10,10,11,11,12,12,13,13,14,14],"right_children":[2,4,6,8,10,12,14,16,18,20,22,24,26,28,30,-1,-1,-1,-1,-1,-1,-1,-1,-1,-1,-1,-1,-1,-1,-1,-1],"split_conditions":[1.4600229E0,-5.541353E-1,2.000403E0,-1.5757238E0,6.760324E-1,1.8761966E0,6.8391746E-1,-1.9980101E-1,-5.0090665E-1,-1.7344497E0,3.1317836E-1,1.3159653E-2,2.1043053E0,-8.4319496E-1,4.31841E-2,-3.1823032E-3,-1.3905371E-3,-1.220312E-3,-1.2918157E-4,-2.1360626E-3,1.0892738E-3,5.2411837E-4,-9.534583E-4,-0E0,-2.6180416E-3,9.351997E-4,-3.382502E-3,1.5192382E-3,-3.605908E-3,-5.027713E-3,-0E0],"split_indices":[10,10,10,10,10,10,19,17,17,15,7,16,16,15,9,0,0,0,0,0,0,0,0,0,0,0,0,0,0,0,0],"split_type":[0,0,0,0,0,0,0,0,0,0,0,0,0,0,0,0,0,0,0,0,0,0,0,0,0,0,0,0,0,0,0],"sum_hessian":[7.4224263E3,6.9458765E3,4.7654947E2,1.9496033E3,4.9962734E3,2.7945612E2,1.9709334E2,5.550403E2,1.394563E3,4.0705022E3,9.257711E2,2.2338908E2,5.6067047E1,4.137318E1,1.5572015E2,3.3085736E2,2.2418292E2,5.753258E2,8.192372E2,1.0336679E2,3.9671355E3,4.1051694E2,5.152542E2,3.2577255E1,1.9081183E2,4.4635834E1,1.1431211E1,1.4514755E1,2.6858425E1,1.5153464E2,4.185515E0],"tree_param":{"num_deleted":"0","num_feature":"30","num_nodes":"31","size_leaf_vector":"1"}},{"base_weights":[9.864262E-3,3.8522252E-1,-1.4581032E-1,6.0354656E-1,2.6058567E-1,-4.6179462E-2,-3.317087E-1,6.727696E-1,4.811726E-1,1.2347695E-1,2.9687196E-1,4.4607434E-2,-1.2721433E-1,-2.6219696E-1,-4.8245892E-1,7.972551E-3,-0E0,5.7516918E-3,-0E0,2.3089275E-3,-0E0,3.5909165E-3,7.059544E-4,1.0515287E-3,-0E0,-1.1476649E-3,-2.5925322E-3,-3.4531308E-3,-2.0771187E-3,-0E0,-5.7004746E-3],"categories":[],"categories_nodes":[],"categories_segments":[],"categories_sizes":[],"default_left":[0,0,0,0,0,0,0,0,0,0,0,0,0,0,0,0,0,0,0,0,0,0,0,0,0,0,0,0,0,0,0],"id":32,"left_children":[1,3,5,7,9,11,13,15,17,19,21,23,25,27,29,-1,-1,-1,-1,-1,-1,-1,-1,-1,-1,-1,-1,-1,-1,-1,-1],"loss_changes":[4.3608374E2,5.732303E1,9.6503784E1,3.629364E0,5.8880157E0,2.5489723E1,1.720723E1,3.6281738E0,2.126007E0,3.0787563E0,1.9000397E0,3.0727925E0,4.186905E0,2.3702393E0,2.4550323E0,0E0,0E0,0E0,0E0,0E0,0E0,0E0,0E0,0E0,0E0,0E0,0E0,0E0,0E0,0E0,0E0],"parents":[2147483647,0,0,1,1,2,2,3,3,4,4,5,5,6,6,7,7,8,8,9,9,10,10,11,11,12,12,13,13,14,14],"right_children":[2,4,6,8,10,12,14,16,18,20,22,24,26,28,30,-1,-1,-1,-1,-1,-1,-1,-1,-1,-1,-1,-1,-1,-1,-1,-1],"split_conditions":[-4.9954578E-1,-1.3408561E0,4.814092E-1,-1.7011065E0,8.299262E-3,-4.2629983E-2,1.3389043E0,3.2064542E-1,8.496274E-1,-1.5696149E-1,8.7738895E-1,4.011384E-1,6.83768E-1,3.5765466E-1,3.8488436E-1,7.972551E-3,-0E0,5.7516918E-3,-0E0,2.3089275E-3,-0E0,3.5909165E-3,7.059544E-4,1.0515287E-3,-0E0,-1.1476649E-3,-2.5925322E-3,-3.4531308E-3,-2.0771187E-3,-0E0,-5.7004746E-3],"split_indices":[10,10,10,10,9,10,10,11,11,9,11,7,21,23,11,0,0,0,0,0,0,0,0,0,0,0,0,0,0,0,0],"split_type":[0,0,0,0,0,0,0,0,0,0,0,0,0,0,0,0,0,0,0,0,0,0,0,0,0,0,0,0,0,0,0],"sum_hessian":[7.451826E3,2.1892283E3,5.2625977E3,7.877328E2,1.4014956E3,3.4354941E3,1.8271035E3,4.8894434E2,2.9878842E2,3.0831256E2,1.0931831E3,1.6054237E3,1.8300703E3,1.262652E3,5.6445154E2,4.813535E2,7.5908766E0,2.9316495E2,5.623465E0,1.9831462E2,1.0999794E2,1.0340522E3,5.913076E1,7.7077515E2,8.3464856E2,1.4255691E3,4.0450128E2,8.778441E2,3.848078E2,4.214031E0,5.6023755E2],"tree_param":{"num_deleted":"0","num_feature":"30","num_nodes":"31","size_leaf_vector":"1"}},{"base_weights":[3.2890015E-4,-1.4765663E-1,3.3543724E-1,-3.3059564E-1,-3.980454E-2,2.1744029E-1,6.6386306E-1,-2.1891814E-1,-4.1779217E-1,-1.0798184E-1,1.47647895E-2,1.8036006E-1,3.4898064E-1,5.628924E-1,8.3586776E-1,-1.7835032E-3,-3.2729495E-3,-5.6786644E-3,-4.2282077E-3,-2.932504E-4,-1.6233723E-3,4.1684642E-4,-6.067294E-4,1.064614E-3,2.8568676E-3,4.728838E-3,1.788915E-3,4.0290034E-3,7.3120953E-3,5.5698253E-4,9.986459E-3],"categories":[],"categories_nodes":[],"categories_segments":[],"categories_sizes":[],"default_left":[0,0,0,0,0,0,0,0,0,0,0,0,0,0,0,0,0,0,0,0,0,0,0,0,0,0,0,0,0,0,0],"id":33,"left_children":[1,3,5,7,9,11,13,15,17,19,21,23,25,27,29,-1,-1,-1,-1,-1,-1,-1,-1,-1,-1,-1,-1,-1,-1,-1,-1],"loss_changes":[3.6756366E2,1.00253174E2,8.578168E1,1.6784225E1,1.2278397E1,6.8130493E0,6.616455E0,2.3146172E0,1.7859344E0,3.3518887E0,2.4481308E0,6.7568054E0,2.4580383E0,2.8134537E0,1.0511017E0,0E0,0E0,0E0,0E0,0E0,0E0,0E0,0E0,0E0,0E0,0E0,0E0,0E0,0E0,0E0,0E0],"parents":[2147483647,0,0,1,1,2,2,3,3,4,4,5,5,6,6,7,7,8,8,9,9,10,10,11,11,12,12,13,13,14,14],"right_children":[2,4,6,8,10,12,14,16,18,20,22,24,26,28,30,-1,-1,-1,-1,-1,-1,-1,-1,-1,-1,-1,-1,-1,-1,-1,-1],"split_conditions":[3.4788442E-1,-5.6593096E-1,1.3389043E0,8.9533114E-1,-1.1679781E-1,1.1217964E0,2.000403E0,3.6495852E-1,-1.7011065E0,-3.6969236E-1,-1.2656702E-1,6.043725E-1,6.1773705E-1,4.6387863E-1,-1.5594691E0,-1.7835032E-3,-3.2729495E-3,-5.6786644E-3,-4.2282077E-3,-2.932504E-4,-1.6233723E-3,4.1684642E-4,-6.067294E-4,1.064614E-3,2.8568676E-3,4.728838E-3,1.788915E-3,4.0290034E-3,7.3120953E-3,5.5698253E-4,9.986459E-3],"split_indices":[10,10,10,9,10,21,10,9,10,9,9,10,20,19,9,0,0,0,0,0,0,0,0,0,0,0,0,0,0,0,0],"split_type":[0,0,0,0,0,0,0,0,0,0,0,0,0,0,0,0,0,0,0,0,0,0,0,0,0,0,0,0,0,0,0],"sum_hessian":[7.4016094E3,5.1290996E3,2.2725095E3,1.8933217E3,3.2357778E3,1.6779325E3,5.9457715E2,8.4343915E2,1.0498826E3,1.4592449E3,1.7765331E3,1.3246578E3,3.532746E2,3.8480057E2,2.097766E2,4.2808762E2,4.1535153E2,4.4489987E2,6.0498267E2,4.2190417E2,1.0373407E3,1.3811769E3,3.953562E2,5.7374384E2,7.5091406E2,2.637296E2,8.954499E1,9.7079926E1,2.8772064E2,8.479837E0,2.0129675E2],"tree_param":{"num_deleted":"0","num_feature":"30","num_nodes":"31","size_leaf_vector":"1"}},{"base_weights":[-3.2791884E-3,-1.960933E-1,2.1145303E-2,-2.3647387E-1,-7.711508E-2,4.9990103E-2,-1.7454514E-1,-0E0,-2.4807131E-1,-9.095279E-3,-3.4477025E-1,5.9380893E-2,-1.9264484E-2,-1.2637457E-1,-3.118219E-1,-2.2877064E-3,3.0662993E-3,-2.982638E-3,-0E0,3.49139E-4,-1.5799914E-3,-4.6807537E-3,-0E0,7.29167E-4,-2.0830345E-3,-6.1119517E-4,1.3687168E-3,-2.437904E-3,-4.4346933E-4,-0E0,-4.0881997E-3],"categories":[],"categories_nodes":[],"categories_segments":[],"categories_sizes":[],"default_left":[0,0,0,0,0,0,0,0,0,0,0,0,0,0,0,0,0,0,0,0,0,0,0,0,0,0,0,0,0,0,0],"id":34,"left_children":[1,3,5,7,9,11,13,15,17,19,21,23,25,27,29,-1,-1,-1,-1,-1,-1,-1,-1,-1,-1,-1,-1,-1,-1,-1,-1],"loss_changes":[3.5380196E1,3.2557411E0,3.678008E1,1.8177071E0,3.2954972E0,3.8355494E0,4.375353E0,1.4389758E0,8.418083E-1,1.2179906E0,8.936038E-1,3.5065212E0,2.7921653E0,3.972561E0,2.0638313E0,0E0,0E0,0E0,0E0,0E0,0E0,0E0,0E0,0E0,0E0,0E0,0E0,0E0,0E0,0E0,0E0],"parents":[2147483647,0,0,1,1,2,2,3,3,4,4,5,5,6,6,7,7,8,8,9,9,10,10,11,11,12,12,13,13,14,14],"right_children":[2,4,6,8,10,12,14,16,18,20,22,24,26,28,30,-1,-1,-1,-1,-1,-1,-1,-1,-1,-1,-1,-1,-1,-1,-1,-1],"split_conditions":[-1.2455997E0,5.687623E-1,1.0499376E0,-1.7053291E0,2.3667145E0,1E0,2.000403E0,-1.8789711E0,1E0,4.1210547E-1,1E0,2.2168674E0,9.0278214E-1,-2.5516874E-1,4.1210547E-1,-2.2877064E-3,3.0662993E-3,-2.982638E-3,-0E0,3.49139E-4,-1.5799914E-3,-4.6807537E-3,-0E0,7.29167E-4,-2.0830345E-3,-6.1119517E-4,1.3687168E-3,-2.437904E-3,-4.4346933E-4,-0E0,-4.0881997E-3],"split_indices":[10,8,10,17,18,25,10,10,24,13,29,21,21,18,13,0,0,0,0,0,0,0,0,0,0,0,0,0,0,0,0],"split_type":[0,0,0,0,0,0,0,0,0,0,0,0,0,0,0,0,0,0,0,0,0,0,0,0,0,0,0,0,0,0,0],"sum_hessian":[7.4171055E3,8.4546655E2,6.5716387E3,6.149618E2,2.305048E2,5.7389995E3,8.3263947E2,2.6644453E1,5.883173E2,1.9165681E2,3.8848E1,5.0862935E3,6.5270593E2,6.305664E2,2.0207306E2,1.4156652E1,1.2487801E1,5.664286E2,2.1888737E1,1.3113177E2,6.0525024E1,3.4140884E1,4.707116E0,5.0308926E3,5.5400883E1,5.405007E2,1.12205284E2,3.1061584E2,3.1995053E2,2.5428835E1,1.7664421E2],"tree_param":{"num_deleted":"0","num_feature":"30","num_nodes":"31","size_leaf_vector":"1"}},{"base_weights":[7.772184E-4,3.7271935E-1,-1.5151428E-1,6.086942E-1,2.4302688E-1,-8.388172E-2,-3.9901206E-1,8.2036537E-1,5.619657E-1,1.8078646E-1,3.6169457E-1,1.6460702E-2,-1.4712438E-1,-1.01693474E-1,-4.2947984E-1,1.005957E-2,-0E0,6.6498965E-3,-0E0,3.1282709E-3,1.5050409E-3,4.693094E-3,1.17138115E-4,-4.0772077E-4,5.7650544E-4,-1.4071399E-3,-2.5796152E-3,-2.3425904E-3,2.1996612E-3,-2.984047E-3,-5.298803E-3],"categories":[],"categories_nodes":[],"categories_segments":[],"categories_sizes":[],"default_left":[0,0,0,0,0,0,0,0,0,0,0,0,0,0,0,0,0,0,0,0,0,0,0,0,0,0,0,0,0,0,0],"id":35,"left_children":[1,3,5,7,9,11,13,15,17,19,21,23,25,27,29,-1,-1,-1,-1,-1,-1,-1,-1,-1,-1,-1,-1,-1,-1,-1,-1],"loss_changes":[4.2316025E2,6.425644E1,8.727648E1,3.8791199E0,9.001793E0,2.6746002E1,8.835419E0,2.426796E0,3.2279816E0,3.222311E0,5.6763954E0,2.7391982E0,4.1534195E0,3.2929406E0,2.5249481E0,0E0,0E0,0E0,0E0,0E0,0E0,0E0,0E0,0E0,0E0,0E0,0E0,0E0,0E0,0E0,0E0],"parents":[2147483647,0,0,1,1,2,2,3,3,4,4,5,5,6,6,7,7,8,8,9,9,10,10,11,11,12,12,13,13,14,14],"right_children":[2,4,6,8,10,12,14,16,18,20,22,24,26,28,30,-1,-1,-1,-1,-1,-1,-1,-1,-1,-1,-1,-1,-1,-1,-1,-1],"split_conditions":[-4.9954578E-1,-1.3700138E0,8.3361644E-1,-2.381898E0,8.492916E-1,-4.2629983E-2,2.1615091E-1,-4.4837552E-1,7.423159E-1,-7.655734E-1,-6.559365E-1,-3.0219367E-1,6.83768E-1,1.0788481E0,9.744663E-1,1.005957E-2,-0E0,6.6498965E-3,-0E0,3.1282709E-3,1.5050409E-3,4.693094E-3,1.17138115E-4,-4.0772077E-4,5.7650544E-4,-1.4071399E-3,-2.5796152E-3,-2.3425904E-3,2.1996612E-3,-2.984047E-3,-5.298803E-3],"split_indices":[10,10,10,10,9,10,11,11,11,13,10,10,21,10,10,0,0,0,0,0,0,0,0,0,0,0,0,0,0,0,0],"split_type":[0,0,0,0,0,0,0,0,0,0,0,0,0,0,0,0,0,0,0,0,0,0,0,0,0,0,0,0,0,0,0],"sum_hessian":[7.4600024E3,2.1719128E3,5.2880894E3,7.6294403E2,1.4089689E3,4.1615947E3,1.1264945E3,1.2720211E2,6.3574194E2,9.388425E2,4.701263E2,1.5933313E3,2.5682637E3,1.1262998E2,1.01386456E3,1.1830455E2,8.897559E0,6.274865E2,8.255449E0,3.3019092E2,6.086517E2,4.1479886E2,5.5327442E1,5.92171E2,1.0011603E3,1.9179569E3,6.5030664E2,9.0588005E1,2.2041977E1,1.4024464E2,8.736199E2],"tree_param":{"num_deleted":"0","num_feature":"30","num_nodes":"31","size_leaf_vector":"1"}},{"base_weights":[-2.100435E-3,1.16188094E-1,-2.2065005E-1,3.111965E-2,3.7724096E-1,-1.2342618E-1,-3.642814E-1,1.41585E-1,-7.0426473E-3,2.6520273E-1,5.3870565E-1,-1.6922188E-1,1.4088853E-1,-3.9187083E-1,8.1274286E-2,1.1191827E-3,3.6988E-3,-6.0219667E-4,8.317037E-4,4.1974303E-3,2.0429655E-3,5.5912277E-3,9.636902E-3,-1.6307749E-3,-4.1389475E-3,-1.2495783E-3,2.5664628E-3,-5.0435513E-3,-3.2883605E-3,8.609789E-3,-1.3308985E-4],"categories":[],"categories_nodes":[],"categories_segments":[],"categories_sizes":[],"default_left":[0,0,0,0,0,0,0,0,0,0,0,0,0,0,0,0,0,0,0,0,0,0,0,0,0,0,0,0,0,0,0],"id":36,"left_children":[1,3,5,7,9,11,13,15,17,19,21,23,25,27,29,-1,-1,-1,-1,-1,-1,-1,-1,-1,-1,-1,-1,-1,-1,-1,-1],"loss_changes":[1.9316408E2,1.0629544E2,3.5436348E1,1.5745829E1,1.9258987E1,1.9182505E1,1.3711334E1,6.585783E0,9.37865E0,4.6395493E0,4.6282196E0,6.106865E0,4.713008E0,2.571106E0,5.2754436E0,0E0,0E0,0E0,0E0,0E0,0E0,0E0,0E0,0E0,0E0,0E0,0E0,0E0,0E0,0E0,0E0],"parents":[2147483647,0,0,1,1,2,2,3,3,4,4,5,5,6,6,7,7,8,8,9,9,10,10,11,11,12,12,13,13,14,14],"right_children":[2,4,6,8,10,12,14,16,18,20,22,24,26,28,30,-1,-1,-1,-1,-1,-1,-1,-1,-1,-1,-1,-1,-1,-1,-1,-1],"split_conditions":[1.0744515E-1,6.83768E-1,1.2063568E0,-8.296246E-1,1.3440341E0,1.1239952E0,1.7841117E0,2.4383979E-1,2.6725346E-2,-5.4422975E-1,1E0,1E0,8.4961784E-1,4.6387863E-1,6.4719164E-1,1.1191827E-3,3.6988E-3,-6.0219667E-4,8.317037E-4,4.1974303E-3,2.0429655E-3,5.5912277E-3,9.636902E-3,-1.6307749E-3,-4.1389475E-3,-1.2495783E-3,2.5664628E-3,-5.0435513E-3,-3.2883605E-3,8.609789E-3,-1.3308985E-4],"split_indices":[9,21,9,9,19,19,19,19,21,9,3,27,16,19,12,0,0,0,0,0,0,0,0,0,0,0,0,0,0,0,0],"split_type":[0,0,0,0,0,0,0,0,0,0,0,0,0,0,0,0,0,0,0,0,0,0,0,0,0,0,0,0,0,0,0],"sum_hessian":[7.4610312E3,4.833409E3,2.6276223E3,3.6531077E3,1.1803015E3,1.5778969E3,1.0497253E3,9.550017E2,2.698106E3,7.0660645E2,4.736951E2,1.3532194E3,2.2467749E2,9.939555E2,5.576986E1,7.6993243E2,1.8506927E2,1.7404077E3,9.576982E2,3.301201E2,3.7648636E2,4.0072867E2,7.296644E1,1.1805831E3,1.7263632E2,4.65165E1,1.78161E2,7.083614E2,2.8559415E2,1.0059658E1,4.57102E1],"tree_param":{"num_deleted":"0","num_feature":"30","num_nodes":"31","size_leaf_vector":"1"}},{"base_weights":[-8.121153E-3,1.1530336E-2,-2.0653686E-1,-1.9635527E-1,3.7419364E-2,-0E0,-2.3674017E-1,-1.6235866E-1,-3.8032705E-1,-1.7326906E-1,4.2576212E-2,6.1106972E-2,-2.1602377E-1,-1.8445687E-1,-3.3735666E-1,-2.508399E-3,-0E0,-4.7780257E-3,-0E0,2.6755035E-4,-2.60041E-3,-1.8723693E-4,7.21479E-4,-3.1112656E-3,1.7492878E-3,-0E0,-3.6236756E-3,-1.2393979E-3,-3.336276E-3,-4.186223E-3,-0E0],"categories":[],"categories_nodes":[],"categories_segments":[],"categories_sizes":[],"default_left":[0,0,0,0,0,0,0,0,0,0,0,0,0,0,0,0,0,0,0,0,0,0,0,0,0,0,0,0,0,0,0],"id":37,"left_children":[1,3,5,7,9,11,13,15,17,19,21,23,25,27,29,-1,-1,-1,-1,-1,-1,-1,-1,-1,-1,-1,-1,-1,-1,-1,-1],"loss_changes":[2.9668718E1,3.616719E1,3.751234E0,3.232113E0,6.245243E0,1.6321622E0,1.7452774E0,4.9688034E0,1.3787956E0,1.808537E0,6.8126307E0,1.6932048E0,9.591317E-1,2.2043982E0,1.0710258E0,0E0,0E0,0E0,0E0,0E0,0E0,0E0,0E0,0E0,0E0,0E0,0E0,0E0,0E0,0E0,0E0],"parents":[2147483647,0,0,1,1,2,2,3,3,4,4,5,5,6,6,7,7,8,8,9,9,10,10,11,11,12,12,13,13,14,14],"right_children":[2,4,6,8,10,12,14,16,18,20,22,24,26,28,30,-1,-1,-1,-1,-1,-1,-1,-1,-1,-1,-1,-1,-1,-1,-1,-1],"split_conditions":[1.1958263E0,-1.3408561E0,1.3159653E-2,2.3571112E0,-1.7344497E0,1.748628E0,2.000403E0,5.687623E-1,-1.4343117E0,-8.9789855E-1,-4.769115E-1,-1.3000232E0,-1.3000232E0,-1.6235192E-1,6.1773705E-1,-2.508399E-3,-0E0,-4.7780257E-3,-0E0,2.6755035E-4,-2.60041E-3,-1.8723693E-4,7.21479E-4,-3.1112656E-3,1.7492878E-3,-0E0,-3.6236756E-3,-1.2393979E-3,-3.336276E-3,-4.186223E-3,-0E0],"split_indices":[10,10,16,20,15,10,10,8,10,11,10,14,14,23,20,0,0,0,0,0,0,0,0,0,0,0,0,0,0,0,0],"split_type":[0,0,0,0,0,0,0,0,0,0,0,0,0,0,0,0,0,0,0,0,0,0,0,0,0,0,0,0,0,0,0],"sum_hessian":[7.480567E3,6.794958E3,6.856091E2,7.4134216E2,6.0536157E3,9.6918106E1,5.886909E2,6.3791235E2,1.0342976E2,1.325505E2,5.921065E3,6.76698E1,2.924831E1,4.046638E2,1.8402718E2,4.7081442E2,1.6709796E2,9.731576E1,6.114006E0,1.641407E1,1.16136444E2,1.4327034E3,4.488362E3,8.169136E0,5.950066E1,5.323132E0,2.3925179E1,2.4324646E2,1.6141731E2,1.7084492E2,1.31822405E1],"tree_param":{"num_deleted":"0","num_feature":"30","num_nodes":"31","size_leaf_vector":"1"}},{"base_weights":[-3.6721588E-3,-9.7333334E-2,3.9647904E-1,-1.8343367E-2,-3.741662E-1,5.088996E-1,-3.6777504E-2,-7.664381E-2,1.621407E-1,-3.0613783E-1,-4.7501943E-1,3.6226574E-1,6.3265693E-1,-0E0,-2.5614142E-1,6.0569774E-4,-1.3514793E-3,2.2205047E-3,-1.5308583E-3,-4.607963E-3,-2.652641E-3,-0E0,-5.5949055E-3,4.691374E-3,-0E0,7.5421883E-3,1.5603642E-4,-8.979406E-4,1.4004032E-3,-0E0,-6.2162494E-3],"categories":[],"categories_nodes":[],"categories_segments":[],"categories_sizes":[],"default_left":[0,0,0,0,0,0,0,0,0,0,0,0,0,0,0,0,0,0,0,0,0,0,0,0,0,0,0,0,0,0,0],"id":38,"left_children":[1,3,5,7,9,11,13,15,17,19,21,23,25,27,29,-1,-1,-1,-1,-1,-1,-1,-1,-1,-1,-1,-1,-1,-1,-1,-1],"loss_changes":[2.796723E2,1.316949E2,7.008702E1,4.954348E1,7.152664E0,1.7847595E1,1.7259657E0,1.8251688E1,9.640219E0,4.094864E0,1.4347916E0,8.304314E0,3.5336761E0,2.2607515E0,1.7478397E0,0E0,0E0,0E0,0E0,0E0,0E0,0E0,0E0,0E0,0E0,0E0,0E0,0E0,0E0,0E0,0E0],"parents":[2147483647,0,0,1,1,2,2,3,3,4,4,5,5,6,6,7,7,8,8,9,9,10,10,11,11,12,12,13,13,14,14],"right_children":[2,4,6,8,10,12,14,16,18,20,22,24,26,28,30,-1,-1,-1,-1,-1,-1,-1,-1,-1,-1,-1,-1,-1,-1,-1,-1],"split_conditions":[8.492916E-1,4.4444153E-1,7.423159E-1,8.299262E-3,1.5185872E0,1.670007E0,2.6479552E0,-8.432287E-1,2.1615091E-1,-4.0653256E-1,-7.655734E-1,3.3358318E-1,1E0,1.3440341E0,1.2086833E-1,6.0569774E-4,-1.3514793E-3,2.2205047E-3,-1.5308583E-3,-4.607963E-3,-2.652641E-3,-0E0,-5.5949055E-3,4.691374E-3,-0E0,7.5421883E-3,1.5603642E-4,-8.979406E-4,1.4004032E-3,-0E0,-6.2162494E-3],"split_indices":[9,11,11,9,11,9,11,11,11,9,13,11,0,19,8,0,0,0,0,0,0,0,0,0,0,0,0,0,0,0,0],"split_type":[0,0,0,0,0,0,0,0,0,0,0,0,0,0,0,0,0,0,0,0,0,0,0,0,0,0,0,0,0,0,0],"sum_hessian":[7.482015E3,6.068263E3,1.413752E3,4.728585E3,1.339678E3,1.127139E3,2.8661298E2,3.584918E3,1.1436672E3,8.158798E2,5.2379816E2,5.2587054E2,6.012685E2,2.546802E2,3.1932772E1,8.2289056E2,2.7620273E3,1.0512681E3,9.2399086E1,3.6716003E2,4.4871976E2,3.9826202E0,5.1981555E2,4.7779495E2,4.8075558E1,5.838997E2,1.7368765E1,1.6690443E2,8.7775764E1,1.8627684E1,1.3305089E1],"tree_param":{"num_deleted":"0","num_feature":"30","num_nodes":"31","size_leaf_vector":"1"}},{"base_weights":[3.3535769E-3,-1.2416819E-1,3.9104244E-1,-3.230757E-1,-1.6521897E-2,2.5695178E-1,6.52749E-1,-4.6757087E-1,-2.7315158E-1,-1.1247318E-1,4.5067374E-2,1.8082015E-1,3.0946088E-1,5.558653E-1,8.2128793E-1,-5.5166585E-3,-0E0,-1.2926434E-3,-3.5167662E-3,1.7539908E-3,-1.4617705E-3,2.8535255E-4,2.3428304E-3,4.1961507E-3,1.2349884E-3,5.146637E-3,3.1928115E-3,-0E0,6.550775E-3,-0E0,9.795554E-3],"categories":[],"categories_nodes":[],"categories_segments":[],"categories_sizes":[],"default_left":[0,0,0,0,0,0,0,0,0,0,0,0,0,0,0,0,0,0,0,0,0,0,0,0,0,0,0,0,0,0,0],"id":39,"left_children":[1,3,5,7,9,11,13,15,17,19,21,23,25,27,29,-1,-1,-1,-1,-1,-1,-1,-1,-1,-1,-1,-1,-1,-1,-1,-1],"loss_changes":[3.6693146E2,1.183829E2,6.2144135E1,1.2115921E1,2.1581085E1,3.6170044E0,6.4067383E0,9.1091156E-1,5.667038E0,4.7845497E0,6.45233E0,5.7658978E0,1.4455109E0,1.7027206E0,3.6201477E0,0E0,0E0,0E0,0E0,0E0,0E0,0E0,0E0,0E0,0E0,0E0,0E0,0E0,0E0,0E0,0E0],"parents":[2147483647,0,0,1,1,2,2,3,3,4,4,5,5,6,6,7,7,8,8,9,9,10,10,11,11,12,12,13,13,14,14],"right_children":[2,4,6,8,10,12,14,16,18,20,22,24,26,28,30,-1,-1,-1,-1,-1,-1,-1,-1,-1,-1,-1,-1,-1,-1,-1,-1],"split_conditions":[5.020926E-1,-5.541353E-1,1.3389043E0,-1.6570181E0,-1.1679781E-1,3.505754E-1,2.000403E0,1E0,-1.4994337E-3,-8.582133E-1,1E0,-1.1291298E0,-6.7645293E-1,3.505754E-1,-1.6256167E0,-5.5166585E-3,-0E0,-1.2926434E-3,-3.5167662E-3,1.7539908E-3,-1.4617705E-3,2.8535255E-4,2.3428304E-3,4.1961507E-3,1.2349884E-3,5.146637E-3,3.1928115E-3,-0E0,6.550775E-3,-0E0,9.795554E-3],"split_indices":[10,10,10,10,10,11,10,0,9,9,0,18,9,11,9,0,0,0,0,0,0,0,0,0,0,0,0,0,0,0,0],"split_type":[0,0,0,0,0,0,0,0,0,0,0,0,0,0,0,0,0,0,0,0,0,0,0,0,0,0,0,0,0,0,0],"sum_hessian":[7.407553E3,5.5692627E3,1.8382902E3,1.9470957E3,3.622167E3,1.222346E3,6.159443E2,4.862056E2,1.4608901E3,1.4322059E3,2.1899612E3,5.1935583E2,7.0299005E2,4.015429E2,2.1440137E2,4.7915375E2,7.051854E0,2.3106061E2,1.2298295E3,5.7385635E1,1.3748203E3,1.9490259E3,2.4093527E2,1.4287047E2,3.7648538E2,1.3384755E2,5.691425E2,2.8750072E0,3.986679E2,4.273129E0,2.1012823E2],"tree_param":{"num_deleted":"0","num_feature":"30","num_nodes":"31","size_leaf_vector":"1"}},{"base_weights":[2.0442028E-3,-2.0679525E-1,2.3755684E-2,-2.4520516E-1,-8.568437E-2,4.938087E-2,-1.7014256E-1,-3.8700414E-1,-2.0756271E-1,-9.402657E-3,-2.792732E-1,-4.3763164E-3,6.7586005E-2,-1.1067895E-1,-3.2880092E-1,-4.923472E-3,-1.1313861E-4,-2.1305731E-3,-5.109401E-3,4.3589904E-4,-3.1271465E-3,-3.9679497E-3,-0E0,-2.070243E-3,9.891233E-5,-4.211291E-4,8.852692E-4,-1.5402857E-3,2.713424E-4,-7.686153E-4,-4.367342E-3],"categories":[],"categories_nodes":[],"categories_segments":[],"categories_sizes":[],"default_left":[0,0,0,0,0,0,0,0,0,0,0,0,0,0,0,0,0,0,0,0,0,0,0,0,0,0,0,0,0,0,0],"id":40,"left_children":[1,3,5,7,9,11,13,15,17,19,21,23,25,27,29,-1,-1,-1,-1,-1,-1,-1,-1,-1,-1,-1,-1,-1,-1,-1,-1],"loss_changes":[3.3225292E1,2.351017E0,3.319354E1,1.1599789E0,1.9528524E0,6.0015593E0,6.1808395E0,1.09773636E-1,7.706413E-1,2.2944016E0,8.630016E-1,3.7146358E0,3.9784222E0,1.9300113E0,1.261385E0,0E0,0E0,0E0,0E0,0E0,0E0,0E0,0E0,0E0,0E0,0E0,0E0,0E0,0E0,0E0,0E0],"parents":[2147483647,0,0,1,1,2,2,3,3,4,4,5,5,6,6,7,7,8,8,9,9,10,10,11,11,12,12,13,13,14,14],"right_children":[2,4,6,8,10,12,14,16,18,20,22,24,26,28,30,-1,-1,-1,-1,-1,-1,-1,-1,-1,-1,-1,-1,-1,-1,-1,-1],"split_conditions":[-1.3957404E0,5.687623E-1,1.1073073E0,-2.381898E0,2.148224E0,-4.769115E-1,2.000403E0,1E0,1E0,1E0,2.2907832E-1,-6.921493E-1,-1.4373648E0,8.351588E-1,7.065252E-1,-4.923472E-3,-1.1313861E-4,-2.1305731E-3,-5.109401E-3,4.3589904E-4,-3.1271465E-3,-3.9679497E-3,-0E0,-2.070243E-3,9.891233E-5,-4.211291E-4,8.852692E-4,-1.5402857E-3,2.713424E-4,-7.686153E-4,-4.367342E-3],"split_indices":[10,8,10,10,18,10,10,25,25,6,11,18,15,20,13,0,0,0,0,0,0,0,0,0,0,0,0,0,0,0,0],"split_type":[0,0,0,0,0,0,0,0,0,0,0,0,0,0,0,0,0,0,0,0,0,0,0,0,0,0,0,0,0,0,0],"sum_hessian":[7.4303687E3,6.884042E2,6.7419644E3,5.0638397E2,1.8202022E2,5.966814E3,7.751506E2,9.140564E1,4.1497833E2,1.4026855E2,4.175167E1,1.4739948E3,4.4928193E3,5.7591895E2,1.9923167E2,7.738217E1,1.4023468E1,3.8503485E2,2.9943464E1,1.10625565E2,2.9642988E1,3.5494236E1,6.257436E0,1.15397484E2,1.3585973E3,3.107502E2,4.182069E3,5.130938E2,6.2825085E1,3.7880657E1,1.6135103E2],"tree_param":{"num_deleted":"0","num_feature":"30","num_nodes":"31","size_leaf_vector":"1"}},{"base_weights":[-3.1742405E-3,3.6062515E-1,-1.5448645E-1,5.926704E-1,2.414661E-1,-4.0595032E-2,-3.1905755E-1,9.246015E-3,5.482602E-1,1.8939143E-1,3.3796215E-1,2.2648491E-2,-1.09673776E-1,-2.5776824E-1,-4.8315763E-1,6.491725E-3,-0E0,2.366722E-3,-0E0,4.3569473E-3,-0E0,4.759387E-4,-1.4411961E-3,-6.194486E-4,-1.7985612E-3,-0E0,-3.0572023E-3,-0E0,-5.680851E-3],"categories":[],"categories_nodes":[],"categories_segments":[],"categories_sizes":[],"default_left":[0,0,0,0,0,0,0,0,0,0,0,0,0,0,0,0,0,0,0,0,0,0,0,0,0,0,0,0,0],"id":41,"left_children":[1,3,5,7,9,11,13,-1,15,17,19,21,23,25,27,-1,-1,-1,-1,-1,-1,-1,-1,-1,-1,-1,-1,-1,-1],"loss_changes":[4.1104422E2,5.8414062E1,9.814162E1,2.9836426E0,5.946533E0,1.3911599E1,1.9717255E1,0E0,2.8733368E0,2.93536E0,5.76503E0,4.082161E0,3.2884464E0,2.2487717E0,1.0133514E0,0E0,0E0,0E0,0E0,0E0,0E0,0E0,0E0,0E0,0E0,0E0,0E0,0E0,0E0],"parents":[2147483647,0,0,1,1,2,2,3,3,4,4,5,5,6,6,8,8,9,9,10,10,11,11,12,12,13,13,14,14],"right_children":[2,4,6,8,10,12,14,-1,16,18,20,22,24,26,28,-1,-1,-1,-1,-1,-1,-1,-1,-1,-1,-1,-1,-1,-1],"split_conditions":[-4.9954578E-1,-1.3957404E0,3.6775354E-1,-2.381898E0,8.492916E-1,-4.2629983E-2,1.3389043E0,9.246015E-3,3.0125513E0,7.7270657E-1,-6.4246684E-1,6.3452077E-1,1.3159653E-2,-1.6256167E0,-8.0201226E-1,6.491725E-3,-0E0,2.366722E-3,-0E0,4.3569473E-3,-0E0,4.759387E-4,-1.4411961E-3,-6.194486E-4,-1.7985612E-3,-0E0,-3.0572023E-3,-0E0,-5.680851E-3],"split_indices":[10,10,10,10,9,10,10,0,9,9,10,9,16,9,17,0,0,0,0,0,0,0,0,0,0,0,0,0,0],"split_type":[0,0,0,0,0,0,0,0,0,0,0,0,0,0,0,0,0,0,0,0,0,0,0,0,0,0,0,0,0],"sum_hessian":[7.47611E3,2.1909963E3,5.285114E3,7.357016E2,1.4552947E3,3.1328987E3,2.1522148E3,1.2227509E2,6.134265E2,9.629852E2,4.9230945E2,1.6162928E3,1.5166057E3,1.5788639E3,5.73351E2,6.0441797E2,9.008546E0,9.100442E2,5.2941044E1,4.4418002E2,4.8129433E1,1.4534866E3,1.6280634E2,6.937146E2,8.228912E2,1.9397617E1,1.5594663E3,4.9485164E0,5.684025E2],"tree_param":{"num_deleted":"0","num_feature":"30","num_nodes":"29","size_leaf_vector":"1"}},{"base_weights":[-0E0,-9.98116E-2,3.174274E-1,-1.3653412E-2,-2.499597E-1,4.2872015E-1,6.344297E-2,-7.7274285E-2,2.7530931E-2,-1.8189445E-1,-3.288472E-1,2.9068857E-1,6.523169E-1,-5.638042E-3,3.621435E-1,2.0213868E-3,-1.1299036E-3,4.092587E-5,1.2821018E-3,-2.393835E-3,-7.870337E-4,-3.8755185E-3,-0E0,2.5020866E-3,4.8772907E-3,7.715521E-3,-0E0,6.222972E-4,-2.6953367E-3,5.3962837E-3,7.088652E-4],"categories":[],"categories_nodes":[],"categories_segments":[],"categories_sizes":[],"default_left":[0,0,0,0,0,0,0,0,0,0,0,0,0,0,0,0,0,0,0,0,0,0,0,0,0,0,0,0,0,0,0],"id":42,"left_children":[1,3,5,7,9,11,13,15,17,19,21,23,25,27,29,-1,-1,-1,-1,-1,-1,-1,-1,-1,-1,-1,-1,-1,-1,-1,-1],"loss_changes":[2.3469946E2,7.208995E1,4.8853912E1,9.521565E0,9.629646E0,3.536638E1,1.22119665E1,6.8512316E0,3.9694872E0,2.2730446E0,1.7776871E0,5.788452E0,2.9450684E0,6.28516E0,1.9800129E0,0E0,0E0,0E0,0E0,0E0,0E0,0E0,0E0,0E0,0E0,0E0,0E0,0E0,0E0,0E0,0E0],"parents":[2147483647,0,0,1,1,2,2,3,3,4,4,5,5,6,6,7,7,8,8,9,9,10,10,11,11,12,12,13,13,14,14],"right_children":[2,4,6,8,10,12,14,16,18,20,22,24,26,28,30,-1,-1,-1,-1,-1,-1,-1,-1,-1,-1,-1,-1,-1,-1,-1,-1],"split_conditions":[4.2319164E-1,4.0030205E-1,6.187923E-1,-5.843566E-1,1.0557728E0,1.5656976E0,2.1458423E0,-1.5661104E0,5.9796743E-2,-3.2219946E-2,2.4442282E0,9.0395635E-1,1.9808295E0,1.7112436E0,1.4927534E0,2.0213868E-3,-1.1299036E-3,4.092587E-5,1.2821018E-3,-2.393835E-3,-7.870337E-4,-3.8755185E-3,-0E0,2.5020866E-3,4.8772907E-3,7.715521E-3,-0E0,6.222972E-4,-2.6953367E-3,5.3962837E-3,7.088652E-4],"split_indices":[11,18,18,11,18,11,11,18,11,11,19,19,14,18,18,0,0,0,0,0,0,0,0,0,0,0,0,0,0,0,0],"split_type":[0,0,0,0,0,0,0,0,0,0,0,0,0,0,0,0,0,0,0,0,0,0,0,0,0,0,0,0,0,0,0],"sum_hessian":[7.397393E3,5.624531E3,1.7728624E3,3.5848328E3,2.0396978E3,1.2255634E3,5.472991E2,1.4330121E3,2.1518208E3,1.1128789E3,9.268188E2,7.652588E2,4.603046E2,4.3777252E2,1.0952655E2,9.434766E1,1.3386644E3,1.6903767E3,4.6144412E2,9.054374E2,2.0744157E2,9.237799E2,3.0388846E0,4.9214728E2,2.731115E2,4.5427438E2,6.0302157E0,3.3816208E2,9.9610435E1,7.564435E1,3.3882202E1],"tree_param":{"num_deleted":"0","num_feature":"30","num_nodes":"31","size_leaf_vector":"1"}},{"base_weights":[-2.9850246E-3,-2.1362656E-1,1.9864658E-2,-4.2606682E-1,-1.9155213E-1,4.6212595E-2,-1.7950723E-1,-0E0,-4.4774285E-1,-2.4786872E-1,-1.2063098E-1,-1.6425898E-2,6.4087E-2,-1.2883556E-1,-3.1458905E-1,-0E0,-5.3546214E-3,-0E0,-3.0405591E-3,-2.5638903E-3,-3.5168018E-4,-0E0,-1.358872E-3,5.910832E-4,1.7179012E-3,-0E0,-1.6572059E-3,-0E0,-4.143694E-3],"categories":[],"categories_nodes":[],"categories_segments":[],"categories_sizes":[],"default_left":[0,0,0,0,0,0,0,0,0,0,0,0,0,0,0,0,0,0,0,0,0,0,0,0,0,0,0,0,0],"id":43,"left_children":[1,3,5,7,9,11,13,-1,15,17,19,21,23,25,27,-1,-1,-1,-1,-1,-1,-1,-1,-1,-1,-1,-1,-1,-1],"loss_changes":[3.632002E1,1.863327E0,3.4876537E1,2.1721649E-1,1.7692089E0,6.7647896E0,4.132782E0,0E0,5.5229187E-2,1.5619278E0,2.250134E0,2.218902E0,4.675768E0,1.0442028E0,2.1437454E0,0E0,0E0,0E0,0E0,0E0,0E0,0E0,0E0,0E0,0E0,0E0,0E0,0E0,0E0],"parents":[2147483647,0,0,1,1,2,2,3,3,4,4,5,5,6,6,8,8,9,9,10,10,11,11,12,12,13,13,14,14],"right_children":[2,4,6,8,10,12,14,-1,16,18,20,22,24,26,28,-1,-1,-1,-1,-1,-1,-1,-1,-1,-1,-1,-1,-1,-1],"split_conditions":[-1.3408561E0,-2.6035316E0,1.1073073E0,2.3250182E0,1E0,-5.1984084E-1,2.000403E0,-0E0,-1.6488324E0,-4.7981006E-1,-1.8789711E0,1.4927534E0,8.3728254E-1,-1.5661104E0,4.1210547E-1,-0E0,-5.3546214E-3,-0E0,-3.0405591E-3,-2.5638903E-3,-3.5168018E-4,-0E0,-1.358872E-3,5.910832E-4,1.7179012E-3,-0E0,-1.6572059E-3,-0E0,-4.143694E-3],"split_indices":[10,10,10,9,28,10,10,0,13,14,10,18,18,18,13,0,0,0,0,0,0,0,0,0,0,0,0,0,0],"split_type":[0,0,0,0,0,0,0,0,0,0,0,0,0,0,0,0,0,0,0,0,0,0,0,0,0,0,0,0,0],"sum_hessian":[7.4425425E3,7.3905634E2,6.703486E3,5.815787E1,6.8089844E2,5.9325293E3,7.709565E2,4.4385495E0,5.3719322E1,3.5901584E2,3.2188263E2,1.2852885E3,4.647241E3,5.7483215E2,1.961243E2,2.38065E0,5.1338673E1,1.1527006E1,3.4748883E2,1.3985208E2,1.8203055E2,1.0965732E3,1.8871532E2,4.0292756E3,6.1796545E2,5.0589E1,5.2424316E2,2.5439547E1,1.7068475E2],"tree_param":{"num_deleted":"0","num_feature":"30","num_nodes":"29","size_leaf_vector":"1"}},{"base_weights":[-3.6664044E-3,3.7465695E-1,-1.4663939E-1,5.782124E-1,2.4642466E-1,-6.374249E-2,-3.6600995E-1,5.8979195E-1,-0E0,1.9832925E-1,3.499937E-1,3.341882E-2,-1.4376095E-1,-2.6173115E-1,-4.6289888E-1,4.2129094E-3,7.1958173E-3,-0E0,-3.5080232E-4,2.0746526E-3,4.2686635E-3,4.4657732E-3,5.617637E-4,8.660703E-4,-7.1001536E-4,-6.928145E-4,-1.9659444E-3,-3.1834368E-3,-0E0,-5.751455E-3,-2.4250753E-3],"categories":[],"categories_nodes":[],"categories_segments":[],"categories_sizes":[],"default_left":[0,0,0,0,0,0,0,0,0,0,0,0,0,0,0,0,0,0,0,0,0,0,0,0,0,0,0,0,0,0,0],"id":44,"left_children":[1,3,5,7,9,11,13,15,17,19,21,23,25,27,29,-1,-1,-1,-1,-1,-1,-1,-1,-1,-1,-1,-1,-1,-1,-1,-1],"loss_changes":[4.027956E2,5.110907E1,9.740464E1,5.871063E0,4.8535156E0,3.091822E1,1.3034958E1,2.2010803E0,1.0505522E-2,1.5993652E0,2.6895943E0,6.833902E0,3.965191E0,2.672573E0,3.979782E0,0E0,0E0,0E0,0E0,0E0,0E0,0E0,0E0,0E0,0E0,0E0,0E0,0E0,0E0,0E0,0E0],"parents":[2147483647,0,0,1,1,2,2,3,3,4,4,5,5,6,6,7,7,8,8,9,9,10,10,11,11,12,12,13,13,14,14],"right_children":[2,4,6,8,10,12,14,16,18,20,22,24,26,28,30,-1,-1,-1,-1,-1,-1,-1,-1,-1,-1,-1,-1,-1,-1,-1,-1],"split_conditions":[-5.541353E-1,-1.3408561E0,6.333855E-1,6.7434376E-1,9.255105E-1,-4.2629983E-2,1.0530763E0,1.2063568E0,7.505097E-1,1.4927534E0,-6.952305E-1,1E0,-8.8991666E-1,-1.5056066E-1,5.2825767E-1,4.2129094E-3,7.1958173E-3,-0E0,-3.5080232E-4,2.0746526E-3,4.2686635E-3,4.4657732E-3,5.617637E-4,8.660703E-4,-7.1001536E-4,-6.928145E-4,-1.9659444E-3,-3.1834368E-3,-0E0,-5.751455E-3,-2.4250753E-3],"split_indices":[10,10,10,11,9,10,11,9,14,18,10,5,14,9,9,0,0,0,0,0,0,0,0,0,0,0,0,0,0,0,0],"split_type":[0,0,0,0,0,0,0,0,0,0,0,0,0,0,0,0,0,0,0,0,0,0,0,0,0,0,0,0,0,0,0],"sum_hessian":[7.4569663E3,2.0401432E3,5.416823E3,7.803893E2,1.2597539E3,3.9399937E3,1.4768293E3,7.6691364E2,1.3475645E1,8.7770984E2,3.820441E2,1.7650273E3,2.1749663E3,7.245232E2,7.5230615E2,9.1980125E1,