{"learner":{"attributes":{"scikit_learn":"{\"_estimator_type\": \"classifier\"}"},"feature_names":["competition_Brasileirão - Série A Betano","competition_Brasileirão - Série B","competition_Bundesliga","competition_La Liga","competition_Ligue 1","competition_Premier League","competition_Série A","consistency_away","consistency_home","elo_away_pre","elo_diff","elo_home_pre","form_avg_away_5","form_avg_home_5","form_pts_away_3","form_pts_away_5","form_pts_home_3","form_pts_home_5","gd_avg_away_5","gd_avg_home_5","gd_away_5","gd_home_5","injury_impact_away","injury_impact_home","market_margin","momentum_away","momentum_home","pool_key_POOL_BRASIL","pool_key_POOL_BUNDESLIGA+UCL","pool_key_POOL_LA_LIGA+UCL","pool_key_POOL_LIGUE_1+UCL","pool_key_POOL_PREMIER_LEAGUE+UCL","pool_key_POOL_SÉRIE_A+UCL","prob_away_implied","prob_draw_implied","prob_home_implied"],"feature_types":["i","i","i","i","i","i","i","float","float","float","float","float","float","float","float","float","float","float","float","float","float","float","float","float","float","float","float","i","i","i","i","i","i","float","float","float"],"gradient_booster":{"model":{"cats":{"enc":[],"feature_segments":[],"sorted_idx":[]},"gbtree_model_param":{"num_parallel_tree":"1","num_trees":"945"},"iteration_indptr":[0,3,6,9,12,15,18,21,24,27,30,33,36,39,42,45,48,51,54,57,60,63,66,69,72,75,78,81,84,87,90,93,96,99,102,105,108,111,114,117,120,123,126,129,132,135,138,141,144,147,150,153,156,159,162,165,168,171,174,177,180,183,186,189,192,195,198,201,204,207,210,213,216,219,222,225,228,231,234,237,240,243,246,249,252,255,258,261,264,267,270,273,276,279,282,285,288,291,294,297,300,303,306,309,312,315,318,321,324,327,330,333,336,339,342,345,348,351,354,357,360,363,366,369,372,375,378,381,384,387,390,393,396,399,402,405,408,411,414,417,420,423,426,429,432,435,438,441,444,447,450,453,456,459,462,465,468,471,474,477,480,483,486,489,492,495,498,501,504,507,510,513,516,519,522,525,528,531,534,537,540,543,546,549,552,555,558,561,564,567,570,573,576,579,582,585,588,591,594,597,600,603,606,609,612,615,618,621,624,627,630,633,636,639,642,645,648,651,654,657,660,663,666,669,672,675,678,681,684,687,690,693,696,699,702,705,708,711,714,717,720,723,726,729,732,735,738,741,744,747,750,753,756,759,762,765,768,771,774,777,780,783,786,789,792,795,798,801,804,807,810,813,816,819,822,825,828,831,834,837,840,843,846,849,852,855,858,861,864,867,870,873,876,879,882,885,888,891,894,897,900,903,906,909,912,915,918,921,924,927,930,933,936,939,942,945],"tree_info":[0,1,2,0,1,2,0,1,2,0,1,2,0,1,2,0,1,2,0,1,2,0,1,2,0,1,2,0,1,2,0,1,2,0,1,2,0,1,2,0,1,2,0,1,2,0,1,2,0,1,2,0,1,2,0,1,2,0,1,2,0,1,2,0,1,2,0,1,2,0,1,2,0,1,2,0,1,2,0,1,2,0,1,2,0,1,2,0,1,2,0,1,2,0,1,2,0,1,2,0,1,2,0,1,2,0,1,2,0,1,2,0,1,2,0,1,2,0,1,2,0,1,2,0,1,2,0,1,2,0,1,2,0,1,2,0,1,2,0,1,2,0,1,2,0,1,2,0,1,2,0,1,2,0,1,2,0,1,2,0,1,2,0,1,2,0,1,2,0,1,2,0,1,2,0,1,2,0,1,2,0,1,2,0,1,2,0,1,2,0,1,2,0,1,2,0,1,2,0,1,2,0,1,2,0,1,2,0,1,2,0,1,2,0,1,2,0,1,2,0,1,2,0,1,2,0,1,2,0,1,2,0,1,2,0,1,2,0,1,2,0,1,2,0,1,2,0,1,2,0,1,2,0,1,2,0,1,2,0,1,2,0,1,2,0,1,2,0,1,2,0,1,2,0,1,2,0,1,2,0,1,2,0,1,2,0,1,2,0,1,2,0,1,2,0,1,2,0,1,2,0,1,2,0,1,2,0,1,2,0,1,2,0,1,2,0,1,2,0,1,2,0,1,2,0,1,2,0,1,2,0,1,2,0,1,2,0,1,2,0,1,2,0,1,2,0,1,2,0,1,2,0,1,2,0,1,2,0,1,2,0,1,2,0,1,2,0,1,2,0,1,2,0,1,2,0,1,2,0,1,2,0,1,2,0,1,2,0,1,2,0,1,2,0,1,2,0,1,2,0,1,2,0,1,2,0,1,2,0,1,2,0,1,2,0,1,2,0,1,2,0,1,2,0,1,2,0,1,2,0,1,2,0,1,2,0,1,2,0,1,2,0,1,2,0,1,2,0,1,2,0,1,2,0,1,2,0,1,2,0,1,2,0,1,2,0,1,2,0,1,2,0,1,2,0,1,2,0,1,2,0,1,2,0,1,2,0,1,2,0,1,2,0,1,2,0,1,2,0,1,2,0,1,2,0,1,2,0,1,2,0,1,2,0,1,2,0,1,2,0,1,2,0,1,2,0,1,2,0,1,2,0,1,2,0,1,2,0,1,2,0,1,2,0,1,2,0,1,2,0,1,2,0,1,2,0,1,2,0,1,2,0,1,2,0,1,2,0,1,2,0,1,2,0,1,2,0,1,2,0,1,2,0,1,2,0,1,2,0,1,2,0,1,2,0,1,2,0,1,2,0,1,2,0,1,2,0,1,2,0,1,2,0,1,2,0,1,2,0,1,2,0,1,2,0,1,2,0,1,2,0,1,2,0,1,2,0,1,2,0,1,2,0,1,2,0,1,2,0,1,2,0,1,2,0,1,2,0,1,2,0,1,2,0,1,2,0,1,2,0,1,2,0,1,2,0,1,2,0,1,2,0,1,2,0,1,2,0,1,2,0,1,2,0,1,2,0,1,2,0,1,2,0,1,2,0,1,2,0,1,2,0,1,2,0,1,2,0,1,2,0,1,2,0,1,2,0,1,2,0,1,2,0,1,2,0,1,2,0,1,2,0,1,2,0,1,2,0,1,2,0,1,2,0,1,2,0,1,2,0,1,2,0,1,2,0,1,2,0,1,2,0,1,2,0,1,2,0,1,2,0,1,2,0,1,2,0,1,2,0,1,2,0,1,2,0,1,2,0,1,2,0,1,2,0,1,2,0,1,2,0,1,2,0,1,2,0,1,2,0,1,2,0,1,2,0,1,2,0,1,2,0,1,2,0,1,2,0,1,2,0,1,2,0,1,2,0,1,2,0,1,2,0,1,2,0,1,2,0,1,2,0,1,2,0,1,2,0,1,2,0,1,2,0,1,2,0,1,2,0,1,2,0,1,2,0,1,2,0,1,2,0,1,2,0,1,2,0,1,2,0,1,2,0,1,2,0,1,2,0,1,2,0,1,2,0,1,2,0,1,2,0,1,2,0,1,2,0,1,2,0,1,2,0,1,2,0,1,2,0,1,2,0,1,2],"trees":[{"base_weights":[8.137362E-3,4.3894777E-1,-1.3067442E-1,2.887388E-1,7.518944E-1,-1.05110835E-2,-3.5682842E-1,4.584008E-1,2.3998837E-1,6.2990534E-1,9.635815E-1,-1.06939964E-1,5.202015E-2,-2.5439638E-1,-4.47437E-1,4.4062492E-4,5.797449E-3,1.5979491E-3,3.3638822E-3,1.9823692E-3,7.6842895E-3,-0E0,1.1471583E-2,-1.0012842E-3,-2.7319486E-3,-2.9156206E-3,6.6975167E-4,-1.9246192E-3,-3.4442914E-3,-4.7503863E-3,-6.6526984E-3],"categories":[],"categories_nodes":[],"categories_segments":[],"categories_sizes":[],"default_left":[0,0,0,0,0,0,0,0,0,0,0,0,0,0,0,0,0,0,0,0,0,0,0,0,0,0,0,0,0,0,0],"id":0,"left_children":[1,3,5,7,9,11,13,15,17,19,21,23,25,27,29,-1,-1,-1,-1,-1,-1,-1,-1,-1,-1,-1,-1,-1,-1,-1,-1],"loss_changes":[4.4673636E2,8.290918E1,1.522037E2,8.41185E0,1.0857086E1,2.2378597E1,1.6250732E1,2.9225235E0,3.7540703E0,2.9047089E0,4.476364E0,3.1130562E0,3.137723E0,2.203251E0,2.464981E0,0E0,0E0,0E0,0E0,0E0,0E0,0E0,0E0,0E0,0E0,0E0,0E0,0E0,0E0,0E0,0E0],"parents":[2147483647,0,0,1,1,2,2,3,3,4,4,5,5,6,6,7,7,8,8,9,9,10,10,11,11,12,12,13,13,14,14],"right_children":[2,4,6,8,10,12,14,16,18,20,22,24,26,28,30,-1,-1,-1,-1,-1,-1,-1,-1,-1,-1,-1,-1,-1,-1,-1,-1],"split_conditions":[-5.022582E-1,1.3389043E0,5.6558454E-1,-1.0499376E0,2.000403E0,-1.1679781E-1,1.0272932E0,2.1615091E-1,7.167996E-2,-1.962379E-1,1.4193561E0,1E0,-4.9160105E-1,1.99528E-1,2.1010103E0,4.4062492E-4,5.797449E-3,1.5979491E-3,3.3638822E-3,1.9823692E-3,7.6842895E-3,-0E0,1.1471583E-2,-1.0012842E-3,-2.7319486E-3,-2.9156206E-3,6.6975167E-4,-1.9246192E-3,-3.4442914E-3,-4.7503863E-3,-6.6526984E-3],"split_indices":[33,10,33,33,10,10,9,11,11,19,11,4,33,9,33,0,0,0,0,0,0,0,0,0,0,0,0,0,0,0,0],"split_type":[0,0,0,0,0,0,0,0,0,0,0,0,0,0,0,0,0,0,0,0,0,0,0,0,0,0,0,0,0,0,0],"sum_hessian":[7.456557E3,1.821435E3,5.635122E3,1.2366135E3,5.8482153E2,3.687463E3,1.9476589E3,2.6375974E2,9.7285376E2,3.7941293E2,2.0540863E2,1.4665778E3,2.2208853E3,9.2795447E2,1.01970447E3,2.783348E1,2.3592624E2,3.2846906E2,6.443847E2,2.7826872E1,3.5158606E2,3.6594777E0,2.0174916E2,1.2758197E3,1.9075797E2,3.0499939E1,2.1903853E3,3.115424E2,6.1641205E2,7.854549E2,2.3424957E2],"tree_param":{"num_deleted":"0","num_feature":"36","num_nodes":"31","size_leaf_vector":"1"}},{"base_weights":[5.3299437E-3,-2.0813702E-1,3.060556E-2,-3.7357306E-1,-1.4441852E-1,-1.9546002E-1,6.010723E-2,-4.0492705E-1,-0E0,-1.6590886E-1,-0E0,-1.8222101E-2,-2.1741033E-1,8.1909284E-2,-2.0165898E-2,-0E0,-4.931501E-3,-0E0,-1.6766897E-3,-0E0,-2.1318875E-3,1.5643338E-3,-1.6205087E-3,-1.6920019E-3,9.908482E-4,-2.655123E-3,4.4636847E-5,1.0829846E-3,-0E0,-8.21326E-4,3.77439E-4],"categories":[],"categories_nodes":[],"categories_segments":[],"categories_sizes":[],"default_left":[0,0,0,0,0,0,0,0,0,0,0,0,0,0,0,0,0,0,0,0,0,0,0,0,0,0,0,0,0,0,0],"id":1,"left_children":[1,3,5,7,9,11,13,15,17,19,21,23,25,27,29,-1,-1,-1,-1,-1,-1,-1,-1,-1,-1,-1,-1,-1,-1,-1,-1],"loss_changes":[3.9972775E1,6.9080467E0,4.4409004E1,2.0778427E0,1.9775791E0,2.3707733E0,1.0564253E1,1.1654148E0,9.46167E-2,1.4829111E0,1.2698399E0,1.4325299E0,2.0859509E0,4.366274E0,3.384979E0,0E0,0E0,0E0,0E0,0E0,0E0,0E0,0E0,0E0,0E0,0E0,0E0,0E0,0E0,0E0,0E0],"parents":[2147483647,0,0,1,1,2,2,3,3,4,4,5,5,6,6,7,7,8,8,9,9,10,10,11,11,12,12,13,13,14,14],"right_children":[2,4,6,8,10,12,14,16,18,20,22,24,26,28,30,-1,-1,-1,-1,-1,-1,-1,-1,-1,-1,-1,-1,-1,-1,-1,-1],"split_conditions":[-1.1087539E0,-2.0015073E0,-1.3408561E0,8.776612E-1,9.364713E-1,1.2063568E0,5.535536E-1,1.17685765E-1,7.065252E-1,-1.5661104E0,6.672923E-2,-1.2049341E0,6.3667357E-1,1E0,-1.7673394E-1,-0E0,-4.931501E-3,-0E0,-1.6766897E-3,-0E0,-2.1318875E-3,1.5643338E-3,-1.6205087E-3,-1.6920019E-3,9.908482E-4,-2.655123E-3,4.4636847E-5,1.0829846E-3,-0E0,-8.21326E-4,3.77439E-4],"split_indices":[33,33,10,26,12,9,33,13,13,18,9,11,11,2,13,0,0,0,0,0,0,0,0,0,0,0,0,0,0,0,0],"split_type":[0,0,0,0,0,0,0,0,0,0,0,0,0,0,0,0,0,0,0,0,0,0,0,0,0,0,0,0,0,0,0],"sum_hessian":[7.4920825E3,7.822465E2,6.709836E3,2.0595453E2,5.76292E2,7.643578E2,5.945478E3,1.8792412E2,1.803041E1,5.0844052E2,6.785147E1,9.71347E1,6.672231E2,4.7006553E3,1.2448228E3,9.088132E0,1.7883598E2,1.3741499E1,4.288912E0,4.5255867E1,4.6318466E2,3.8681053E1,2.9170416E1,5.4639023E1,4.2495674E1,6.487371E2,1.848598E1,4.1638877E3,5.367679E2,6.6101196E2,5.838108E2],"tree_param":{"num_deleted":"0","num_feature":"36","num_nodes":"31","size_leaf_vector":"1"}},{"base_weights":[3.1797779E-3,-1.519623E-1,4.3149185E-1,-3.324716E-1,-3.5740517E-2,3.033686E-1,7.5152266E-1,-2.5586525E-1,-5.250211E-1,-1.172987E-1,3.6617536E-2,4.8012537E-1,2.6060456E-1,6.916883E-1,8.9543617E-1,-3.0340033E-3,-0E0,-0E0,-6.17373E-3,-9.2622713E-4,-2.4279323E-3,1.6964205E-4,2.4978288E-3,6.0313814E-3,-0E0,2.8366921E-3,8.041262E-3,8.2665775E-3,-0E0,1.0558323E-2,-0E0],"categories":[],"categories_nodes":[],"categories_segments":[],"categories_sizes":[],"default_left":[0,0,0,0,0,0,0,0,0,0,0,0,0,0,0,0,0,0,0,0,0,0,0,0,0,0,0,0,0,0,0],"id":2,"left_children":[1,3,5,7,9,11,13,15,17,19,21,23,25,27,29,-1,-1,-1,-1,-1,-1,-1,-1,-1,-1,-1,-1,-1,-1,-1,-1],"loss_changes":[4.968876E2,1.1395874E2,7.882626E1,2.947873E1,1.9923027E1,8.856384E0,6.079407E-1,1.9075317E0,1.6119537E0,4.723669E0,6.287095E0,5.301567E0,6.2226105E0,4.24704E0,2.3557281E-1,0E0,0E0,0E0,0E0,0E0,0E0,0E0,0E0,0E0,0E0,0E0,0E0,0E0,0E0,0E0,0E0],"parents":[2147483647,0,0,1,1,2,2,3,3,4,4,5,5,6,6,7,7,8,8,9,9,10,10,11,11,12,12,13,13,14,14],"right_children":[2,4,6,8,10,12,14,16,18,20,22,24,26,28,30,-1,-1,-1,-1,-1,-1,-1,-1,-1,-1,-1,-1,-1,-1,-1,-1],"split_conditions":[5.535536E-1,-3.8636017E-1,1.5757238E0,1.3389043E0,4.3008562E-2,-1.2739322E0,2.29873E0,1.8043102E0,3.8488436E-1,3.57912E-1,1E0,6.3667357E-1,2.3667145E0,1.5959456E-16,1.3440341E0,-3.0340033E-3,-0E0,-0E0,-6.17373E-3,-9.2622713E-4,-2.4279323E-3,1.6964205E-4,2.4978288E-3,6.0313814E-3,-0E0,2.8366921E-3,8.041262E-3,8.2665775E-3,-0E0,1.0558323E-2,-0E0],"split_indices":[33,33,33,35,33,35,33,12,11,12,2,11,18,24,19,0,0,0,0,0,0,0,0,0,0,0,0,0,0,0,0],"split_type":[0,0,0,0,0,0,0,0,0,0,0,0,0,0,0,0,0,0,0,0,0,0,0,0,0,0,0,0,0,0,0],"sum_hessian":[7.4663667E3,5.476791E3,1.9895759E3,2.136282E3,3.340509E3,1.4268853E3,5.626907E2,1.5382468E3,5.9803503E2,1.5869562E3,1.7535527E3,2.6573502E2,1.1611503E3,4.1118927E2,1.515014E2,1.5162666E3,2.1980206E1,3.9894214E0,5.940456E2,1.1403132E3,4.4664294E2,1.5727601E3,1.8079256E2,2.4883719E2,1.6897825E1,1.122094E3,3.9056213E1,4.0002264E2,1.1166635E1,1.4850171E2,2.9996898E0],"tree_param":{"num_deleted":"0","num_feature":"36","num_nodes":"31","size_leaf_vector":"1"}},{"base_weights":[-3.7853532E-3,4.1975075E-1,-1.3858831E-1,2.6524168E-1,7.488195E-1,-1.9403324E-2,-3.6624685E-1,1.57771E-1,3.299116E-1,6.1997145E-1,9.8036534E-1,-1.1343189E-1,4.1900117E-2,-2.9811558E-1,-4.8999482E-1,2.1299762E-3,-0E0,5.514762E-3,3.254478E-3,7.370335E-3,-0E0,4.851809E-3,1.229219E-2,2.2554297E-3,-1.4800427E-3,2.2489604E-4,1.1217906E-3,-2.195442E-3,-4.0062345E-3,-0E0,-5.7347068E-3],"categories":[],"categories_nodes":[],"categories_segments":[],"categories_sizes":[],"default_left":[0,0,0,0,0,0,0,0,0,0,0,0,0,0,0,0,0,0,0,0,0,0,0,0,0,0,0,0,0,0,0],"id":3,"left_children":[1,3,5,7,9,11,13,15,17,19,21,23,25,27,29,-1,-1,-1,-1,-1,-1,-1,-1,-1,-1,-1,-1,-1,-1,-1,-1],"loss_changes":[4.2751456E2,8.918826E1,1.5351471E2,7.319954E0,1.2785614E1,2.1772749E1,1.4376038E1,1.9598446E0,3.5335236E0,2.6154022E0,4.2855835E0,6.014038E0,2.4675322E0,4.96019E0,1.3294983E-1,0E0,0E0,0E0,0E0,0E0,0E0,0E0,0E0,0E0,0E0,0E0,0E0,0E0,0E0,0E0,0E0],"parents":[2147483647,0,0,1,1,2,2,3,3,4,4,5,5,6,6,7,7,8,8,9,9,10,10,11,11,12,12,13,13,14,14],"right_children":[2,4,6,8,10,12,14,16,18,20,22,24,26,28,30,-1,-1,-1,-1,-1,-1,-1,-1,-1,-1,-1,-1,-1,-1,-1,-1],"split_conditions":[-5.022582E-1,1.3389043E0,5.6558454E-1,2.4573955E-1,2.000403E0,-1.1679781E-1,1.4343117E0,1E0,-1.0499376E0,1.3976679E0,4.1210547E-1,-8.582133E-1,2.9562753E-1,3.0119085E-1,-2.382431E0,2.1299762E-3,-0E0,5.514762E-3,3.254478E-3,7.370335E-3,-0E0,4.851809E-3,1.229219E-2,2.2554297E-3,-1.4800427E-3,2.2489604E-4,1.1217906E-3,-2.195442E-3,-4.0062345E-3,-0E0,-5.7347068E-3],"split_indices":[33,35,33,21,35,35,33,28,33,26,13,9,35,9,21,0,0,0,0,0,0,0,0,0,0,0,0,0,0,0,0],"split_type":[0,0,0,0,0,0,0,0,0,0,0,0,0,0,0,0,0,0,0,0,0,0,0,0,0,0,0,0,0,0,0],"sum_hessian":[7.4999336E3,1.8060214E3,5.693912E3,1.2346215E3,5.713999E2,3.7449097E3,1.9490024E3,4.7906058E2,7.5556085E2,3.7489545E2,1.9650449E2,1.4943434E3,2.2505664E3,1.2709331E3,6.780694E2,4.1621317E2,6.284741E1,1.8447656E2,5.710843E2,3.6735886E2,7.536584E0,2.690054E1,1.6960394E2,5.4695244E1,1.4396482E3,1.6222129E3,6.2835345E2,3.8844333E2,8.824898E2,4.1619644E0,6.739074E2],"tree_param":{"num_deleted":"0","num_feature":"36","num_nodes":"31","size_leaf_vector":"1"}},{"base_weights":[-7.672711E-3,-2.1295077E-1,1.6201356E-2,-1.5083225E-1,-3.8133186E-1,4.5071777E-2,-1.9102103E-1,-8.633846E-2,-2.3395103E-1,-0E0,-4.0572062E-1,-1.0651485E-2,6.257684E-2,-2.0293425E-1,2.0170781E-1,-4.083341E-4,-2.297625E-3,-1.1288411E-3,-3.4831208E-3,2.0794543E-3,-0E0,-5.0417753E-3,-0E0,-9.98044E-4,1.8211614E-4,-8.395414E-5,9.56813E-4,-9.477099E-4,-2.695092E-3,5.199651E-3,-0E0],"categories":[],"categories_nodes":[],"categories_segments":[],"categories_sizes":[],"default_left":[0,0,0,0,0,0,0,0,0,0,0,0,0,0,0,0,0,0,0,0,0,0,0,0,0,0,0,0,0,0,0],"id":4,"left_children":[1,3,5,7,9,11,13,15,17,19,21,23,25,27,29,-1,-1,-1,-1,-1,-1,-1,-1,-1,-1,-1,-1,-1,-1,-1,-1],"loss_changes":[3.7070557E1,6.8694725E0,3.955087E1,2.324603E0,2.5646896E0,5.856982E0,3.7823277E0,1.3848145E0,1.102848E0,1.8068628E-1,1.3386555E0,2.8716576E0,6.302988E0,1.8942337E0,1.4274272E0,0E0,0E0,0E0,0E0,0E0,0E0,0E0,0E0,0E0,0E0,0E0,0E0,0E0,0E0,0E0,0E0],"parents":[2147483647,0,0,1,1,2,2,3,3,4,4,5,5,6,6,7,7,8,8,9,9,10,10,11,11,12,12,13,13,14,14],"right_children":[2,4,6,8,10,12,14,16,18,20,22,24,26,28,30,-1,-1,-1,-1,-1,-1,-1,-1,-1,-1,-1,-1,-1,-1,-1,-1],"split_conditions":[-1.1087539E0,2.000403E0,1.2738109E0,-1.6235192E-1,1.6184205E0,-4.769115E-1,6.7434376E-1,5.687623E-1,2.4383979E-1,1.0046215E0,6.1773705E-1,-8.232986E-1,-8.8991666E-1,1.3729161E0,9.0395635E-1,-4.083341E-4,-2.297625E-3,-1.1288411E-3,-3.4831208E-3,2.0794543E-3,-0E0,-5.0417753E-3,-0E0,-9.98044E-4,1.8211614E-4,-8.395414E-5,9.56813E-4,-9.477099E-4,-2.695092E-3,5.199651E-3,-0E0],"split_indices":[33,10,33,26,11,10,11,8,19,17,20,16,14,9,19,0,0,0,0,0,0,0,0,0,0,0,0,0,0,0,0],"split_type":[0,0,0,0,0,0,0,0,0,0,0,0,0,0,0,0,0,0,0,0,0,0,0,0,0,0,0,0,0,0,0],"sum_hessian":[7.460941E3,7.882403E2,6.6727E3,5.873139E2,2.0092638E2,5.8677705E3,8.049301E2,3.4837405E2,2.3893983E2,7.883475E0,1.9304291E2,1.3677639E3,4.5000063E3,7.8769055E2,1.7239595E1,2.5404623E2,9.432782E1,8.9489426E1,1.4945041E2,5.394724E0,2.488751E0,1.7716978E2,1.5873113E1,3.801567E2,9.876072E2,9.527975E2,3.5472087E3,1.6527696E2,6.224136E2,1.0480521E1,6.759074E0],"tree_param":{"num_deleted":"0","num_feature":"36","num_nodes":"31","size_leaf_vector":"1"}},{"base_weights":[-2.613728E-4,-1.7033318E-1,4.271383E-1,-3.3749184E-1,-5.8467757E-2,2.890011E-1,6.879496E-1,-2.776032E-1,-4.9552354E-1,-1.2906948E-1,9.0692565E-3,2.7657342E-1,6.6976863E-1,5.319393E-1,7.695661E-1,-3.360138E-3,-6.7270646E-4,-0E0,-5.819912E-3,-1.1848912E-3,-2.577149E-3,5.589454E-4,-9.288967E-4,3.4593823E-3,1.7611297E-3,9.252521E-3,-0E0,7.2734114E-3,4.56465E-3,9.041161E-3,-0E0],"categories":[],"categories_nodes":[],"categories_segments":[],"categories_sizes":[],"default_left":[0,0,0,0,0,0,0,0,0,0,0,0,0,0,0,0,0,0,0,0,0,0,0,0,0,0,0,0,0,0,0],"id":5,"left_children":[1,3,5,7,9,11,13,15,17,19,21,23,25,27,29,-1,-1,-1,-1,-1,-1,-1,-1,-1,-1,-1,-1,-1,-1,-1,-1],"loss_changes":[5.4274384E2,9.906029E1,7.395517E1,1.8202484E1,1.564119E1,4.1276855E0,5.8304443E0,2.7174835E0,5.3463745E-1,3.1847992E0,5.522622E0,2.259735E0,2.0525227E0,7.0918274E-1,7.602539E-1,0E0,0E0,0E0,0E0,0E0,0E0,0E0,0E0,0E0,0E0,0E0,0E0,0E0,0E0,0E0,0E0],"parents":[2147483647,0,0,1,1,2,2,3,3,4,4,5,5,6,6,7,7,8,8,9,9,10,10,11,11,12,12,13,13,14,14],"right_children":[2,4,6,8,10,12,14,16,18,20,22,24,26,28,30,-1,-1,-1,-1,-1,-1,-1,-1,-1,-1,-1,-1,-1,-1,-1,-1],"split_conditions":[4.9950972E-1,-3.8636017E-1,1.3700138E0,1.3389043E0,4.3008562E-2,2.5852046E0,1.7004731E0,1E0,-7.655734E-1,1E0,1E0,1E0,1.267847E0,1E0,1E0,-3.360138E-3,-6.7270646E-4,-0E0,-5.819912E-3,-1.1848912E-3,-2.577149E-3,5.589454E-4,-9.288967E-4,3.4593823E-3,1.7611297E-3,9.252521E-3,-0E0,7.2734114E-3,4.56465E-3,9.041161E-3,-0E0],"split_indices":[33,33,33,10,33,18,33,1,13,27,31,27,16,31,0,0,0,0,0,0,0,0,0,0,0,0,0,0,0,0,0],"split_type":[0,0,0,0,0,0,0,0,0,0,0,0,0,0,0,0,0,0,0,0,0,0,0,0,0,0,0,0,0,0,0],"sum_hessian":[7.475156E3,5.35174E3,2.1234158E3,2.1361985E3,3.2155417E3,1.394988E3,7.2842773E2,1.5614497E3,5.7474884E2,1.5904943E3,1.6250474E3,1.3578872E3,3.710082E1,2.6170312E2,4.6672458E2,1.4790958E3,8.2353874E1,5.8627234E0,5.688861E2,1.2463395E3,3.4415485E2,1.150234E3,4.7481335E2,1.1530853E3,2.0480194E2,2.9622076E1,7.4787426E0,1.4676108E2,1.14942055E2,4.612171E2,5.507471E0],"tree_param":{"num_deleted":"0","num_feature":"36","num_nodes":"31","size_leaf_vector":"1"}},{"base_weights":[8.626259E-4,4.2309746E-1,-1.3309334E-1,2.8404772E-1,7.08411E-1,-2.3617446E-2,-3.4312725E-1,4.171949E-1,2.2678147E-1,9.051212E-1,5.9469336E-1,-1.2449273E-1,4.1821018E-2,-2.871873E-1,-5.046027E-1,4.2147064E-3,8.234384E-3,1.6854333E-3,3.3222898E-3,-0E0,1.0849829E-2,4.5019826E-3,7.601659E-3,3.3909425E-3,-1.5606972E-3,2.8034605E-4,2.0514408E-3,-2.8325708E-3,-4.1571767E-3,-0E0,-5.9316144E-3],"categories":[],"categories_nodes":[],"categories_segments":[],"categories_sizes":[],"default_left":[0,0,0,0,0,0,0,0,0,0,0,0,0,0,0,0,0,0,0,0,0,0,0,0,0,0,0,0,0,0,0],"id":6,"left_children":[1,3,5,7,9,11,13,15,17,19,21,23,25,27,29,-1,-1,-1,-1,-1,-1,-1,-1,-1,-1,-1,-1,-1,-1,-1,-1],"loss_changes":[4.184282E2,6.814603E1,1.2785929E2,7.5159607E0,8.937958E0,2.4574915E1,1.5196564E1,2.8176117E0,2.9840622E0,4.088211E0,1.7441711E0,5.2920628E0,4.788255E0,2.8366318E0,7.89711E-1,0E0,0E0,0E0,0E0,0E0,0E0,0E0,0E0,0E0,0E0,0E0,0E0,0E0,0E0,0E0,0E0],"parents":[2147483647,0,0,1,1,2,2,3,3,4,4,5,5,6,6,7,7,8,8,9,9,10,10,11,11,12,12,13,13,14,14],"right_children":[2,4,6,8,10,12,14,16,18,20,22,24,26,28,30,-1,-1,-1,-1,-1,-1,-1,-1,-1,-1,-1,-1,-1,-1,-1,-1],"split_conditions":[-5.022582E-1,1.3389043E0,5.6558454E-1,-9.744663E-1,-2.0015073E0,-1.1679781E-1,1.6570181E0,1E0,2.4383979E-1,-4.0506944E-1,4.6387863E-1,-1.5661104E0,1E0,1.0673652E0,-2.3966265E0,4.2147064E-3,8.234384E-3,1.6854333E-3,3.3222898E-3,-0E0,1.0849829E-2,4.5019826E-3,7.601659E-3,3.3909425E-3,-1.5606972E-3,2.8034605E-4,2.0514408E-3,-2.8325708E-3,-4.1571767E-3,-0E0,-5.9316144E-3],"split_indices":[33,35,33,33,33,35,33,3,19,16,19,18,0,33,19,0,0,0,0,0,0,0,0,0,0,0,0,0,0,0,0],"split_type":[0,0,0,0,0,0,0,0,0,0,0,0,0,0,0,0,0,0,0,0,0,0,0,0,0,0,0,0,0,0,0],"sum_hessian":[7.3841426E3,1.7828862E3,5.6012563E3,1.2051107E3,5.777756E2,3.6902776E3,1.9109785E3,3.4844974E2,8.5666095E2,2.0267474E2,3.7510083E2,1.4672727E3,2.223005E3,1.4316575E3,4.793211E2,2.9998685E2,4.8462906E1,3.731502E2,4.8351074E2,6.108389E0,1.9656635E2,9.0681175E1,2.8441965E2,2.6007517E1,1.4412653E3,1.9798247E3,2.4318022E2,8.963447E2,5.353127E2,4.43539E0,4.748857E2],"tree_param":{"num_deleted":"0","num_feature":"36","num_nodes":"31","size_leaf_vector":"1"}},{"base_weights":[5.8560553E-3,-2.3784162E-1,3.3073798E-2,-2.7202987E-3,-2.6703048E-1,-1.9413841E-1,6.352124E-2,-2.1446255E-1,5.350201E-2,-3.0642778E-1,-1.5665844E-1,-3.6453262E-1,-1.3048433E-1,8.264067E-2,-0E0,-4.450627E-3,-0E0,-6.1795145E-5,2.595256E-3,-3.6877403E-3,-0E0,-3.3069067E-3,-0E0,-0E0,-4.70317E-3,-9.260182E-4,-2.2733274E-3,7.908588E-4,1.6905821E-3,-8.188805E-4,8.824512E-4],"categories":[],"categories_nodes":[],"categories_segments":[],"categories_sizes":[],"default_left":[0,0,0,0,0,0,0,0,0,0,0,0,0,0,0,0,0,0,0,0,0,0,0,0,0,0,0,0,0,0,0],"id":7,"left_children":[1,3,5,7,9,11,13,15,17,19,21,23,25,27,29,-1,-1,-1,-1,-1,-1,-1,-1,-1,-1,-1,-1,-1,-1,-1,-1],"loss_changes":[4.9207096E1,4.4143295E0,4.6392097E1,1.5117376E0,1.6363449E0,7.2690563E0,7.419876E0,1.2787153E0,1.1869314E0,1.2215958E0,3.5234795E0,1.977251E0,1.2200937E0,3.714199E0,7.1883335E0,0E0,0E0,0E0,0E0,0E0,0E0,0E0,0E0,0E0,0E0,0E0,0E0,0E0,0E0,0E0,0E0],"parents":[2147483647,0,0,1,1,2,2,3,3,4,4,5,5,6,6,7,7,8,8,9,9,10,10,11,11,12,12,13,13,14,14],"right_children":[2,4,6,8,10,12,14,16,18,20,22,24,26,28,30,-1,-1,-1,-1,-1,-1,-1,-1,-1,-1,-1,-1,-1,-1,-1,-1],"split_conditions":[-1.3408561E0,1.2063568E0,-1.1087539E0,8.2056844E-1,5.687623E-1,-2.0015073E0,5.089761E-1,-8.563544E-1,-4.0506944E-1,1.5959456E-16,1E0,4.1210547E-1,-1.6235192E-1,6.187923E-1,-1.7673394E-1,-4.450627E-3,-0E0,-6.1795145E-5,2.595256E-3,-3.6877403E-3,-0E0,-3.3069067E-3,-0E0,-0E0,-4.70317E-3,-9.260182E-4,-2.2733274E-3,7.908588E-4,1.6905821E-3,-8.188805E-4,8.824512E-4],"split_indices":[10,9,33,9,8,33,33,19,16,24,5,13,26,18,13,0,0,0,0,0,0,0,0,0,0,0,0,0,0,0,0],"split_type":[0,0,0,0,0,0,0,0,0,0,0,0,0,0,0,0,0,0,0,0,0,0,0,0,0,0,0,0,0,0,0],"sum_hessian":[7.4969946E3,7.4352277E2,6.7534717E3,9.182538E1,6.516974E2,7.8793896E2,5.9655327E3,2.8643631E1,6.3181744E1,4.6280438E2,1.88893E2,2.0299213E2,5.8494684E2,4.6108467E3,1.354686E3,1.763015E1,1.1013481E1,3.585163E1,2.7330114E1,4.4685666E2,1.59477215E1,1.012883E2,8.76047E1,2.5010311E1,1.7798181E2,3.487802E2,2.3616666E2,3.7580735E3,8.527733E2,7.171335E2,6.3755255E2],"tree_param":{"num_deleted":"0","num_feature":"36","num_nodes":"31","size_leaf_vector":"1"}},{"base_weights":[1.0075531E-3,-1.6690506E-1,3.7898216E-1,-4.4232395E-2,-3.3282024E-1,6.423156E-1,2.2612217E-1,-1.1238764E-1,2.8360447E-2,-2.3581415E-1,-4.6372825E-1,6.6089624E-1,-0E0,1.785493E-1,3.632279E-1,-4.078341E-4,-1.6983874E-3,7.874353E-5,2.2508828E-3,-2.82751E-3,-0E0,-0E0,-5.667054E-3,6.284949E-3,8.949784E-3,-2.3886298E-3,1.2714692E-4,3.0172444E-3,1.5597744E-3,4.8498963E-3,9.06534E-4],"categories":[],"categories_nodes":[],"categories_segments":[],"categories_sizes":[],"default_left":[0,0,0,0,0,0,0,0,0,0,0,0,0,0,0,0,0,0,0,0,0,0,0,0,0,0,0,0,0,0,0],"id":8,"left_children":[1,3,5,7,9,11,13,15,17,19,21,23,25,27,29,-1,-1,-1,-1,-1,-1,-1,-1,-1,-1,-1,-1,-1,-1,-1,-1],"loss_changes":[4.7198904E2,1.0361958E2,8.989908E1,1.4878199E1,2.5804031E1,1.1131805E1,8.086998E0,3.5162754E0,4.5299664E0,2.4105606E0,8.353729E0,7.1111145E0,3.9126748E-1,2.9182854E0,4.14637E0,0E0,0E0,0E0,0E0,0E0,0E0,0E0,0E0,0E0,0E0,0E0,0E0,0E0,0E0,0E0,0E0],"parents":[2147483647,0,0,1,1,2,2,3,3,4,4,5,5,6,6,7,7,8,8,9,9,10,10,11,11,12,12,13,13,14,14],"right_children":[2,4,6,8,10,12,14,16,18,20,22,24,26,28,30,-1,-1,-1,-1,-1,-1,-1,-1,-1,-1,-1,-1,-1,-1,-1,-1],"split_conditions":[4.352691E-1,3.6775354E-1,-1.2739322E0,4.3008562E-2,9.744663E-1,6.3667357E-1,-2.2531648E-1,-4.7981006E-1,1E0,1.5959456E-16,2.1615091E-1,1.9546995E0,1.4874241E0,-7.655734E-1,8.1842846E-1,-4.078341E-4,-1.6983874E-3,7.874353E-5,2.2508828E-3,-2.82751E-3,-0E0,-0E0,-5.667054E-3,6.284949E-3,8.949784E-3,-2.3886298E-3,1.2714692E-4,3.0172444E-3,1.5597744E-3,4.8498963E-3,9.06534E-4],"split_indices":[33,10,10,33,10,11,11,14,2,24,11,9,20,13,11,0,0,0,0,0,0,0,0,0,0,0,0,0,0,0,0],"split_type":[0,0,0,0,0,0,0,0,0,0,0,0,0,0,0,0,0,0,0,0,0,0,0,0,0,0,0,0,0,0,0],"sum_hessian":[7.427671E3,5.1383755E3,2.2892957E3,2.9632358E3,2.1751396E3,8.3432745E2,1.4549681E3,1.546428E3,1.4168077E3,1.2610358E3,9.1410394E2,8.135439E2,2.0783587E1,1.0945194E3,3.6044873E2,4.877761E2,1.0586519E3,1.2664274E3,1.5038048E2,1.2340822E3,2.6953548E1,4.6178802E1,8.679251E2,3.9112906E2,4.2241483E2,9.004726E0,1.1778859E1,3.71509E2,7.230104E2,2.9668216E2,6.3766556E1],"tree_param":{"num_deleted":"0","num_feature":"36","num_nodes":"31","size_leaf_vector":"1"}},{"base_weights":[-0E0,-1.3717335E-1,4.231826E-1,-3.5342777E-1,-1.9737665E-2,2.7840784E-1,7.084266E-1,-4.8327917E-1,-2.9338005E-1,-1.2318429E-1,4.656739E-2,1.1755774E-1,3.3810368E-1,6.065729E-1,8.7769586E-1,-5.6613116E-3,-0E0,-2.283378E-3,-3.8337912E-3,-0E0,-1.6933745E-3,2.405211E-4,1.2859728E-3,2.6290608E-3,6.616483E-5,2.6698795E-3,4.4679595E-3,6.327097E-3,9.714449E-3,-0E0,1.0474686E-2],"categories":[],"categories_nodes":[],"categories_segments":[],"categories_sizes":[],"default_left":[0,0,0,0,0,0,0,0,0,0,0,0,0,0,0,0,0,0,0,0,0,0,0,0,0,0,0,0,0,0,0],"id":9,"left_children":[1,3,5,7,9,11,13,15,17,19,21,23,25,27,29,-1,-1,-1,-1,-1,-1,-1,-1,-1,-1,-1,-1,-1,-1,-1,-1],"loss_changes":[4.3143234E2,1.4177124E2,7.251929E1,1.3334061E1,2.5234476E1,1.0467659E1,6.498596E0,4.1461182E-1,3.334732E0,3.6034622E0,3.3158321E0,3.515242E0,2.69561E0,1.9894257E0,3.9185638E0,0E0,0E0,0E0,0E0,0E0,0E0,0E0,0E0,0E0,0E0,0E0,0E0,0E0,0E0,0E0,0E0],"parents":[2147483647,0,0,1,1,2,2,3,3,4,4,5,5,6,6,7,7,8,8,9,9,10,10,11,11,12,12,13,13,14,14],"right_children":[2,4,6,8,10,12,14,16,18,20,22,24,26,28,30,-1,-1,-1,-1,-1,-1,-1,-1,-1,-1,-1,-1,-1,-1,-1,-1],"split_conditions":[5.020926E-1,-5.541353E-1,1.3389043E0,-1.503763E0,-1.1679781E-1,7.167996E-2,2.000403E0,2.0041506E0,2.684598E-1,-9.841929E-1,2.9562753E-1,1.013046E-1,2.4383979E-1,2.1043053E0,-4.0506944E-1,-5.6613116E-3,-0E0,-2.283378E-3,-3.8337912E-3,-0E0,-1.6933745E-3,2.405211E-4,1.2859728E-3,2.6290608E-3,6.616483E-5,2.6698795E-3,4.4679595E-3,6.327097E-3,9.714449E-3,-0E0,1.0474686E-2],"split_indices":[10,10,10,10,10,11,10,19,9,11,10,17,19,16,16,0,0,0,0,0,0,0,0,0,0,0,0,0,0,0,0],"split_type":[0,0,0,0,0,0,0,0,0,0,0,0,0,0,0,0,0,0,0,0,0,0,0,0,0,0,0,0,0,0,0],"sum_hessian":[7.438125E3,5.619813E3,1.8183124E3,1.969911E3,3.6499019E3,1.2124685E3,6.058439E2,6.0878485E2,1.3611262E3,1.4406283E3,2.2092734E3,3.4001608E2,8.724524E2,3.8850876E2,2.1733513E2,6.052029E2,3.581912E0,3.8156488E2,9.795613E2,2.3279935E2,1.207829E3,1.5986497E3,6.106238E2,1.613265E2,1.7868956E2,2.7169745E2,6.0075494E2,3.12373E2,7.613578E1,4.927862E0,2.1240726E2],"tree_param":{"num_deleted":"0","num_feature":"36","num_nodes":"31","size_leaf_vector":"1"}},{"base_weights":[-5.1898154E-4,-2.1871254E-1,2.3672668E-2,-9.7397916E-2,-2.5883266E-1,-2.068899E-1,5.418274E-2,-0E0,-1.6306514E-1,-2.6731932E-1,-0E0,-3.7076294E-1,-1.4589275E-1,-2.026639E-2,7.8376435E-2,1.8642725E-3,-1.3086273E-3,-2.3160672E-3,-0E0,-3.176459E-3,-0E0,-0E0,1.9792283E-3,-0E0,-5.0594173E-3,-0E0,-1.9106482E-3,-7.594826E-4,3.1604563E-4,-2.0485986E-3,1.0066913E-3],"categories":[],"categories_nodes":[],"categories_segments":[],"categories_sizes":[],"default_left":[0,0,0,0,0,0,0,0,0,0,0,0,0,0,0,0,0,0,0,0,0,0,0,0,0,0,0,0,0,0,0],"id":10,"left_children":[1,3,5,7,9,11,13,15,17,19,21,23,25,27,29,-1,-1,-1,-1,-1,-1,-1,-1,-1,-1,-1,-1,-1,-1,-1,-1],"loss_changes":[3.970428E1,2.7406807E0,4.6571537E1,1.6614071E0,1.6336823E0,6.3631363E0,1.0786018E1,1.3393781E0,1.2608097E0,1.0927849E0,2.4521409E-1,4.5222263E0,1.792696E0,3.1202493E0,8.817244E0,0E0,0E0,0E0,0E0,0E0,0E0,0E0,0E0,0E0,0E0,0E0,0E0,0E0,0E0,0E0,0E0],"parents":[2147483647,0,0,1,1,2,2,3,3,4,4,5,5,6,6,7,7,8,8,9,9,10,10,11,11,12,12,13,13,14,14],"right_children":[2,4,6,8,10,12,14,16,18,20,22,24,26,28,30,-1,-1,-1,-1,-1,-1,-1,-1,-1,-1,-1,-1,-1,-1,-1,-1],"split_conditions":[-1.3408561E0,1.5757238E0,-1.1087539E0,-6.886132E-1,1.3801548E0,-2.0015073E0,-4.769115E-1,7.505097E-1,6.568938E-1,6.1473703E-1,1E0,4.6387863E-1,-1.962379E-1,-1.9980101E-1,-1.7344497E0,1.8642725E-3,-1.3086273E-3,-2.3160672E-3,-0E0,-3.176459E-3,-0E0,-0E0,1.9792283E-3,-0E0,-5.0594173E-3,-0E0,-1.9106482E-3,-7.594826E-4,3.1604563E-4,-2.0485986E-3,1.0066913E-3],"split_indices":[10,33,33,11,25,33,10,14,11,11,5,19,19,17,15,0,0,0,0,0,0,0,0,0,0,0,0,0,0,0,0],"split_type":[0,0,0,0,0,0,0,0,0,0,0,0,0,0,0,0,0,0,0,0,0,0,0,0,0,0,0,0,0,0,0],"sum_hessian":[7.426828E3,7.5157056E2,6.675258E3,2.028773E2,5.4869324E2,7.7010376E2,5.905154E3,6.820273E1,1.3467458E2,5.3725073E2,1.1442509E1,1.9711818E2,5.729856E2,1.4224047E3,4.482749E3,3.623864E1,3.1964087E1,1.2268376E2,1.1990805E1,5.322848E2,4.965988E0,3.2169504E0,8.225558E0,2.9176126E1,1.6794205E2,5.182349E1,5.211621E2,7.582615E2,6.641431E2,1.2590523E2,4.356844E3],"tree_param":{"num_deleted":"0","num_feature":"36","num_nodes":"31","size_leaf_vector":"1"}},{"base_weights":[-8.1936165E-4,4.0041947E-1,-1.6247526E-1,2.5762257E-1,6.699185E-1,-5.974068E-2,-3.7140575E-1,1.2929115E-1,2.9389283E-1,6.829433E-1,-0E0,-1.3478714E-1,3.149985E-2,-3.01253E-1,-5.015868E-1,2.135974E-3,-0E0,-0E0,3.5372318E-3,6.358107E-3,9.152261E-3,3.47522E-5,-1.4805816E-4,-4.3329535E-4,-1.9080248E-3,1.7239632E-4,1.8721861E-3,-2.6526288E-3,-4.1561252E-3,-0E0,-5.8977874E-3],"categories":[],"categories_nodes":[],"categories_segments":[],"categories_sizes":[],"default_left":[0,0,0,0,0,0,0,0,0,0,0,0,0,0,0,0,0,0,0,0,0,0,0,0,0,0,0,0,0,0,0],"id":11,"left_children":[1,3,5,7,9,11,13,15,17,19,21,23,25,27,29,-1,-1,-1,-1,-1,-1,-1,-1,-1,-1,-1,-1,-1,-1,-1,-1],"loss_changes":[4.806268E2,7.9400055E1,1.12504105E2,5.4062576E0,6.3970947E0,2.4620571E1,1.3760986E1,2.708085E0,3.4337845E0,6.5177917E0,9.355857E-4,5.0179405E0,2.980741E0,3.1271973E0,1.3598938E0,0E0,0E0,0E0,0E0,0E0,0E0,0E0,0E0,0E0,0E0,0E0,0E0,0E0,0E0,0E0,0E0],"parents":[2147483647,0,0,1,1,2,2,3,3,4,4,5,5,6,6,7,7,8,8,9,9,10,10,11,11,12,12,13,13,14,14],"right_children":[2,4,6,8,10,12,14,16,18,20,22,24,26,28,30,-1,-1,-1,-1,-1,-1,-1,-1,-1,-1,-1,-1,-1,-1,-1,-1],"split_conditions":[-4.9954578E-1,1.3700138E0,5.2583367E-1,5.4511808E-2,6.3667357E-1,4.3008562E-2,1.3389043E0,1.3159653E-2,-1.2828438E0,1.9546995E0,1.9297339E0,-8.8991666E-1,1E0,4.0397665E-1,3.8488436E-1,2.135974E-3,-0E0,-0E0,3.5372318E-3,6.358107E-3,9.152261E-3,3.47522E-5,-1.4805816E-4,-4.3329535E-4,-1.9080248E-3,1.7239632E-4,1.8721861E-3,-2.6526288E-3,-4.1561252E-3,-0E0,-5.8977874E-3],"split_indices":[10,33,10,9,11,33,10,16,11,9,18,14,2,11,11,0,0,0,0,0,0,0,0,0,0,0,0,0,0,0,0],"split_type":[0,0,0,0,0,0,0,0,0,0,0,0,0,0,0,0,0,0,0,0,0,0,0,0,0,0,0,0,0,0,0],"sum_hessian":[7.4187266E3,2.1258918E3,5.2928345E3,1.3961737E3,7.297181E2,3.5566091E3,1.7362256E3,3.2348416E2,1.0726896E3,7.158544E2,1.3863699E1,1.9667979E3,1.5898112E3,1.1416296E3,5.94596E2,2.4181104E2,8.167313E1,2.8127172E1,1.0445624E3,3.1560953E2,4.0024484E2,8.8509445E0,5.0127544E0,4.6852045E2,1.4982775E3,1.4252844E3,1.645267E2,5.0845157E2,6.3317804E2,4.292821E0,5.9030316E2],"tree_param":{"num_deleted":"0","num_feature":"36","num_nodes":"31","size_leaf_vector":"1"}},{"base_weights":[4.7829943E-3,-1.1754559E-1,4.5037928E-1,-3.3013725E-1,-5.5835876E-3,2.923934E-1,7.0833254E-1,-1.3679667E-1,-3.7621653E-1,-1.1426318E-1,5.6080177E-2,3.262433E-1,1.6249569E-1,4.2910424E-1,7.807478E-1,-1.9684897E-3,-0E0,-3.7872414E-3,-5.7682837E-3,1.9867609E-3,-1.4855014E-3,5.773303E-4,4.027336E-3,3.8814943E-3,-0E0,3.5767206E-3,4.991714E-4,5.5002177E-4,5.871804E-3,1.0866254E-2,7.863583E-3],"categories":[],"categories_nodes":[],"categories_segments":[],"categories_sizes":[],"default_left":[0,0,0,0,0,0,0,0,0,0,0,0,0,0,0,0,0,0,0,0,0,0,0,0,0,0,0,0,0,0,0],"id":12,"left_children":[1,3,5,7,9,11,13,15,17,19,21,23,25,27,29,-1,-1,-1,-1,-1,-1,-1,-1,-1,-1,-1,-1,-1,-1,-1,-1],"loss_changes":[4.0591235E2,1.3781073E2,6.2793213E1,1.6507462E1,2.5779839E1,3.1404343E0,9.006958E0,1.4987698E0,7.6441345E0,5.1169586E0,3.5993166E0,2.0931778E0,2.9566169E0,2.3377056E0,3.288971E0,0E0,0E0,0E0,0E0,0E0,0E0,0E0,0E0,0E0,0E0,0E0,0E0,0E0,0E0,0E0,0E0],"parents":[2147483647,0,0,1,1,2,2,3,3,4,4,5,5,6,6,7,7,8,8,9,9,10,10,11,11,12,12,13,13,14,14],"right_children":[2,4,6,8,10,12,14,16,18,20,22,24,26,28,30,-1,-1,-1,-1,-1,-1,-1,-1,-1,-1,-1,-1,-1,-1,-1,-1],"split_conditions":[6.043725E-1,-5.303795E-1,1.3389043E0,2.4030612E-1,-1.1679781E-1,8.776612E-1,4.6387863E-1,8.5131E-1,1.6570181E0,-8.582133E-1,2.0041506E0,1.5031401E0,-6.921493E-1,1.088699E0,-2.0015073E0,-1.9684897E-3,-0E0,-3.7872414E-3,-5.7682837E-3,1.9867609E-3,-1.4855014E-3,5.773303E-4,4.027336E-3,3.8814943E-3,-0E0,3.5767206E-3,4.991714E-4,5.5002177E-4,5.871804E-3,1.0866254E-2,7.863583E-3],"split_indices":[35,35,35,9,35,26,19,33,33,9,19,9,18,11,33,0,0,0,0,0,0,0,0,0,0,0,0,0,0,0,0],"split_type":[0,0,0,0,0,0,0,0,0,0,0,0,0,0,0,0,0,0,0,0,0,0,0,0,0,0,0,0,0,0,0],"sum_hessian":[7.430489E3,5.8256553E3,1.6048336E3,2.0016115E3,3.8240437E3,1.0018046E3,6.0302905E2,3.96142E2,1.6054695E3,1.3992228E3,2.424821E3,7.787396E2,2.23065E2,1.3187238E2,4.7115668E2,3.127368E2,8.34052E1,1.1346064E3,4.70863E2,5.285259E1,1.3463702E3,2.3798745E3,4.4946514E1,7.672114E2,1.1528192E1,9.128282E1,1.3178218E2,2.717343E1,1.04698944E2,1.840511E2,2.871056E2],"tree_param":{"num_deleted":"0","num_feature":"36","num_nodes":"31","size_leaf_vector":"1"}},{"base_weights":[-1.195402E-3,-1.9741908E-1,2.0609329E-2,-1.5316856E-1,-3.343674E-1,-1.9430894E-1,4.92836E-2,2.849331E-1,-1.6902153E-1,-4.6255877E-3,-5.594175E-2,-3.3654723E-1,-1.3826306E-1,-1.0444539E-2,6.874446E-2,-0E0,4.6377974E-3,-2.563543E-3,-8.459127E-4,-2.9810797E-3,3.011634E-3,-0E0,-4.3952973E-3,-8.533739E-4,-2.6038075E-3,-7.422771E-4,5.2295346E-4,5.0859316E-4,1.3029686E-3],"categories":[],"categories_nodes":[],"categories_segments":[],"categories_sizes":[],"default_left":[0,0,0,0,0,0,0,0,0,0,0,0,0,0,0,0,0,0,0,0,0,0,0,0,0,0,0,0,0],"id":13,"left_children":[1,3,5,7,9,11,13,15,17,-1,19,21,23,25,27,-1,-1,-1,-1,-1,-1,-1,-1,-1,-1,-1,-1,-1,-1],"loss_changes":[3.23109E1,3.3216038E0,4.0857338E1,3.789568E0,1.7878246E0,4.9659863E0,7.0222883E0,5.671289E-1,2.048643E0,0E0,2.4569223E0,2.3182888E0,2.3946753E0,4.2283506E0,4.45376E0,0E0,0E0,0E0,0E0,0E0,0E0,0E0,0E0,0E0,0E0,0E0,0E0,0E0,0E0],"parents":[2147483647,0,0,1,1,2,2,3,3,4,4,5,5,6,6,7,7,8,8,10,10,11,11,12,12,13,13,14,14],"right_children":[2,4,6,8,10,12,14,16,18,-1,20,22,24,26,28,-1,-1,-1,-1,-1,-1,-1,-1,-1,-1,-1,-1,-1,-1],"split_conditions":[-1.3408561E0,2.233841E0,-1.1087539E0,-1.7053291E0,5.687623E-1,-2.0015073E0,-4.769115E-1,9.9579436E-1,-1.7578265E-1,-4.6255877E-3,1E0,4.024102E-1,-1.6235192E-1,-1.9980101E-1,1.8289353E-1,-0E0,4.6377974E-3,-2.563543E-3,-8.459127E-4,-2.9810797E-3,3.011634E-3,-0E0,-4.3952973E-3,-8.533739E-4,-2.6038075E-3,-7.422771E-4,5.2295346E-4,5.0859316E-4,1.3029686E-3],"split_indices":[10,33,33,17,8,33,10,9,25,0,29,17,26,17,20,0,0,0,0,0,0,0,0,0,0,0,0,0,0],"split_type":[0,0,0,0,0,0,0,0,0,0,0,0,0,0,0,0,0,0,0,0,0,0,0,0,0,0,0,0,0],"sum_hessian":[7.4454434E3,7.5611115E2,6.6893325E3,5.860447E2,1.7006651E2,7.767285E2,5.912604E3,1.4658251E1,5.713864E2,1.3138435E2,3.868215E1,2.0623311E2,5.704954E2,1.4207576E3,4.491846E3,3.6865387E0,1.0971712E1,3.567491E2,2.146373E2,2.8663528E1,1.0018622E1,2.5498669E1,1.8073444E2,3.4042047E2,2.3007497E2,7.47587E2,6.731706E2,2.872053E3,1.6197932E3],"tree_param":{"num_deleted":"0","num_feature":"36","num_nodes":"29","size_leaf_vector":"1"}},{"base_weights":[1.201865E-3,-1.668502E-1,4.1336334E-1,-7.242834E-2,-3.8357586E-1,6.626763E-1,2.7372542E-1,-1.410566E-1,1.7751243E-2,-5.159949E-1,-3.0983925E-1,6.758833E-1,-0E0,2.9864675E-1,4.95581E-2,-1.2982188E-3,-2.766266E-3,-1.6720727E-5,2.2050487E-3,-0E0,-6.071396E-3,-0E0,-3.6705597E-3,4.9658767E-3,8.262576E-3,-1.5404292E-4,-0E0,2.148925E-3,4.400774E-3,3.2364007E-3,-0E0],"categories":[],"categories_nodes":[],"categories_segments":[],"categories_sizes":[],"default_left":[0,0,0,0,0,0,0,0,0,0,0,0,0,0,0,0,0,0,0,0,0,0,0,0,0,0,0,0,0,0,0],"id":14,"left_children":[1,3,5,7,9,11,13,15,17,19,21,23,25,27,29,-1,-1,-1,-1,-1,-1,-1,-1,-1,-1,-1,-1,-1,-1,-1,-1],"loss_changes":[5.1507697E2,1.067021E2,7.25968E1,2.3094135E1,1.337999E1,7.370392E0,6.8634415E0,5.122734E0,5.655457E0,1.5184784E0,1.3977737E0,3.1484375E0,9.252165E-4,9.700012E0,2.1357539E0,0E0,0E0,0E0,0E0,0E0,0E0,0E0,0E0,0E0,0E0,0E0,0E0,0E0,0E0,0E0,0E0],"parents":[2147483647,0,0,1,1,2,2,3,3,4,4,5,5,6,6,7,7,8,8,9,9,10,10,11,11,12,12,13,13,14,14],"right_children":[2,4,6,8,10,12,14,16,18,20,22,24,26,28,30,-1,-1,-1,-1,-1,-1,-1,-1,-1,-1,-1,-1,-1,-1,-1,-1],"split_conditions":[4.9950972E-1,5.910766E-1,-1.3408561E0,4.3008562E-2,-1.3748959E0,6.3667357E-1,1E0,6.83768E-1,1E0,-8.563544E-1,-1.6256167E0,1.2063568E0,1.2086833E-1,3.6495852E-1,6.015966E-1,-1.2982188E-3,-2.766266E-3,-1.6720727E-5,2.2050487E-3,-0E0,-6.071396E-3,-0E0,-3.6705597E-3,4.9658767E-3,8.262576E-3,-1.5404292E-4,-0E0,2.148925E-3,4.400774E-3,3.2364007E-3,-0E0],"split_indices":[33,35,35,33,33,11,0,21,2,19,9,9,8,9,33,0,0,0,0,0,0,0,0,0,0,0,0,0,0,0,0],"split_type":[0,0,0,0,0,0,0,0,0,0,0,0,0,0,0,0,0,0,0,0,0,0,0,0,0,0,0,0,0,0,0],"sum_hessian":[7.426686E3,5.2713457E3,2.1553403E3,3.6801775E3,1.5911683E3,7.6682544E2,1.3885148E3,2.10582E3,1.5743574E3,5.560892E2,1.0350791E3,7.532731E2,1.3552359E1,1.2392357E3,1.4927916E2,1.6290048E3,4.7681534E2,1.4026328E3,1.7172467E2,4.141644E0,5.519476E2,1.7760828E1,1.01731836E3,9.6307236E1,6.569658E2,5.0145407E0,8.537819E0,5.186675E2,7.205682E2,3.2217033E1,1.17062126E2],"tree_param":{"num_deleted":"0","num_feature":"36","num_nodes":"31","size_leaf_vector":"1"}},{"base_weights":[-1.942725E-3,-1.23647586E-1,4.5804077E-1,-1.2877025E-2,-3.4865817E-1,3.0892032E-1,6.8983036E-1,5.390092E-2,-1.2569715E-1,-1.6159754E-1,-3.9163226E-1,4.516632E-1,2.5387353E-1,8.896528E-1,5.731935E-1,1.004395E-3,-4.9066377E-5,2.7757676E-3,-1.600141E-3,-2.035578E-3,-0E0,-4.015785E-3,-5.7631196E-3,-0E0,5.726387E-3,1.6631533E-3,3.3990166E-3,-0E0,1.0482323E-2,4.860962E-3,7.965214E-3],"categories":[],"categories_nodes":[],"categories_segments":[],"categories_sizes":[],"default_left":[0,0,0,0,0,0,0,0,0,0,0,0,0,0,0,0,0,0,0,0,0,0,0,0,0,0,0,0,0,0,0],"id":15,"left_children":[1,3,5,7,9,11,13,15,17,19,21,23,25,27,29,-1,-1,-1,-1,-1,-1,-1,-1,-1,-1,-1,-1,-1,-1,-1,-1],"loss_changes":[4.1721796E2,1.4637437E2,5.123813E1,3.0081545E1,1.4177246E1,5.6685257E0,1.0164215E1,4.850099E0,5.9837456E0,1.0942163E0,5.4092865E0,4.1420403E0,1.8162575E0,1.0951233E0,3.7933044E0,0E0,0E0,0E0,0E0,0E0,0E0,0E0,0E0,0E0,0E0,0E0,0E0,0E0,0E0,0E0,0E0],"parents":[2147483647,0,0,1,1,2,2,3,3,4,4,5,5,6,6,7,7,8,8,9,9,10,10,11,11,12,12,13,13,14,14],"right_children":[2,4,6,8,10,12,14,16,18,20,22,24,26,28,30,-1,-1,-1,-1,-1,-1,-1,-1,-1,-1,-1,-1,-1,-1,-1,-1],"split_conditions":[6.173573E-1,5.6558454E-1,1.3389043E0,1.1653663E-1,2.684598E-1,-1.0499376E0,-2.0015073E0,-8.7989666E-2,-9.144823E-1,4.6387863E-1,1.6570181E0,2.0339118E-1,5.9796743E-2,-4.1627675E-1,9.0395635E-1,1.004395E-3,-4.9066377E-5,2.7757676E-3,-1.600141E-3,-2.035578E-3,-0E0,-4.015785E-3,-5.7631196E-3,-0E0,5.726387E-3,1.6631533E-3,3.3990166E-3,-0E0,1.0482323E-2,4.860962E-3,7.965214E-3],"split_indices":[10,33,10,33,9,33,33,33,9,19,33,11,11,19,19,0,0,0,0,0,0,0,0,0,0,0,0,0,0,0,0],"split_type":[0,0,0,0,0,0,0,0,0,0,0,0,0,0,0,0,0,0,0,0,0,0,0,0,0,0,0,0,0,0,0],"sum_hessian":[7.467388E3,5.909575E3,1.5578129E3,3.967895E3,1.9416802E3,9.550804E2,6.027325E2,2.4784058E3,1.4894894E3,3.7411578E2,1.5675643E3,2.5229263E2,7.027878E2,2.1335698E2,3.893755E2,1.6226305E3,8.5577515E2,3.866835E1,1.450821E3,3.5658896E2,1.7526829E1,1.0904938E3,4.7707056E2,2.166177E1,2.3063086E2,1.9491824E2,5.078695E2,2.9595501E0,2.1039742E2,1.70754E2,2.1862149E2],"tree_param":{"num_deleted":"0","num_feature":"36","num_nodes":"31","size_leaf_vector":"1"}},{"base_weights":[1.4611293E-3,-2.2553052E-1,2.7283879E-2,-2.3415004E-1,-0E0,5.9040114E-2,-1.9013016E-1,-2.0399666E-1,-4.193552E-1,2.4241598E-1,-0E0,-7.6363627E-3,7.953381E-2,-3.5438144E-1,-1.3480361E-1,-2.5954822E-3,-0E0,-5.1130853E-3,-0E0,-0E0,4.854674E-3,-2.9022673E-3,-0E0,-7.846938E-4,6.4328033E-4,3.8177562E-3,8.824486E-4,-0E0,-4.4332477E-3,-6.9160486E-4,-2.2091947E-3],"categories":[],"categories_nodes":[],"categories_segments":[],"categories_sizes":[],"default_left":[0,0,0,0,0,0,0,0,0,0,0,0,0,0,0,0,0,0,0,0,0,0,0,0,0,0,0,0,0,0,0],"id":16,"left_children":[1,3,5,7,9,11,13,15,17,19,21,23,25,27,29,-1,-1,-1,-1,-1,-1,-1,-1,-1,-1,-1,-1,-1,-1,-1,-1],"loss_changes":[4.3102066E1,2.0413017E0,4.5857834E1,2.4729881E0,5.365486E-1,8.175022E0,6.3901787E0,2.1252213E0,9.6822834E-1,6.2200105E-1,3.4287852E-1,5.072308E0,3.2806187E0,1.8245296E0,2.0090628E0,0E0,0E0,0E0,0E0,0E0,0E0,0E0,0E0,0E0,0E0,0E0,0E0,0E0,0E0,0E0,0E0],"parents":[2147483647,0,0,1,1,2,2,3,3,4,4,5,5,6,6,7,7,8,8,9,9,10,10,11,11,12,12,13,13,14,14],"right_children":[2,4,6,8,10,12,14,16,18,20,22,24,26,28,30,-1,-1,-1,-1,-1,-1,-1,-1,-1,-1,-1,-1,-1,-1,-1,-1],"split_conditions":[-1.3408561E0,6.3667357E-1,1.0499376E0,2.3667145E0,7.065252E-1,-4.9954578E-1,-2.0015073E0,6.8391746E-1,1.5959456E-16,2.3800941E-2,1.7841117E0,-1.7673394E-1,-1.9565487E0,1.17685765E-1,3.9720407E-1,-2.5954822E-3,-0E0,-5.1130853E-3,-0E0,-0E0,4.854674E-3,-2.9022673E-3,-0E0,-7.846938E-4,6.4328033E-4,3.8177562E-3,8.824486E-4,-0E0,-4.4332477E-3,-6.9160486E-4,-2.2091947E-3],"split_indices":[10,11,10,18,13,10,33,19,24,19,19,13,19,13,8,0,0,0,0,0,0,0,0,0,0,0,0,0,0,0,0],"split_type":[0,0,0,0,0,0,0,0,0,0,0,0,0,0,0,0,0,0,0,0,0,0,0,0,0,0,0,0,0,0,0],"sum_hessian":[7.439301E3,7.495098E2,6.689791E3,7.325551E2,1.6954735E1,5.847643E3,8.421479E2,6.423896E2,9.016551E1,8.841254E0,8.113481E0,1.3454711E3,4.502172E3,2.0014818E2,6.419997E2,5.826512E2,5.9738426E1,8.751245E1,2.653059E0,2.4437072E0,6.3975477E0,5.2479653E0,2.8655148E0,7.109169E2,6.345542E2,5.8706383E1,4.443466E3,1.3593449E1,1.8655473E2,2.8938995E2,3.5260974E2],"tree_param":{"num_deleted":"0","num_feature":"36","num_nodes":"31","size_leaf_vector":"1"}},{"base_weights":[-2.7120013E-5,-1.5880561E-1,3.967919E-1,-3.2845423E-1,-4.0087745E-2,2.6602146E-1,6.538472E-1,-2.6651275E-1,-5.0071293E-1,-1.0768003E-1,2.0967452E-2,2.539727E-1,6.9475037E-1,6.6334474E-1,-0E0,-2.4898343E-3,-3.878317E-3,-0E0,-5.8677085E-3,-8.5437455E-4,-2.7351163E-3,7.249832E-4,-9.038441E-4,3.2192806E-3,1.3372898E-3,9.365401E-3,-0E0,-0E0,7.786692E-3],"categories":[],"categories_nodes":[],"categories_segments":[],"categories_sizes":[],"default_left":[0,0,0,0,0,0,0,0,0,0,0,0,0,0,0,0,0,0,0,0,0,0,0,0,0,0,0,0,0],"id":17,"left_children":[1,3,5,7,9,11,13,15,17,19,21,23,25,27,-1,-1,-1,-1,-1,-1,-1,-1,-1,-1,-1,-1,-1,-1,-1],"loss_changes":[4.673446E2,1.0598187E2,6.879007E1,2.1225082E1,1.3150492E1,4.809593E0,5.687866E0,4.2284775E0,3.450775E-1,5.785942E0,6.5585675E0,3.2268295E0,1.9182739E0,2.7105713E0,0E0,0E0,0E0,0E0,0E0,0E0,0E0,0E0,0E0,0E0,0E0,0E0,0E0,0E0,0E0],"parents":[2147483647,0,0,1,1,2,2,3,3,4,4,5,5,6,6,7,7,8,8,9,9,10,10,11,11,12,12,13,13],"right_children":[2,4,6,8,10,12,14,16,18,20,22,24,26,28,-1,-1,-1,-1,-1,-1,-1,-1,-1,-1,-1,-1,-1,-1,-1],"split_conditions":[5.089761E-1,-3.5790446E-1,1.3957404E0,1.3389043E0,4.3008562E-2,2.5852046E0,7.423159E-1,4.4444153E-1,3.8488436E-1,6.8391746E-1,1E0,1E0,-6.944285E-1,-7.9920655E-1,-0E0,-2.4898343E-3,-3.878317E-3,-0E0,-5.8677085E-3,-8.5437455E-4,-2.7351163E-3,7.249832E-4,-9.038441E-4,3.2192806E-3,1.3372898E-3,9.365401E-3,-0E0,-0E0,7.786692E-3],"split_indices":[33,33,33,10,33,18,11,11,11,19,31,27,25,12,0,0,0,0,0,0,0,0,0,0,0,0,0,0,0],"split_type":[0,0,0,0,0,0,0,0,0,0,0,0,0,0,0,0,0,0,0,0,0,0,0,0,0,0,0,0,0],"sum_hessian":[7.4265103E3,5.308893E3,2.117617E3,2.17654E3,3.132353E3,1.4105676E3,7.0704926E2,1.6123533E3,5.6418695E2,1.5063765E3,1.6259766E3,1.378262E3,3.2305702E1,6.9986566E2,7.183597E0,9.163295E2,6.960237E2,4.0010986E0,5.6018585E2,1.2010321E3,3.053443E2,1.1647708E3,4.6120587E2,1.1737845E3,2.0447737E2,2.7084423E1,5.2212787E0,2.9133823E0,6.969523E2],"tree_param":{"num_deleted":"0","num_feature":"36","num_nodes":"29","size_leaf_vector":"1"}},{"base_weights":[-5.197657E-3,-1.346851E-1,4.1771996E-1,-3.1105998E-1,-0E0,2.7636495E-1,6.8472016E-1,-4.7465047E-1,-2.4408808E-1,-7.577757E-2,5.7508882E-2,2.2819355E-1,4.2310807E-1,5.7467586E-1,8.6942667E-1,-0E0,-5.5763237E-3,-1.7520973E-3,-3.4823827E-3,-9.6227304E-4,3.3659167E-3,5.8057526E-4,4.6012606E-3,1.7879347E-3,3.2216369E-3,-0E0,5.208595E-3,4.038396E-3,7.3992386E-3,-0E0,1.0289455E-2],"categories":[],"categories_nodes":[],"categories_segments":[],"categories_sizes":[],"default_left":[0,0,0,0,0,0,0,0,0,0,0,0,0,0,0,0,0,0,0,0,0,0,0,0,0,0,0,0,0,0,0],"id":18,"left_children":[1,3,5,7,9,11,13,15,17,19,21,23,25,27,29,-1,-1,-1,-1,-1,-1,-1,-1,-1,-1,-1,-1,-1,-1,-1,-1],"loss_changes":[4.0981192E2,1.3676135E2,6.363394E1,2.5411285E1,1.4163473E1,6.453911E0,8.36087E0,1.278305E0,7.9368134E0,2.9042482E0,3.6964917E0,2.0602684E0,2.7738762E0,2.690834E0,2.1137695E0,0E0,0E0,0E0,0E0,0E0,0E0,0E0,0E0,0E0,0E0,0E0,0E0,0E0,0E0,0E0,0E0],"parents":[2147483647,0,0,1,1,2,2,3,3,4,4,5,5,6,6,7,7,8,8,9,9,10,10,11,11,12,12,13,13,14,14],"right_children":[2,4,6,8,10,12,14,16,18,20,22,24,26,28,30,-1,-1,-1,-1,-1,-1,-1,-1,-1,-1,-1,-1,-1,-1,-1,-1],"split_conditions":[5.3849983E-1,-3.7768853E-1,1.3389043E0,-1.3957404E0,-8.1136E-3,1.0499376E0,2.000403E0,-2.3966265E0,2.1364048E-1,1.7841117E0,2.0041506E0,2.4383979E-1,-4.1633363E-17,4.6387863E-1,-8.232986E-1,-0E0,-5.5763237E-3,-1.7520973E-3,-3.4823827E-3,-9.6227304E-4,3.3659167E-3,5.8057526E-4,4.6012606E-3,1.7879347E-3,3.2216369E-3,-0E0,5.208595E-3,4.038396E-3,7.3992386E-3,-0E0,1.0289455E-2],"split_indices":[10,10,10,10,10,10,10,19,9,19,19,19,24,19,16,0,0,0,0,0,0,0,0,0,0,0,0,0,0,0,0],"split_type":[0,0,0,0,0,0,0,0,0,0,0,0,0,0,0,0,0,0,0,0,0,0,0,0,0,0,0,0,0,0,0],"sum_hessian":[7.4960747E3,5.743727E3,1.7523475E3,2.4900215E3,3.2537056E3,1.1524104E3,5.999372E2,7.11673E2,1.7783486E3,1.3963097E3,1.8573959E3,8.8128516E2,2.711252E2,3.8537778E2,2.145594E2,4.7193418E0,7.069536E2,6.709108E2,1.1074377E3,1.378103E3,1.8206732E1,1.8234988E3,3.389707E1,3.656624E2,5.1562274E2,1.3890109E1,2.572351E2,8.91927E1,2.9618506E2,3.479177E0,2.1108023E2],"tree_param":{"num_deleted":"0","num_feature":"36","num_nodes":"31","size_leaf_vector":"1"}},{"base_weights":[-5.409497E-3,-2.158413E-1,1.787156E-2,-2.5445887E-1,-1.02567986E-1,-1.8402979E-1,4.4749204E-2,-2.601993E-1,-0E0,-1.3059632E-2,-3.3358407E-1,-1.245409E-1,-3.4494352E-1,-1.2252894E-2,6.323412E-2,-0E0,-3.1456156E-3,-2.8589612E-3,2.3218154E-3,-1.6691947E-3,1.1084032E-3,-0E0,-4.6479255E-3,-5.4679945E-4,-1.9259453E-3,-0E0,-4.5338753E-3,6.668855E-5,-1.5318386E-3,-1.5060724E-3,8.064206E-4],"categories":[],"categories_nodes":[],"categories_segments":[],"categories_sizes":[],"default_left":[0,0,0,0,0,0,0,0,0,0,0,0,0,0,0,0,0,0,0,0,0,0,0,0,0,0,0,0,0,0,0],"id":19,"left_children":[1,3,5,7,9,11,13,15,17,19,21,23,25,27,29,-1,-1,-1,-1,-1,-1,-1,-1,-1,-1,-1,-1,-1,-1,-1,-1],"loss_changes":[3.6823288E1,2.3570366E0,3.580726E1,7.9621506E-1,3.4098551E0,6.1739063E0,6.3391647E0,1.1114616E0,6.072482E-1,2.3496237E0,1.5390983E0,1.2694931E0,3.510479E0,3.3375602E0,4.946144E0,0E0,0E0,0E0,0E0,0E0,0E0,0E0,0E0,0E0,0E0,0E0,0E0,0E0,0E0,0E0,0E0],"parents":[2147483647,0,0,1,1,2,2,3,3,4,4,5,5,6,6,7,7,8,8,9,9,10,10,11,11,12,12,13,13,14,14],"right_children":[2,4,6,8,10,12,14,16,18,20,22,24,26,28,30,-1,-1,-1,-1,-1,-1,-1,-1,-1,-1,-1,-1,-1,-1,-1,-1],"split_conditions":[-1.3408561E0,5.687623E-1,-1.1087539E0,1.3801548E0,2.1396894E0,2.000403E0,-4.769115E-1,-1.7053291E0,-8.0201226E-1,1.2700024E0,-1.2049341E0,6.83768E-1,2.4573955E-1,1.4874241E0,-1.7344497E0,-0E0,-3.1456156E-3,-2.8589612E-3,2.3218154E-3,-1.6691947E-3,1.1084032E-3,-0E0,-4.6479255E-3,-5.4679945E-4,-1.9259453E-3,-0E0,-4.5338753E-3,6.668855E-5,-1.5318386E-3,-1.5060724E-3,8.064206E-4],"split_indices":[10,8,33,25,20,10,10,17,17,20,11,21,21,20,15,0,0,0,0,0,0,0,0,0,0,0,0,0,0,0,0],"split_type":[0,0,0,0,0,0,0,0,0,0,0,0,0,0,0,0,0,0,0,0,0,0,0,0,0,0,0,0,0,0,0],"sum_hessian":[7.4124673E3,7.490945E2,6.663373E3,5.415269E2,2.0756755E2,7.7145087E2,5.8919224E3,5.296442E2,1.1882703E1,1.5780571E2,4.9761837E1,5.752116E2,1.9623924E2,1.4089166E3,4.4830054E3,2.1441189E1,5.0820303E2,5.2539787E0,6.6287246E0,8.232677E1,7.5478935E1,5.2916365E0,4.44702E1,2.1931161E2,3.5589996E2,1.8561785E1,1.7767746E2,1.2057565E3,2.0316011E2,1.2054026E2,4.3624653E3],"tree_param":{"num_deleted":"0","num_feature":"36","num_nodes":"31","size_leaf_vector":"1"}},{"base_weights":[1.9725102E-3,-1.5376884E-1,3.8881534E-1,-3.6024705E-1,-6.569526E-2,2.6081878E-1,6.2324476E-1,-2.8296205E-1,-4.9272004E-1,-1.4041732E-1,1.7739322E-2,2.127488E-1,3.5762438E-1,6.355778E-1,-0E0,-0E0,-3.3686953E-3,-0E0,-5.811974E-3,-1.1906773E-3,-2.5647767E-3,-0E0,2.0189395E-3,2.5933355E-3,-2.7937044E-3,4.7591883E-3,-1.3847325E-4,8.375924E-3,6.21285E-3],"categories":[],"categories_nodes":[],"categories_segments":[],"categories_sizes":[],"default_left":[0,0,0,0,0,0,0,0,0,0,0,0,0,0,0,0,0,0,0,0,0,0,0,0,0,0,0,0,0],"id":20,"left_children":[1,3,5,7,9,11,13,15,17,19,21,23,25,27,-1,-1,-1,-1,-1,-1,-1,-1,-1,-1,-1,-1,-1,-1,-1],"loss_changes":[4.4653824E2,9.478473E1,6.1582855E1,1.4026077E1,2.3413052E1,4.962982E0,5.202362E0,1.9110641E0,1.655365E0,5.1738014E0,4.9209375E0,4.0729446E0,9.241577E0,2.8828125E0,0E0,0E0,0E0,0E0,0E0,0E0,0E0,0E0,0E0,0E0,0E0,0E0,0E0,0E0,0E0],"parents":[2147483647,0,0,1,1,2,2,3,3,4,4,5,5,6,6,7,7,8,8,9,9,10,10,11,11,12,12,13,13],"right_children":[2,4,6,8,10,12,14,16,18,20,22,24,26,28,-1,-1,-1,-1,-1,-1,-1,-1,-1,-1,-1,-1,-1,-1,-1],"split_conditions":[4.9950972E-1,-5.9127146E-1,1.3700138E0,1.3389043E0,7.832735E-3,8.668616E-1,6.568938E-1,-1.6256167E0,-7.655734E-1,4.6387863E-1,1E0,1.3081235E0,-6.4246684E-1,1E0,-0E0,-0E0,-3.3686953E-3,-0E0,-5.811974E-3,-1.1906773E-3,-2.5647767E-3,-0E0,2.0189395E-3,2.5933355E-3,-2.7937044E-3,4.7591883E-3,-1.3847325E-4,8.375924E-3,6.21285E-3],"split_indices":[33,33,33,10,33,9,11,9,13,19,2,33,10,5,0,0,0,0,0,0,0,0,0,0,0,0,0,0,0],"split_type":[0,0,0,0,0,0,0,0,0,0,0,0,0,0,0,0,0,0,0,0,0,0,0,0,0,0,0,0,0],"sum_hessian":[7.401183E3,5.2721836E3,2.1289995E3,1.5674756E3,3.704708E3,1.3845637E3,7.4443567E2,1.002712E3,5.647636E2,1.9704697E3,1.7342382E3,9.434412E2,4.4112253E2,7.286926E2,1.5743068E1,1.7492332E1,9.8521967E2,5.98583E0,5.587778E2,1.351638E3,6.1883185E2,1.5520973E3,1.8214087E2,9.294975E2,1.3943714E1,3.942059E2,4.6916637E1,3.894401E2,3.392525E2],"tree_param":{"num_deleted":"0","num_feature":"36","num_nodes":"29","size_leaf_vector":"1"}},{"base_weights":[-0E0,-2.1903987E-1,2.4139233E-1,-3.5482785E-1,-1.0397889E-1,6.12873E-1,1.3433732E-1,-2.845009E-1,-4.6542585E-1,-1.2910041E-1,-1.7403187E-2,8.783868E-1,5.1263773E-1,7.911798E-2,2.572085E-1,-3.4228342E-3,-0E0,-0E0,-5.468013E-3,3.6823965E-4,-1.6914739E-3,2.2525752E-3,-4.2263526E-4,-0E0,1.0508066E-2,3.8028427E-3,6.7765526E-3,6.9896755E-4,2.5096035E-3,1.6472364E-3,3.5612073E-3],"categories":[],"categories_nodes":[],"categories_segments":[],"categories_sizes":[],"default_left":[0,0,0,0,0,0,0,0,0,0,0,0,0,0,0,0,0,0,0,0,0,0,0,0,0,0,0,0,0,0,0],"id":21,"left_children":[1,3,5,7,9,11,13,15,17,19,21,23,25,27,29,-1,-1,-1,-1,-1,-1,-1,-1,-1,-1,-1,-1,-1,-1,-1,-1],"loss_changes":[3.917653E2,5.947534E1,1.383083E2,1.1814209E1,4.2184963E0,1.7162567E1,1.7746323E1,2.614235E0,1.0004425E0,4.4233418E0,1.5765812E0,4.2631226E0,4.980728E0,4.272023E0,3.512371E0,0E0,0E0,0E0,0E0,0E0,0E0,0E0,0E0,0E0,0E0,0E0,0E0,0E0,0E0,0E0,0E0],"parents":[2147483647,0,0,1,1,2,2,3,3,4,4,5,5,6,6,7,7,8,8,9,9,10,10,11,11,12,12,13,13,14,14],"right_children":[2,4,6,8,10,12,14,16,18,20,22,24,26,28,30,-1,-1,-1,-1,-1,-1,-1,-1,-1,-1,-1,-1,-1,-1,-1,-1],"split_conditions":[6.958878E-3,-6.307625E-1,-1.1087539E0,1.3957404E0,-1.1679781E-1,-2.0015073E0,5.7919407E-1,1E0,-2.3966265E0,-1.188915E0,-1.0716604E-1,1.4697709E0,4.6387863E-1,1.1217964E0,1.0610788E-1,-3.4228342E-3,-0E0,-0E0,-5.468013E-3,3.6823965E-4,-1.6914739E-3,2.2525752E-3,-4.2263526E-4,-0E0,1.0508066E-2,3.8028427E-3,6.7765526E-3,6.9896755E-4,2.5096035E-3,1.6472364E-3,3.5612073E-3],"split_indices":[10,10,33,33,10,33,10,1,19,11,10,11,19,21,11,0,0,0,0,0,0,0,0,0,0,0,0,0,0,0,0],"split_type":[0,0,0,0,0,0,0,0,0,0,0,0,0,0,0,0,0,0,0,0,0,0,0,0,0,0,0,0,0,0,0],"sum_hessian":[7.408403E3,3.8822173E3,3.5261855E3,1.7702438E3,2.1119734E3,7.832039E2,2.7429817E3,1.096909E3,6.733347E2,1.6139585E3,4.9801486E2,2.0703036E2,5.761735E2,1.9071782E3,8.358034E2,1.0611444E3,3.5764637E1,5.2197037E0,6.6811505E2,1.310687E2,1.4828898E3,2.9518291E1,4.6849655E2,5.016926E0,2.0201344E2,1.6504387E2,4.1112967E2,1.6883154E3,2.1886284E2,2.610854E2,5.74718E2],"tree_param":{"num_deleted":"0","num_feature":"36","num_nodes":"31","size_leaf_vector":"1"}},{"base_weights":[-2.0773062E-3,1.9994423E-2,-2.0914456E-1,-1.7728195E-1,4.799824E-2,-2.1745932E-1,-0E0,-3.1586048E-1,-1.294484E-1,6.588479E-2,-8.9056E-3,-2.5494984E-1,-1.2105357E-1,1.6242938E-1,-0E0,-0E0,-4.5930985E-3,-1.7392049E-3,-0E0,-7.5692066E-4,8.65493E-4,-9.515033E-4,3.4992816E-4,-0E0,-3.1326348E-3,-1.6307638E-3,1.2827888E-3,-0E0,4.1097994E-3,-0E0,-1.6154542E-3],"categories":[],"categories_nodes":[],"categories_segments":[],"categories_sizes":[],"default_left":[0,0,0,0,0,0,0,0,0,0,0,0,0,0,0,0,0,0,0,0,0,0,0,0,0,0,0,0,0,0,0],"id":22,"left_children":[1,3,5,7,9,11,13,15,17,19,21,23,25,27,29,-1,-1,-1,-1,-1,-1,-1,-1,-1,-1,-1,-1,-1,-1,-1,-1],"loss_changes":[3.422886E1,3.647096E1,1.6309662E0,4.2626495E0,6.094754E0,1.568737E0,2.2561556E-1,4.068821E0,1.9240999E0,4.9038086E0,3.9893966E0,1.2167225E0,1.0193429E0,5.10603E-1,1.2689184E-1,0E0,0E0,0E0,0E0,0E0,0E0,0E0,0E0,0E0,0E0,0E0,0E0,0E0,0E0,0E0,0E0],"parents":[2147483647,0,0,1,1,2,2,3,3,4,4,5,5,6,6,7,7,8,8,9,9,10,10,11,11,12,12,13,13,14,14],"right_children":[2,4,6,8,10,12,14,16,18,20,22,24,26,28,30,-1,-1,-1,-1,-1,-1,-1,-1,-1,-1,-1,-1,-1,-1,-1,-1],"split_conditions":[1.3700138E0,-1.0499376E0,5.755066E-1,-2.0015073E0,5.089761E-1,5.7001275E-1,4.024102E-1,7.035158E-1,1.1606163E0,-1.6670455E0,-4.0506944E-1,9.9579436E-1,3.0125513E0,2.3800941E-2,-6.823585E-1,-0E0,-4.5930985E-3,-1.7392049E-3,-0E0,-7.5692066E-4,8.65493E-4,-9.515033E-4,3.4992816E-4,-0E0,-3.1326348E-3,-1.6307638E-3,1.2827888E-3,-0E0,4.1097994E-3,-0E0,-1.6154542E-3],"split_indices":[33,33,11,33,33,7,17,17,14,12,16,9,9,19,26,0,0,0,0,0,0,0,0,0,0,0,0,0,0,0,0],"split_type":[0,0,0,0,0,0,0,0,0,0,0,0,0,0,0,0,0,0,0,0,0,0,0,0,0,0,0,0,0,0,0],"sum_hessian":[7.382915E3,6.660828E3,7.220866E2,8.164361E2,5.844392E3,7.02391E2,1.9695633E1,1.9535733E2,6.2107874E2,4.480847E3,1.3635449E3,4.8627277E2,2.1611823E2,8.262376E0,1.1433258E1,4.3559208E1,1.5179813E2,5.544586E2,6.6620125E1,2.4962547E2,4.2312217E3,4.982698E2,8.652751E2,3.1327396E1,4.5494537E2,2.1022626E2,5.891964E0,2.6225019E0,5.6398735E0,5.1084485E0,6.32481E0],"tree_param":{"num_deleted":"0","num_feature":"36","num_nodes":"31","size_leaf_vector":"1"}},{"base_weights":[1.8613278E-3,-1.2165899E-1,3.519133E-1,-3.9998896E-2,-4.024946E-1,5.139289E-1,9.766966E-3,-8.133757E-2,1.623386E-1,-3.0620846E-1,-4.812969E-1,3.8490796E-1,7.175091E-1,-1.516984E-1,1.7440225E-1,-3.1415853E-5,-1.9588612E-3,3.3878793E-3,9.2005427E-4,-0E0,-3.7130788E-3,-5.696922E-3,-9.903788E-4,4.899465E-3,7.773468E-4,7.819231E-3,1.0679031E-2,-2.5448503E-3,-0E0,5.4201996E-3,-0E0],"categories":[],"categories_nodes":[],"categories_segments":[],"categories_sizes":[],"default_left":[0,0,0,0,0,0,0,0,0,0,0,0,0,0,0,0,0,0,0,0,0,0,0,0,0,0,0,0,0,0,0],"id":23,"left_children":[1,3,5,7,9,11,13,15,17,19,21,23,25,27,29,-1,-1,-1,-1,-1,-1,-1,-1,-1,-1,-1,-1,-1,-1,-1,-1],"loss_changes":[3.2131082E2,1.2447713E2,1.062034E2,3.535254E1,7.2510376E0,3.1548737E1,1.6781803E1,2.3680944E1,6.6488934E0,2.079155E0,3.9511108E-1,7.828308E0,4.3463135E-1,3.2297716E0,1.7118896E1,0E0,0E0,0E0,0E0,0E0,0E0,0E0,0E0,0E0,0E0,0E0,0E0,0E0,0E0,0E0,0E0],"parents":[2147483647,0,0,1,1,2,2,3,3,4,4,5,5,6,6,7,7,8,8,9,9,10,10,11,11,12,12,13,13,14,14],"right_children":[2,4,6,8,10,12,14,16,18,20,22,24,26,28,30,-1,-1,-1,-1,-1,-1,-1,-1,-1,-1,-1,-1,-1,-1,-1,-1],"split_conditions":[4.9201685E-1,4.2319164E-1,1.7739859E-1,8.299262E-3,1.088699E0,1.670007E0,1.4212608E0,-4.4837552E-1,-5.902725E-1,-1.6670455E0,1.3976679E0,1E0,2.3571112E0,1.0525806E0,7.423159E-1,-3.1415853E-5,-1.9588612E-3,3.3878793E-3,9.2005427E-4,-0E0,-3.7130788E-3,-5.696922E-3,-9.903788E-4,4.899465E-3,7.773468E-4,7.819231E-3,1.0679031E-2,-2.5448503E-3,-0E0,5.4201996E-3,-0E0],"split_indices":[9,11,11,9,11,9,9,11,11,12,26,27,20,20,11,0,0,0,0,0,0,0,0,0,0,0,0,0,0,0,0],"split_type":[0,0,0,0,0,0,0,0,0,0,0,0,0,0,0,0,0,0,0,0,0,0,0,0,0,0,0,0,0,0,0],"sum_hessian":[7.4169224E3,5.4771274E3,1.9397949E3,4.2505986E3,1.2265287E3,1.3112562E3,6.2853876E2,3.5401453E3,7.104533E2,5.6727423E2,6.5925446E2,8.108045E2,5.0045175E2,3.0948975E2,3.1904898E2,1.8711311E3,1.669014E3,2.6782025E2,4.426331E2,2.200981E1,5.4526447E2,6.411369E2,1.8117498E1,7.227726E2,8.803186E1,4.1583786E2,8.4613884E1,2.1727437E2,9.221539E1,1.23942986E2,1.95106E2],"tree_param":{"num_deleted":"0","num_feature":"36","num_nodes":"31","size_leaf_vector":"1"}},{"base_weights":[-6.602731E-3,-1.3971563E-1,4.224984E-1,-3.4140822E-1,-3.35669E-2,2.8287843E-1,6.8165284E-1,-2.665273E-1,-4.760562E-1,-1.3298887E-1,2.681762E-2,1.672956E-1,3.5080767E-1,8.559317E-1,5.822647E-1,-0E0,-3.1606043E-3,-0E0,-5.576542E-3,3.465059E-3,-1.6474212E-3,-2.2341162E-3,3.869948E-4,-0E0,2.361935E-3,4.284498E-3,-0E0,1.0094349E-2,-0E0,5.272128E-3,7.870333E-3],"categories":[],"categories_nodes":[],"categories_segments":[],"categories_sizes":[],"default_left":[0,0,0,0,0,0,0,0,0,0,0,0,0,0,0,0,0,0,0,0,0,0,0,0,0,0,0,0,0,0,0],"id":24,"left_children":[1,3,5,7,9,11,13,15,17,19,21,23,25,27,29,-1,-1,-1,-1,-1,-1,-1,-1,-1,-1,-1,-1,-1,-1,-1,-1],"loss_changes":[4.249863E2,1.20920265E2,6.1161438E1,1.7771576E1,2.2717354E1,7.6924286E0,6.735565E0,1.851387E0,6.699066E-1,4.6916447E0,2.8071675E0,2.9418917E0,4.364807E0,1.2183838E0,1.8312988E0,0E0,0E0,0E0,0E0,0E0,0E0,0E0,0E0,0E0,0E0,0E0,0E0,0E0,0E0,0E0,0E0],"parents":[2147483647,0,0,1,1,2,2,3,3,4,4,5,5,6,6,7,7,8,8,9,9,10,10,11,11,12,12,13,13,14,14],"right_children":[2,4,6,8,10,12,14,16,18,20,22,24,26,28,30,-1,-1,-1,-1,-1,-1,-1,-1,-1,-1,-1,-1,-1,-1,-1,-1],"split_conditions":[5.3849983E-1,-5.541353E-1,1.3389043E0,1.3957404E0,-1.1679781E-1,2.4573955E-1,-2.0015073E0,-1.3390589E0,-2.6014452E0,-1.5564806E0,-1.7253883E0,6.043725E-1,1E0,1.9808295E0,9.0278214E-1,-0E0,-3.1606043E-3,-0E0,-5.576542E-3,3.465059E-3,-1.6474212E-3,-2.2341162E-3,3.869948E-4,-0E0,2.361935E-3,4.284498E-3,-0E0,1.0094349E-2,-0E0,5.272128E-3,7.870333E-3],"split_indices":[10,10,10,33,10,21,33,20,21,20,21,10,1,14,21,0,0,0,0,0,0,0,0,0,0,0,0,0,0,0,0],"split_type":[0,0,0,0,0,0,0,0,0,0,0,0,0,0,0,0,0,0,0,0,0,0,0,0,0,0,0,0,0,0,0],"sum_hessian":[7.452459E3,5.6926733E3,1.7597856E3,1.9543947E3,3.7382786E3,1.1504539E3,6.0933185E2,1.2687024E3,6.8569226E2,1.4284261E3,2.3098525E3,4.4016757E2,7.1028625E2,2.1114369E2,3.9818814E2,1.6302176E1,1.2524003E3,3.047623E0,6.8264465E2,2.0903116E1,1.407523E3,5.378681E1,2.2560657E3,6.815411E1,3.7201346E2,6.8003253E2,3.025377E1,2.0811626E2,3.027433E0,1.776219E2,2.2056624E2],"tree_param":{"num_deleted":"0","num_feature":"36","num_nodes":"31","size_leaf_vector":"1"}},{"base_weights":[-0E0,1.8879753E-2,-2.4228413E-1,-1.9044846E-1,4.5946553E-2,-2.7275813E-1,-9.499977E-2,-3.483533E-1,-1.3020737E-1,-8.352488E-3,6.2999286E-2,-2.8328148E-1,-0E0,3.949969E-3,-1.7686321E-1,-0E0,-4.457948E-3,-4.515589E-4,-2.2045968E-3,1.9056043E-4,-1.2089629E-3,-6.094509E-4,8.1916654E-4,-4.2972565E-3,-2.6136334E-3,-9.160583E-6,4.5660054E-3,1.5428051E-3,-1.6932585E-3,-0E0,-2.7975694E-3],"categories":[],"categories_nodes":[],"categories_segments":[],"categories_sizes":[],"default_left":[0,0,0,0,0,0,0,0,0,0,0,0,0,0,0,0,0,0,0,0,0,0,0,0,0,0,0,0,0,0,0],"id":25,"left_children":[1,3,5,7,9,11,13,15,17,19,21,23,25,27,29,-1,-1,-1,-1,-1,-1,-1,-1,-1,-1,-1,-1,-1,-1,-1,-1],"loss_changes":[3.378444E1,3.8685467E1,1.446888E0,6.167137E0,5.8016787E0,1.7403202E0,1.3039092E0,2.1640396E0,2.51299E0,3.5790305E0,3.958603E0,5.6783295E-1,7.1046084E-1,6.284769E-1,1.4049637E0,0E0,0E0,0E0,0E0,0E0,0E0,0E0,0E0,0E0,0E0,0E0,0E0,0E0,0E0,0E0,0E0],"parents":[2147483647,0,0,1,1,2,2,3,3,4,4,5,5,6,6,7,7,8,8,9,9,10,10,11,11,12,12,13,13,14,14],"right_children":[2,4,6,8,10,12,14,16,18,20,22,24,26,28,30,-1,-1,-1,-1,-1,-1,-1,-1,-1,-1,-1,-1,-1,-1,-1,-1],"split_conditions":[1.5757238E0,-1.1087539E0,1E0,-2.0015073E0,-5.541353E-1,1.3801548E0,2.0961344E0,2.4383979E-1,3.1317836E-1,-1.1198237E-1,-1.6670455E0,1.0557728E0,-1.9314755E0,8.082045E-1,6.4719164E-1,-0E0,-4.457948E-3,-4.515589E-4,-2.2045968E-3,1.9056043E-4,-1.2089629E-3,-6.094509E-4,8.1916654E-4,-4.2972565E-3,-2.6136334E-3,-9.160583E-6,4.5660054E-3,1.5428051E-3,-1.6932585E-3,-0E0,-2.7975694E-3],"split_indices":[33,33,3,33,10,25,9,19,7,11,12,18,10,7,12,0,0,0,0,0,0,0,0,0,0,0,0,0,0,0,0],"split_type":[0,0,0,0,0,0,0,0,0,0,0,0,0,0,0,0,0,0,0,0,0,0,0,0,0,0,0,0,0,0,0],"sum_hessian":[7.425742E3,6.892356E3,5.3338617E2,7.781391E2,6.114217E3,4.273475E2,1.06038666E2,2.0277287E2,5.753662E2,1.425445E3,4.688772E3,4.178526E2,9.494887E0,3.398329E1,7.2055374E1,1.9590656E1,1.831822E2,2.423633E2,3.3300293E2,1.1110049E3,3.1444003E2,2.5605182E2,4.43272E3,1.5296677E2,2.6488586E2,5.1486673E0,4.3462205E0,2.750421E1,6.4790826E0,8.595505E0,6.345987E1],"tree_param":{"num_deleted":"0","num_feature":"36","num_nodes":"31","size_leaf_vector":"1"}},{"base_weights":[4.5898897E-3,3.8721448E-1,-1.5068786E-1,6.449986E-1,2.4870622E-1,-6.71791E-2,-3.526749E-1,7.768154E-1,5.5282146E-1,1.8981476E-1,3.2364276E-1,2.4051204E-2,-1.4730673E-1,-2.7129352E-1,-4.8626035E-1,7.7833515E-4,9.22438E-3,6.6215578E-3,-0E0,2.0432349E-3,7.458341E-3,4.1449647E-3,4.4051744E-4,6.177366E-4,-4.7343198E-4,-7.582966E-4,-1.9926217E-3,-3.220761E-3,-0E0,-0E0,-5.722121E-3],"categories":[],"categories_nodes":[],"categories_segments":[],"categories_sizes":[],"default_left":[0,0,0,0,0,0,0,0,0,0,0,0,0,0,0,0,0,0,0,0,0,0,0,0,0,0,0,0,0,0,0],"id":26,"left_children":[1,3,5,7,9,11,13,15,17,19,21,23,25,27,29,-1,-1,-1,-1,-1,-1,-1,-1,-1,-1,-1,-1,-1,-1,-1,-1],"loss_changes":[4.4165973E2,7.435202E1,8.790954E1,5.5140076E0,4.8645325E0,2.7670135E1,1.4702087E1,7.347107E-1,3.1268005E0,3.18326E0,4.421501E0,3.275404E0,3.2821045E0,1.4408112E0,1.4762726E0,0E0,0E0,0E0,0E0,0E0,0E0,0E0,0E0,0E0,0E0,0E0,0E0,0E0,0E0,0E0,0E0],"parents":[2147483647,0,0,1,1,2,2,3,3,4,4,5,5,6,6,7,7,8,8,9,9,10,10,11,11,12,12,13,13,14,14],"right_children":[2,4,6,8,10,12,14,16,18,20,22,24,26,28,30,-1,-1,-1,-1,-1,-1,-1,-1,-1,-1,-1,-1,-1,-1,-1,-1],"split_conditions":[-4.9954578E-1,-1.3700138E0,6.043725E-1,-1.9838951E0,-5.005658E-1,-8.1136E-3,1.3389043E0,-4.1633363E-17,1.3801548E0,2.148224E0,8.1842846E-1,2.4573955E-1,-8.8991666E-1,1.8043102E0,3.8488436E-1,7.7833515E-4,9.22438E-3,6.6215578E-3,-0E0,2.0432349E-3,7.458341E-3,4.1449647E-3,4.4051744E-4,6.177366E-4,-4.7343198E-4,-7.582966E-4,-1.9926217E-3,-3.220761E-3,-0E0,-0E0,-5.722121E-3],"split_indices":[35,35,35,35,11,35,35,24,25,18,11,21,14,12,11,0,0,0,0,0,0,0,0,0,0,0,0,0,0,0,0],"split_type":[0,0,0,0,0,0,0,0,0,0,0,0,0,0,0,0,0,0,0,0,0,0,0,0,0,0,0,0,0,0,0],"sum_hessian":[7.422952E3,2.1474358E3,5.275516E3,7.4372516E2,1.4037107E3,3.7416392E3,1.5338768E3,2.937489E2,4.4997623E2,8.056934E2,5.9801733E2,1.7347682E3,2.006871E3,9.65634E2,5.682429E2,9.28544E0,2.8446347E2,4.3631546E2,1.3660778E1,7.86217E2,1.9476412E1,5.301115E2,6.790579E1,1.2260145E3,5.0875375E2,4.708847E2,1.5359862E3,9.508203E2,1.4813647E1,3.9404492E0,5.643025E2],"tree_param":{"num_deleted":"0","num_feature":"36","num_nodes":"31","size_leaf_vector":"1"}},{"base_weights":[-4.7598056E-5,-1.5258303E-1,3.2399648E-1,-4.649426E-2,-3.2846054E-1,2.1740401E-1,6.358587E-1,-1.3005812E-1,2.7569177E-2,-4.4498917E-1,-2.6570815E-1,2.9581192E-1,1.3786528E-1,8.237158E-1,5.294846E-1,4.8156493E-5,-1.6664336E-3,1.402307E-4,1.5816008E-3,-5.228414E-3,-0E0,-1.6991289E-3,-3.4731028E-3,3.7483363E-3,1.2703164E-3,1.9172373E-3,-2.970766E-5,-0E0,9.836477E-3,5.421713E-3,8.843588E-3],"categories":[],"categories_nodes":[],"categories_segments":[],"categories_sizes":[],"default_left":[0,0,0,0,0,0,0,0,0,0,0,0,0,0,0,0,0,0,0,0,0,0,0,0,0,0,0,0,0,0,0],"id":27,"left_children":[1,3,5,7,9,11,13,15,17,19,21,23,25,27,29,-1,-1,-1,-1,-1,-1,-1,-1,-1,-1,-1,-1,-1,-1,-1,-1],"loss_changes":[3.680101E2,9.37058E1,7.690823E1,1.990843E1,1.2040115E1,9.983475E0,8.403641E0,2.9499588E0,2.4211936E0,1.3539429E0,3.665512E0,3.0967484E0,3.7684383E0,4.371109E0,2.5731888E0,0E0,0E0,0E0,0E0,0E0,0E0,0E0,0E0,0E0,0E0,0E0,0E0,0E0,0E0,0E0,0E0],"parents":[2147483647,0,0,1,1,2,2,3,3,4,4,5,5,6,6,7,7,8,8,9,9,10,10,11,11,12,12,13,13,14,14],"right_children":[2,4,6,8,10,12,14,16,18,20,22,24,26,28,30,-1,-1,-1,-1,-1,-1,-1,-1,-1,-1,-1,-1,-1,-1,-1,-1],"split_conditions":[3.1508914E-1,5.6558454E-1,1.3389043E0,-1.1679781E-1,-1.4343117E0,-6.620681E-1,-2.0015073E0,-1.188915E0,1E0,7.911428E-1,-1.0696383E0,1E0,1E0,1.4193561E0,2.1043053E0,4.8156493E-5,-1.6664336E-3,1.402307E-4,1.5816008E-3,-5.228414E-3,-0E0,-1.6991289E-3,-3.4731028E-3,3.7483363E-3,1.2703164E-3,1.9172373E-3,-2.970766E-5,-0E0,9.836477E-3,5.421713E-3,8.843588E-3],"split_indices":[10,33,10,10,10,33,33,11,0,11,11,2,4,11,16,0,0,0,0,0,0,0,0,0,0,0,0,0,0,0,0],"split_type":[0,0,0,0,0,0,0,0,0,0,0,0,0,0,0,0,0,0,0,0,0,0,0,0,0,0,0,0,0,0,0],"sum_hessian":[7.4536416E3,5.07348E3,2.3801619E3,3.1739038E3,1.899576E3,1.7803461E3,5.9981573E2,1.5074332E3,1.6664707E3,6.500066E2,1.2495695E3,8.7995123E2,9.003948E2,2.0745215E2,3.9236362E2,1.14120995E2,1.3933121E3,1.4778341E3,1.8863658E2,6.4718854E2,2.8180852E0,2.8072617E2,9.688433E2,7.6179407E2,1.1815717E2,7.7262585E2,1.2776896E2,3.4386008E0,2.0401355E2,3.153563E2,7.700732E1],"tree_param":{"num_deleted":"0","num_feature":"36","num_nodes":"31","size_leaf_vector":"1"}},{"base_weights":[3.7442457E-3,2.8485214E-2,-1.9406463E-1,-1.9969463E-1,5.7660256E-2,-4.2139582E-2,-2.4680088E-1,-1.7667621E-1,-3.934864E-1,7.6397315E-2,-0E0,2.8412152E-2,-1.2084375E-1,-1.8957922E-1,-3.7339532E-1,-2.4485658E-3,-6.113117E-4,-0E0,-5.1986394E-3,-1.1375179E-3,9.5869217E-4,-2.228765E-3,1.18031865E-4,-2.2514733E-4,2.184119E-3,-4.3759244E-3,-5.2577492E-5,-1.3477977E-3,-3.9813532E-3,-4.579775E-3,-0E0],"categories":[],"categories_nodes":[],"categories_segments":[],"categories_sizes":[],"default_left":[0,0,0,0,0,0,0,0,0,0,0,0,0,0,0,0,0,0,0,0,0,0,0,0,0,0,0,0,0,0,0],"id":28,"left_children":[1,3,5,7,9,11,13,15,17,19,21,23,25,27,29,-1,-1,-1,-1,-1,-1,-1,-1,-1,-1,-1,-1,-1,-1,-1,-1],"loss_changes":[3.581862E1,4.3534966E1,5.7616177E0,1.8114243E0,6.342661E0,1.4703264E0,2.813324E0,2.1020699E0,9.74638E-1,4.42692E0,2.8106353E0,1.1900935E0,2.6423903E0,3.5479107E0,1.6878452E0,0E0,0E0,0E0,0E0,0E0,0E0,0E0,0E0,0E0,0E0,0E0,0E0,0E0,0E0,0E0,0E0],"parents":[2147483647,0,0,1,1,2,2,3,3,4,4,5,5,6,6,7,7,8,8,9,9,10,10,11,11,12,12,13,13,14,14],"right_children":[2,4,6,8,10,12,14,16,18,20,22,24,26,28,30,-1,-1,-1,-1,-1,-1,-1,-1,-1,-1,-1,-1,-1,-1,-1,-1],"split_conditions":[1.0499376E0,-1.3408561E0,4.6387863E-1,1E0,4.7678772E-1,3.1317836E-1,2.000403E0,8.107395E-1,3.3481634E-1,-1.7344497E0,-9.106395E-1,6.2450045E-17,4.011384E-1,5.687623E-1,1.5959456E-16,-2.4485658E-3,-6.113117E-4,-0E0,-5.1986394E-3,-1.1375179E-3,9.5869217E-4,-2.228765E-3,1.18031865E-4,-2.2514733E-4,2.184119E-3,-4.3759244E-3,-5.2577492E-5,-1.3477977E-3,-3.9813532E-3,-4.579775E-3,-0E0],"split_indices":[10,10,19,2,33,7,10,8,23,15,18,24,7,8,24,0,0,0,0,0,0,0,0,0,0,0,0,0,0,0,0],"split_type":[0,0,0,0,0,0,0,0,0,0,0,0,0,0,0,0,0,0,0,0,0,0,0,0,0,0,0,0,0,0,0],"sum_hessian":[7.404859E3,6.593374E3,8.114849E2,7.373245E2,5.85605E3,2.2173552E2,5.897494E2,6.7133887E2,6.5985664E1,4.4224023E3,1.4336475E3,9.987854E1,1.2185698E2,4.2057782E2,1.6917155E2,5.131594E2,1.5817946E2,9.722864E0,5.62628E1,1.2839955E2,4.2940024E3,7.2857765E1,1.3607897E3,6.461721E1,3.526133E1,3.113872E1,9.071826E1,2.9439127E2,1.26186554E2,1.6388231E2,5.2892413E0],"tree_param":{"num_deleted":"0","num_feature":"36","num_nodes":"31","size_leaf_vector":"1"}},{"base_weights":[6.214286E-3,-1.4251332E-1,4.025192E-1,-5.4619655E-2,-3.6319184E-1,2.650422E-1,6.336657E-1,-1.2797283E-1,3.6525935E-2,-2.8450313E-1,-4.7912866E-1,2.0322175E-1,3.7294105E-1,4.9229398E-1,7.07137E-1,-1.1732286E-3,-2.5531347E-3,1.646583E-4,2.3717019E-3,-3.391076E-3,-0E0,-5.6154677E-3,-0E0,-0E0,2.484607E-3,4.6853255E-3,-0E0,5.9167417E-3,-0E0,-0E0,8.344011E-3],"categories":[],"categories_nodes":[],"categories_segments":[],"categories_sizes":[],"default_left":[0,0,0,0,0,0,0,0,0,0,0,0,0,0,0,0,0,0,0,0,0,0,0,0,0,0,0,0,0,0,0],"id":29,"left_children":[1,3,5,7,9,11,13,15,17,19,21,23,25,27,29,-1,-1,-1,-1,-1,-1,-1,-1,-1,-1,-1,-1,-1,-1,-1,-1],"loss_changes":[4.400678E2,1.0397396E2,6.244519E1,2.618893E1,1.2004349E1,7.0818863E0,4.6546326E0,4.570053E0,5.8564095E0,1.1609192E0,5.458832E-1,1.8925438E0,4.276932E0,1.8296051E0,2.3384552E0,0E0,0E0,0E0,0E0,0E0,0E0,0E0,0E0,0E0,0E0,0E0,0E0,0E0,0E0,0E0,0E0],"parents":[2147483647,0,0,1,1,2,2,3,3,4,4,5,5,6,6,7,7,8,8,9,9,10,10,11,11,12,12,13,13,14,14],"right_children":[2,4,6,8,10,12,14,16,18,20,22,24,26,28,30,-1,-1,-1,-1,-1,-1,-1,-1,-1,-1,-1,-1,-1,-1,-1,-1],"split_conditions":[5.535536E-1,6.043725E-1,1.3700138E0,5.0571073E-2,1.2989491E0,8.492916E-1,1.7004731E0,6.8391746E-1,1E0,1.5959456E-16,3.9845002E0,-1.2455997E0,2.3250182E0,2.8510816E0,1.0272932E0,-1.1732286E-3,-2.5531347E-3,1.646583E-4,2.3717019E-3,-3.391076E-3,-0E0,-5.6154677E-3,-0E0,-0E0,2.484607E-3,4.6853255E-3,-0E0,5.9167417E-3,-0E0,-0E0,8.344011E-3],"split_indices":[33,10,33,33,10,9,33,19,28,24,19,10,9,9,9,0,0,0,0,0,0,0,0,0,0,0,0,0,0,0,0],"split_type":[0,0,0,0,0,0,0,0,0,0,0,0,0,0,0,0,0,0,0,0,0,0,0,0,0,0,0,0,0,0,0],"sum_hessian":[7.454325E3,5.415641E3,2.0386841E3,3.8816E3,1.5340409E3,1.285693E3,7.529911E2,2.166209E3,1.7153912E3,9.2755646E2,6.064844E2,8.3298334E2,4.5270963E2,2.7017575E2,4.8281534E2,1.6870503E3,4.7915863E2,1.5260659E3,1.8932533E2,9.0179944E2,2.5757002E1,6.0292303E2,3.5613725E0,3.3300964E1,7.996824E2,4.1661237E2,3.609725E1,2.6150696E2,8.668795E0,6.5697184E0,4.762456E2],"tree_param":{"num_deleted":"0","num_feature":"36","num_nodes":"31","size_leaf_vector":"1"}},{"base_weights":[-2.544508E-3,-1.5965241E-1,3.1187075E-1,-3.4284055E-1,-4.0708207E-2,1.7597069E-1,6.1081374E-1,-4.2125535E-1,-2.5859398E-1,-1.00141004E-1,1.1417478E-2,1.1732384E-1,2.5935933E-1,5.188077E-1,8.2455146E-1,-4.978368E-3,-0E0,-1.5269514E-3,-3.4002466E-3,2.2417237E-3,-1.2497313E-3,3.1176533E-3,2.993999E-6,2.6411745E-3,9.4876124E-4,-1.1702353E-3,3.2253629E-3,3.4851825E-3,6.8952325E-3,-0E0,9.7361E-3],"categories":[],"categories_nodes":[],"categories_segments":[],"categories_sizes":[],"default_left":[0,0,0,0,0,0,0,0,0,0,0,0,0,0,0,0,0,0,0,0,0,0,0,0,0,0,0,0,0,0,0],"id":30,"left_children":[1,3,5,7,9,11,13,15,17,19,21,23,25,27,29,-1,-1,-1,-1,-1,-1,-1,-1,-1,-1,-1,-1,-1,-1,-1,-1],"loss_changes":[3.668617E2,1.0715244E2,9.837404E1,1.1080078E1,9.576715E0,7.3683853E0,1.1512329E1,2.3108826E0,2.9223633E0,2.7267218E0,3.8424554E0,3.2112904E0,4.7003593E0,6.351822E0,2.1469727E0,0E0,0E0,0E0,0E0,0E0,0E0,0E0,0E0,0E0,0E0,0E0,0E0,0E0,0E0,0E0,0E0],"parents":[2147483647,0,0,1,1,2,2,3,3,4,4,5,5,6,6,7,7,8,8,9,9,10,10,11,11,12,12,13,13,14,14],"right_children":[2,4,6,8,10,12,14,16,18,20,22,24,26,28,30,-1,-1,-1,-1,-1,-1,-1,-1,-1,-1,-1,-1,-1,-1,-1,-1],"split_conditions":[2.9562753E-1,-5.541353E-1,1.1655376E0,-1.0863917E0,-1.1679781E-1,3.6947164E-1,2.000403E0,7.911428E-1,-1.0832664E0,-1.5564806E0,-1.7344497E0,-4.0506944E-1,3.4788442E-1,4.6475375E-1,1.3718561E0,-4.978368E-3,-0E0,-1.5269514E-3,-3.4002466E-3,2.2417237E-3,-1.2497313E-3,3.1176533E-3,2.993999E-6,2.6411745E-3,9.4876124E-4,-1.1702353E-3,3.2253629E-3,3.4851825E-3,6.8952325E-3,-0E0,9.7361E-3],"split_indices":[10,10,10,10,10,11,10,11,11,20,15,16,10,21,11,0,0,0,0,0,0,0,0,0,0,0,0,0,0,0,0],"split_type":[0,0,0,0,0,0,0,0,0,0,0,0,0,0,0,0,0,0,0,0,0,0,0,0,0,0,0,0,0,0,0],"sum_hessian":[7.4340864E3,4.962627E3,2.4714595E3,1.9450166E3,3.0176104E3,1.7052621E3,7.6619745E2,9.910463E2,9.5397034E2,1.4327885E3,1.5848219E3,1.0195768E3,6.856853E2,5.4469025E2,2.215072E2,9.778884E2,1.3157873E1,2.119247E2,7.420456E2,2.4841787E1,1.4079467E3,5.6374397E1,1.5284474E3,2.3475652E2,7.848203E2,2.4421658E1,6.612636E2,1.4400021E2,4.0069006E2,2.327976E0,2.1917923E2],"tree_param":{"num_deleted":"0","num_feature":"36","num_nodes":"31","size_leaf_vector":"1"}},{"base_weights":[1.1141474E-3,1.8533763E-2,-2.4725577E-1,6.465842E-2,-9.8422326E-2,-3.7054577E-1,-1.5176028E-1,-2.3852568E-2,8.538892E-2,-5.077397E-2,-2.1354505E-1,-8.9030206E-2,-4.2837328E-1,-1.9355766E-1,-0E0,5.2178575E-4,-9.743072E-4,1.1754723E-3,2.1207886E-4,-1.219749E-3,-1.1387339E-4,-3.1733743E-3,-1.3408412E-3,-3.9752475E-3,2.478553E-4,-5.09398E-3,-0E0,-0E0,-2.8631596E-3,1.2210943E-3,-2.4310187E-3],"categories":[],"categories_nodes":[],"categories_segments":[],"categories_sizes":[],"default_left":[0,0,0,0,0,0,0,0,0,0,0,0,0,0,0,0,0,0,0,0,0,0,0,0,0,0,0,0,0,0,0],"id":31,"left_children":[1,3,5,7,9,11,13,15,17,19,21,23,25,27,29,-1,-1,-1,-1,-1,-1,-1,-1,-1,-1,-1,-1,-1,-1,-1,-1],"loss_changes":[3.153003E1,3.7386154E1,4.2618046E0,9.3274975E0,1.0011591E1,1.8599205E0,1.9178662E0,3.8878424E0,3.9094753E0,2.7845764E0,2.2021866E0,1.968042E0,3.3075142E-1,2.2164516E0,1.1842856E0,0E0,0E0,0E0,0E0,0E0,0E0,0E0,0E0,0E0,0E0,0E0,0E0,0E0,0E0,0E0,0E0],"parents":[2147483647,0,0,1,1,2,2,3,3,4,4,5,5,6,6,7,7,8,8,9,9,10,10,11,11,12,12,13,13,14,14],"right_children":[2,4,6,8,10,12,14,16,18,20,22,24,26,28,30,-1,-1,-1,-1,-1,-1,-1,-1,-1,-1,-1,-1,-1,-1,-1,-1],"split_conditions":[1.4600229E0,5.535536E-1,-2.0015073E0,-6.763065E-1,1.5757238E0,6.8391746E-1,1.8761966E0,3.1317836E-1,1.3801548E0,-5.0090665E-1,-1.7673394E-1,3.428632E-1,4.31841E-2,-1.8478945E-1,1.8289353E-1,5.2178575E-4,-9.743072E-4,1.1754723E-3,2.1207886E-4,-1.219749E-3,-1.1387339E-4,-3.1733743E-3,-1.3408412E-3,-3.9752475E-3,2.478553E-4,-5.09398E-3,-0E0,-0E0,-2.8631596E-3,1.2210943E-3,-2.4310187E-3],"split_indices":[10,33,33,33,33,19,10,7,25,17,13,25,9,8,20,0,0,0,0,0,0,0,0,0,0,0,0,0,0,0,0],"split_type":[0,0,0,0,0,0,0,0,0,0,0,0,0,0,0,0,0,0,0,0,0,0,0,0,0,0,0,0,0,0,0],"sum_hessian":[7.4223037E3,6.9457285E3,4.76575E2,4.9970273E3,1.948701E3,1.9595753E2,2.806175E2,9.248447E2,4.0721829E3,1.3942667E3,5.5443427E2,4.1058075E1,1.5489946E2,2.2358852E2,5.7028973E1,4.1040918E2,5.144355E2,3.2819763E3,7.902066E2,5.758514E2,8.184154E2,3.3124298E2,2.2319125E2,1.9386759E1,2.1671316E1,1.5072493E2,4.1745305E0,4.792808E1,1.7566043E2,4.0301193E1,1.6727781E1],"tree_param":{"num_deleted":"0","num_feature":"36","num_nodes":"31","size_leaf_vector":"1"}},{"base_weights":[9.803909E-3,3.7962744E-1,-1.4418328E-1,5.9401834E-1,2.56955E-1,-4.506449E-2,-3.2937822E-1,4.694324E-1,6.6417754E-1,1.21214576E-1,2.9283026E-1,-1.2571818E-1,4.5449432E-2,-2.6003632E-1,-4.7990218E-1,5.6115338E-3,-0E0,7.872532E-3,-0E0,2.6380417E-3,-0E0,3.5463832E-3,6.215949E-4,-3.8341075E-4,-1.8264176E-3,1.2405037E-3,1.3872042E-4,-2.3401857E-3,-3.6344398E-3,-0E0,-5.670868E-3],"categories":[],"categories_nodes":[],"categories_segments":[],"categories_sizes":[],"default_left":[0,0,0,0,0,0,0,0,0,0,0,0,0,0,0,0,0,0,0,0,0,0,0,0,0,0,0,0,0,0,0],"id":32,"left_children":[1,3,5,7,9,11,13,15,17,19,21,23,25,27,29,-1,-1,-1,-1,-1,-1,-1,-1,-1,-1,-1,-1,-1,-1,-1,-1],"loss_changes":[4.2496292E2,5.5519836E1,9.5522446E1,3.9254456E0,5.7701797E0,2.5269674E1,1.7102707E1,2.030487E0,3.661438E0,3.9289527E0,2.0323334E0,4.762127E0,2.9734309E0,2.533081E0,2.4497986E0,0E0,0E0,0E0,0E0,0E0,0E0,0E0,0E0,0E0,0E0,0E0,0E0,0E0,0E0,0E0,0E0],"parents":[2147483647,0,0,1,1,2,2,3,3,4,4,5,5,6,6,7,7,8,8,9,9,10,10,11,11,12,12,13,13,14,14],"right_children":[2,4,6,8,10,12,14,16,18,20,22,24,26,28,30,-1,-1,-1,-1,-1,-1,-1,-1,-1,-1,-1,-1,-1,-1,-1,-1],"split_conditions":[-4.9954578E-1,-1.3408561E0,4.814092E-1,1.7004731E0,8.299262E-3,4.3008562E-2,1.3389043E0,8.496274E-1,3.2064542E-1,-4.0506944E-1,8.7738895E-1,-4.0506944E-1,-2.2064728E-1,4.0397665E-1,3.8488436E-1,5.6115338E-3,-0E0,7.872532E-3,-0E0,2.6380417E-3,-0E0,3.5463832E-3,6.215949E-4,-3.8341075E-4,-1.8264176E-3,1.2405037E-3,1.3872042E-4,-2.3401857E-3,-3.6344398E-3,-0E0,-5.670868E-3],"split_indices":[10,10,10,33,9,33,10,11,11,16,11,16,12,11,11,0,0,0,0,0,0,0,0,0,0,0,0,0,0,0,0],"split_type":[0,0,0,0,0,0,0,0,0,0,0,0,0,0,0,0,0,0,0,0,0,0,0,0,0,0,0,0,0,0,0],"sum_hessian":[7.451141E3,2.1952083E3,5.2559326E3,7.909395E2,1.4042687E3,3.432818E3,1.8231147E3,2.9888437E2,4.9205518E2,3.0872766E2,1.095541E3,1.8301724E3,1.6026456E3,1.2603129E3,5.6280194E2,2.9326776E2,5.616626E0,4.844201E2,7.63507E0,1.6524904E2,1.4347862E2,1.0361443E3,5.93968E1,4.776467E2,1.3525258E3,5.4195E2,1.0606956E3,6.095993E2,6.507135E2,4.2027655E0,5.585992E2],"tree_param":{"num_deleted":"0","num_feature":"36","num_nodes":"31","size_leaf_vector":"1"}},{"base_weights":[3.3322495E-4,-1.4687157E-1,3.3307144E-1,-3.2821128E-1,-4.0225927E-2,2.1584085E-1,6.59003E-1,-4.5896456E-1,-2.598951E-1,-1.07445076E-1,1.3489359E-2,8.444945E-2,2.8896528E-1,5.594555E-1,8.282055E-1,-5.3956243E-3,-0E0,-1.6724914E-3,-3.4132563E-3,6.304646E-4,-1.4287428E-3,1.7460869E-3,1.9200976E-5,-0E0,1.3829038E-3,-0E0,3.421883E-3,4.020434E-3,7.260346E-3,-0E0,9.840188E-3],"categories":[],"categories_nodes":[],"categories_segments":[],"categories_sizes":[],"default_left":[0,0,0,0,0,0,0,0,0,0,0,0,0,0,0,0,0,0,0,0,0,0,0,0,0,0,0,0,0,0,0],"id":33,"left_children":[1,3,5,7,9,11,13,15,17,19,21,23,25,27,29,-1,-1,-1,-1,-1,-1,-1,-1,-1,-1,-1,-1,-1,-1,-1,-1],"loss_changes":[3.6300684E2,9.818633E1,8.46642E1,1.5002792E1,1.1928614E1,1.5176323E1,6.354767E0,1.6516266E0,3.6602478E0,3.7251492E0,2.4816325E0,1.5525293E0,2.00206E0,2.6856155E0,3.3828583E0,0E0,0E0,0E0,0E0,0E0,0E0,0E0,0E0,0E0,0E0,0E0,0E0,0E0,0E0,0E0,0E0],"parents":[2147483647,0,0,1,1,2,2,3,3,4,4,5,5,6,6,7,7,8,8,9,9,10,10,11,11,12,12,13,13,14,14],"right_children":[2,4,6,8,10,12,14,16,18,20,22,24,26,28,30,-1,-1,-1,-1,-1,-1,-1,-1,-1,-1,-1,-1,-1,-1,-1,-1],"split_conditions":[3.4788442E-1,-5.6593096E-1,1.3389043E0,-1.4343117E0,-1.1679781E-1,5.9796743E-2,2.000403E0,7.911428E-1,-1.0696383E0,-1.188915E0,-1.4373648E0,5.551115E-17,-1.4042234E0,4.6475375E-1,1.4193561E0,-5.3956243E-3,-0E0,-1.6724914E-3,-3.4132563E-3,6.304646E-4,-1.4287428E-3,1.7460869E-3,1.9200976E-5,-0E0,1.3829038E-3,-0E0,3.421883E-3,4.020434E-3,7.260346E-3,-0E0,9.840188E-3],"split_indices":[10,10,10,10,10,11,10,11,11,11,15,34,17,21,11,0,0,0,0,0,0,0,0,0,0,0,0,0,0,0,0],"split_type":[0,0,0,0,0,0,0,0,0,0,0,0,0,0,0,0,0,0,0,0,0,0,0,0,0,0,0,0,0,0,0],"sum_hessian":[7.4009233E3,5.125744E3,2.275179E3,1.8890393E3,3.2367048E3,1.6794481E3,5.957309E2,6.34856E2,1.2541832E3,1.4586714E3,1.7780336E3,6.1321826E2,1.0662299E3,3.853707E2,2.1036017E2,6.325433E2,2.31273E0,2.9279846E2,9.613848E2,1.0984994E2,1.3488214E3,1.2466583E2,1.6533678E3,1.9188052E2,4.213377E2,8.734489E0,1.0574954E3,9.711584E1,2.8825485E2,2.9224715E0,2.0743768E2],"tree_param":{"num_deleted":"0","num_feature":"36","num_nodes":"31","size_leaf_vector":"1"}},{"base_weights":[-3.2637815E-3,-1.9365515E-1,2.0795356E-2,-2.3392336E-1,-7.5026594E-2,-1.7578967E-1,4.9742427E-2,-0E0,-2.4545734E-1,-6.575261E-3,-3.4433454E-1,-3.156042E-1,-1.270078E-1,5.903499E-2,-1.8799271E-2,-2.2795938E-3,3.0738849E-3,-2.9527063E-3,-0E0,3.757647E-4,-1.546458E-3,-0E0,-6.4447057E-3,-0E0,-4.141148E-3,-2.4414565E-3,-4.5505862E-4,7.2323915E-4,-1.8902721E-3,-6.066262E-4,1.37857E-3],"categories":[],"categories_nodes":[],"categories_segments":[],"categories_sizes":[],"default_left":[0,0,0,0,0,0,0,0,0,0,0,0,0,0,0,0,0,0,0,0,0,0,0,0,0,0,0,0,0,0,0],"id":34,"left_children":[1,3,5,7,9,11,13,15,17,19,21,23,25,27,29,-1,-1,-1,-1,-1,-1,-1,-1,-1,-1,-1,-1,-1,-1,-1,-1],"loss_changes":[3.4419037E1,3.2366447E0,3.708631E1,1.7900543E0,3.3495681E0,4.533369E0,3.7600422E0,1.43877E0,8.5998154E-1,1.1948118E0,4.0466633E0,2.1296482E0,3.9343042E0,3.0965557E0,2.8028626E0,0E0,0E0,0E0,0E0,0E0,0E0,0E0,0E0,0E0,0E0,0E0,0E0,0E0,0E0,0E0,0E0],"parents":[2147483647,0,0,1,1,2,2,3,3,4,4,5,5,6,6,7,7,8,8,9,9,10,10,11,11,12,12,13,13,14,14],"right_children":[2,4,6,8,10,12,14,16,18,20,22,24,26,28,30,-1,-1,-1,-1,-1,-1,-1,-1,-1,-1,-1,-1,-1,-1,-1,-1],"split_conditions":[-1.2455997E0,5.687623E-1,-1.0499376E0,-1.7053291E0,2.3667145E0,-2.0015073E0,1E0,-1.8789711E0,1E0,4.024102E-1,5.551115E-17,4.024102E-1,-2.5516874E-1,2.2168674E0,9.0278214E-1,-2.2795938E-3,3.0738849E-3,-2.9527063E-3,-0E0,3.757647E-4,-1.546458E-3,-0E0,-6.4447057E-3,-0E0,-4.141148E-3,-2.4414565E-3,-4.5505862E-4,7.2323915E-4,-1.8902721E-3,-6.066262E-4,1.37857E-3],"split_indices":[10,8,33,17,18,33,2,10,27,17,34,17,18,21,21,0,0,0,0,0,0,0,0,0,0,0,0,0,0,0,0],"split_type":[0,0,0,0,0,0,0,0,0,0,0,0,0,0,0,0,0,0,0,0,0,0,0,0,0,0,0,0,0,0,0],"sum_hessian":[7.416907E3,8.438029E2,6.5731045E3,6.1365125E2,2.3015163E2,8.321258E2,5.7409785E3,2.6631502E1,5.870198E2,1.9131969E2,3.883194E1,2.0126012E2,6.3086566E2,5.0884756E3,6.5250275E2,1.4148539E1,1.2482963E1,5.651934E2,2.1826317E1,1.3092757E2,6.039212E1,1.067766E1,2.815428E1,2.5422667E1,1.7583745E2,3.1069147E2,3.2017416E2,5.0324985E3,5.597742E1,5.403554E2,1.1214734E2],"tree_param":{"num_deleted":"0","num_feature":"36","num_nodes":"31","size_leaf_vector":"1"}},{"base_weights":[7.468619E-4,3.6728016E-1,-1.4991094E-1,5.9905875E-1,2.3959208E-1,-8.248108E-2,-3.9693654E-1,9.479142E-3,5.520061E-1,1.7747505E-1,3.5802615E-1,1.680292E-2,-1.451488E-1,-3.0372104E-1,-4.83861E-1,-0E0,6.4971624E-3,3.0785094E-3,1.4777693E-3,4.6526785E-3,6.290052E-5,-4.0085797E-4,5.7870365E-4,-1.3796745E-3,-2.5686743E-3,-1.9329163E-3,-4.282201E-3,-5.6768637E-3,-0E0],"categories":[],"categories_nodes":[],"categories_segments":[],"categories_sizes":[],"default_left":[0,0,0,0,0,0,0,0,0,0,0,0,0,0,0,0,0,0,0,0,0,0,0,0,0,0,0,0,0],"id":35,"left_children":[1,3,5,7,9,11,13,-1,15,17,19,21,23,25,27,-1,-1,-1,-1,-1,-1,-1,-1,-1,-1,-1,-1,-1,-1],"loss_changes":[4.124862E2,6.2269745E1,8.6740776E1,4.0840454E0,8.998566E0,2.6197462E1,7.052826E0,0E0,2.8408508E0,3.1218376E0,5.7629356E0,2.7151158E0,4.297886E0,3.499836E0,9.2118835E-1,0E0,0E0,0E0,0E0,0E0,0E0,0E0,0E0,0E0,0E0,0E0,0E0,0E0,0E0],"parents":[2147483647,0,0,1,1,2,2,3,3,4,4,5,5,6,6,8,8,9,9,10,10,11,11,12,12,13,13,14,14],"right_children":[2,4,6,8,10,12,14,-1,16,18,20,22,24,26,28,-1,-1,-1,-1,-1,-1,-1,-1,-1,-1,-1,-1,-1,-1],"split_conditions":[-4.9954578E-1,-1.3700138E0,8.3361644E-1,-2.381898E0,8.492916E-1,-4.2629983E-2,1.3389043E0,9.479142E-3,-7.9920655E-1,-8.0201226E-1,-6.559365E-1,-3.0219367E-1,6.83768E-1,-9.6855706E-1,4.204539E0,-0E0,6.4971624E-3,3.0785094E-3,1.4777693E-3,4.6526785E-3,6.290052E-5,-4.0085797E-4,5.7870365E-4,-1.3796745E-3,-2.5686743E-3,-1.9329163E-3,-4.282201E-3,-5.6768637E-3,-0E0],"split_indices":[35,35,35,35,9,35,35,0,12,17,35,35,21,9,19,0,0,0,0,0,0,0,0,0,0,0,0,0,0],"split_type":[0,0,0,0,0,0,0,0,0,0,0,0,0,0,0,0,0,0,0,0,0,0,0,0,0,0,0,0,0],"sum_hessian":[7.459072E3,2.1776543E3,5.2814175E3,7.660394E2,1.4116149E3,4.157343E3,1.1240747E3,1.27568855E2,6.384706E2,9.4060583E2,4.7100897E2,1.59298E3,2.5643628E3,5.5723944E2,5.6683527E2,2.4285545E0,6.36042E2,3.2883282E2,6.11773E2,4.1551706E2,5.5491917E1,5.9193854E2,1.00104144E3,1.9145609E3,6.4980194E2,1.8854028E2,3.6869916E2,5.6402075E2,2.8145268E0],"tree_param":{"num_deleted":"0","num_feature":"36","num_nodes":"29","size_leaf_vector":"1"}},{"base_weights":[-2.0713813E-3,-1.24632575E-1,4.0051606E-1,-2.9051048E-1,3.0898005E-3,2.7189577E-1,6.3548595E-1,-4.19884E-1,-2.0389472E-1,-9.4223425E-2,4.127964E-2,1.6316484E-1,3.3476564E-1,5.3444463E-1,7.999459E-1,-6.1117527E-3,-4.4455826E-3,-1.4640198E-3,-2.9921306E-3,1.1794353E-3,-1.2711273E-3,3.0566237E-4,1.9336203E-3,-0E0,2.3134423E-3,2.4918236E-3,4.4694594E-3,4.27774E-3,7.0530027E-3,-0E0,9.51724E-3],"categories":[],"categories_nodes":[],"categories_segments":[],"categories_sizes":[],"default_left":[0,0,0,0,0,0,0,0,0,0,0,0,0,0,0,0,0,0,0,0,0,0,0,0,0,0,0,0,0,0,0],"id":36,"left_children":[1,3,5,7,9,11,13,15,17,19,21,23,25,27,29,-1,-1,-1,-1,-1,-1,-1,-1,-1,-1,-1,-1,-1,-1,-1,-1],"loss_changes":[3.674185E2,1.2201428E2,5.0103973E1,2.6381943E1,1.1853679E1,6.4323883E0,6.548584E0,1.6176453E0,5.240986E0,2.591454E0,3.890628E0,2.7621975E0,2.5605774E0,2.0052109E0,2.7145538E0,0E0,0E0,0E0,0E0,0E0,0E0,0E0,0E0,0E0,0E0,0E0,0E0,0E0,0E0,0E0,0E0],"parents":[2147483647,0,0,1,1,2,2,3,3,4,4,5,5,6,6,7,7,8,8,9,9,10,10,11,11,12,12,13,13,14,14],"right_children":[2,4,6,8,10,12,14,16,18,20,22,24,26,28,30,-1,-1,-1,-1,-1,-1,-1,-1,-1,-1,-1,-1,-1,-1,-1,-1],"split_conditions":[5.523495E-1,-3.593757E-1,1.3389043E0,-1.0863917E0,-1.1679781E-1,2.4383979E-1,2.000403E0,-2.0433154E0,1.3570999E-1,-8.582133E-1,1.1217964E0,6.173573E-1,1.2912561E-1,6.8391746E-1,-4.0506944E-1,-6.1117527E-3,-4.4455826E-3,-1.4640198E-3,-2.9921306E-3,1.1794353E-3,-1.2711273E-3,3.0566237E-4,1.9336203E-3,-0E0,2.3134423E-3,2.4918236E-3,4.4694594E-3,4.27774E-3,7.0530027E-3,-0E0,9.51724E-3],"split_indices":[10,10,10,10,10,19,10,10,9,9,21,10,7,19,16,0,0,0,0,0,0,0,0,0,0,0,0,0,0,0,0],"split_type":[0,0,0,0,0,0,0,0,0,0,0,0,0,0,0,0,0,0,0,0,0,0,0,0,0,0,0,0,0,0,0],"sum_hessian":[7.4601494E3,5.724096E3,1.736053E3,2.4986582E3,3.225438E3,1.1293628E3,6.066901E2,9.8971674E2,1.5089414E3,8.900476E2,2.3353906E3,4.290588E2,7.00304E2,3.8620105E2,2.2048907E2,2.4928964E2,7.404271E2,6.2634576E2,8.8259564E2,5.025102E1,8.397966E2,2.1018706E3,2.3351984E2,6.863814E1,3.6042065E2,2.1565306E2,4.8465097E2,1.2537E2,2.6083105E2,4.539612E0,2.1594946E2],"tree_param":{"num_deleted":"0","num_feature":"36","num_nodes":"31","size_leaf_vector":"1"}},{"base_weights":[-8.124668E-3,-1.9462863E-1,1.2970306E-2,-4.955638E-2,-2.6533192E-1,3.903217E-2,-1.937686E-1,-0E0,-1.7190535E-1,-3.7042606E-1,-2.0946814E-1,-1.7842379E-1,4.427923E-2,-1.5940021E-1,-3.7966278E-1,-7.817421E-4,9.947214E-4,-3.395774E-3,-0E0,-4.658204E-3,-0E0,-2.5238022E-3,-0E0,7.117946E-4,-3.3432387E-3,-1.7717478E-4,7.485115E-4,-2.4735655E-3,-0E0,-0E0,-4.769907E-3],"categories":[],"categories_nodes":[],"categories_segments":[],"categories_sizes":[],"default_left":[0,0,0,0,0,0,0,0,0,0,0,0,0,0,0,0,0,0,0,0,0,0,0,0,0,0,0,0,0,0,0],"id":37,"left_children":[1,3,5,7,9,11,13,15,17,19,21,23,25,27,29,-1,-1,-1,-1,-1,-1,-1,-1,-1,-1,-1,-1,-1,-1,-1,-1],"loss_changes":[2.9896973E1,7.1140366E0,3.5751896E1,1.65363E0,1.4730492E0,6.4694443E0,3.3315125E0,1.0789843E0,2.2523882E0,1.5166206E0,9.0208626E-1,3.9307103E0,7.0367575E0,4.9608974E0,1.3738155E0,0E0,0E0,0E0,0E0,0E0,0E0,0E0,0E0,0E0,0E0,0E0,0E0,0E0,0E0,0E0,0E0],"parents":[2147483647,0,0,1,1,2,2,3,3,4,4,5,5,6,6,7,7,8,8,9,9,10,10,11,11,12,12,13,13,14,14],"right_children":[2,4,6,8,10,12,14,16,18,20,22,24,26,28,30,-1,-1,-1,-1,-1,-1,-1,-1,-1,-1,-1,-1,-1,-1,-1,-1],"split_conditions":[-1.1087539E0,6.8391746E-1,1.3408561E0,-4.5644507E-1,-2.0015073E0,-1.7344497E0,2.3667145E0,-5.099269E-1,6.4719164E-1,6.187923E-1,1E0,-9.5922E-1,-4.769115E-1,5.687623E-1,1.4343117E0,-7.817421E-4,9.947214E-4,-3.395774E-3,-0E0,-4.658204E-3,-0E0,-2.5238022E-3,-0E0,7.117946E-4,-3.3432387E-3,-1.7717478E-4,7.485115E-4,-2.4735655E-3,-0E0,-0E0,-4.769907E-3],"split_indices":[33,19,33,9,33,15,18,12,12,18,1,9,35,8,33,0,0,0,0,0,0,0,0,0,0,0,0,0,0,0,0],"split_type":[0,0,0,0,0,0,0,0,0,0,0,0,0,0,0,0,0,0,0,0,0,0,0,0,0,0,0,0,0,0,0],"sum_hessian":[7.4804526E3,7.7220233E2,6.7082505E3,2.6504672E2,5.071556E2,5.968466E3,7.397846E2,1.8732774E2,7.771897E1,1.595579E2,3.4759772E2,1.289083E2,5.8395576E3,6.364225E2,1.0336212E2,1.0321484E2,8.41129E1,5.3472843E1,2.4246124E1,1.4671184E2,1.2846074E1,3.449436E2,2.6540883E0,3.2808548E1,9.609975E1,1.4318728E3,4.4076846E3,4.6965326E2,1.6676923E2,6.114899E0,9.724722E1],"tree_param":{"num_deleted":"0","num_feature":"36","num_nodes":"31","size_leaf_vector":"1"}},{"base_weights":[-3.7003618E-3,3.6788654E-1,-1.566842E-1,5.879098E-1,2.597838E-1,-7.118939E-2,-3.4815595E-1,5.9428257E-1,-0E0,2.0744951E-1,3.7443873E-1,-1.3728961E-1,1.364379E-2,-2.7395806E-1,-4.802588E-1,5.7438784E-3,7.6973964E-3,2.1348272E-3,5.6619267E-3,4.8087146E-3,6.540405E-5,-5.732928E-4,-1.9263397E-3,-2.730103E-5,1.9104113E-3,-0E0,-3.2590355E-3,-0E0,-5.65196E-3],"categories":[],"categories_nodes":[],"categories_segments":[],"categories_sizes":[],"default_left":[0,0,0,0,0,0,0,0,0,0,0,0,0,0,0,0,0,0,0,0,0,0,0,0,0,0,0,0,0],"id":38,"left_children":[1,3,5,7,9,11,13,15,-1,17,19,21,23,25,27,-1,-1,-1,-1,-1,-1,-1,-1,-1,-1,-1,-1,-1,-1],"loss_changes":[4.247631E2,4.9567688E1,8.575452E1,3.5677948E0,7.2979355E0,2.0934113E1,1.3990555E1,1.6672058E0,0E0,5.211521E0,5.137638E0,4.568615E0,4.2380157E0,1.8290176E0,1.488327E0,0E0,0E0,0E0,0E0,0E0,0E0,0E0,0E0,0E0,0E0,0E0,0E0,0E0,0E0],"parents":[2147483647,0,0,1,1,2,2,3,3,4,4,5,5,6,6,7,7,9,9,10,10,11,11,12,12,13,13,14,14],"right_children":[2,4,6,8,10,12,14,16,-1,18,20,22,24,26,28,-1,-1,-1,-1,-1,-1,-1,-1,-1,-1,-1,-1,-1,-1],"split_conditions":[-4.9954578E-1,-1.3957404E0,5.650266E-1,7.423159E-1,9.255105E-1,4.3008562E-2,1.3389043E0,1.9546995E0,-0E0,-2.2531648E-1,1E0,-4.0506944E-1,1E0,-1.6256167E0,3.8488436E-1,5.7438784E-3,7.6973964E-3,2.1348272E-3,5.6619267E-3,4.8087146E-3,6.540405E-5,-5.732928E-4,-1.9263397E-3,-2.730103E-5,1.9104113E-3,-0E0,-3.2590355E-3,-0E0,-5.65196E-3],"split_indices":[10,10,10,11,9,33,10,9,0,11,27,16,2,9,11,0,0,0,0,0,0,0,0,0,0,0,0,0,0],"split_type":[0,0,0,0,0,0,0,0,0,0,0,0,0,0,0,0,0,0,0,0,0,0,0,0,0,0,0,0,0],"sum_hessian":[7.4809917E3,2.1767324E3,5.3042593E3,7.08915E2,1.4678174E3,3.676438E3,1.6278214E3,7.038887E2,5.026286E0,1.02368396E3,4.441334E2,2.0832192E3,1.5932189E3,1.0553322E3,5.7248926E2,2.9236676E2,4.115219E2,9.499747E2,7.370928E1,3.964556E2,4.7677807E1,5.2285754E2,1.5603616E3,1.4247928E3,1.6842607E2,1.7561047E1,1.0377711E3,3.9035134E0,5.6858575E2],"tree_param":{"num_deleted":"0","num_feature":"36","num_nodes":"29","size_leaf_vector":"1"}},{"base_weights":[3.39683E-3,-1.23131394E-1,3.8703167E-1,-3.202482E-1,-1.6749673E-2,2.5441292E-1,6.4544433E-1,-4.6429288E-1,-2.7054188E-1,-1.1144915E-1,4.3929074E-2,1.780572E-1,2.9010034E-1,5.502081E-1,8.107195E-1,-0E0,-5.434391E-3,-1.2535776E-3,-3.487817E-3,1.7513827E-3,-1.4493557E-3,3.6578102E-3,4.5494814E-4,2.3990814E-3,-0E0,1.3914701E-3,3.5850587E-3,6.5149968E-3,-0E0,-0E0,9.674765E-3],"categories":[],"categories_nodes":[],"categories_segments":[],"categories_sizes":[],"default_left":[0,0,0,0,0,0,0,0,0,0,0,0,0,0,0,0,0,0,0,0,0,0,0,0,0,0,0,0,0,0,0],"id":39,"left_children":[1,3,5,7,9,11,13,15,17,19,21,23,25,27,29,-1,-1,-1,-1,-1,-1,-1,-1,-1,-1,-1,-1,-1,-1,-1,-1],"loss_changes":[3.6020822E2,1.158285E2,6.077704E1,1.1989044E1,2.0992756E1,2.123436E0,6.116333E0,1.8151093E-1,5.727585E0,4.740555E0,2.0031753E0,2.2268066E0,1.292717E0,1.403328E0,3.6836853E0,0E0,0E0,0E0,0E0,0E0,0E0,0E0,0E0,0E0,0E0,0E0,0E0,0E0,0E0,0E0,0E0],"parents":[2147483647,0,0,1,1,2,2,3,3,4,4,5,5,6,6,7,7,8,8,9,9,10,10,11,11,12,12,13,13,14,14],"right_children":[2,4,6,8,10,12,14,16,18,20,22,24,26,28,30,-1,-1,-1,-1,-1,-1,-1,-1,-1,-1,-1,-1,-1,-1,-1,-1],"split_conditions":[5.020926E-1,-5.541353E-1,1.3389043E0,-1.6570181E0,-1.1679781E-1,6.8922186E-1,2.000403E0,-9.106395E-1,-1.4994337E-3,-8.582133E-1,-1.0716604E-1,1E0,3.3174926E-1,1.3976679E0,-1.6256167E0,-0E0,-5.434391E-3,-1.2535776E-3,-3.487817E-3,1.7513827E-3,-1.4493557E-3,3.6578102E-3,4.5494814E-4,2.3990814E-3,-0E0,1.3914701E-3,3.5850587E-3,6.5149968E-3,-0E0,-0E0,9.674765E-3],"split_indices":[10,10,10,10,10,10,10,18,9,9,10,2,22,26,9,0,0,0,0,0,0,0,0,0,0,0,0,0,0,0,0],"split_type":[0,0,0,0,0,0,0,0,0,0,0,0,0,0,0,0,0,0,0,0,0,0,0,0,0,0,0,0,0,0,0],"sum_hessian":[7.406273E3,5.5645366E3,1.8417363E3,1.9418368E3,3.6227E3,1.2240316E3,6.1770465E2,4.8434885E2,1.4574879E3,1.4311194E3,2.1915803E3,4.132598E2,8.1077185E2,4.0250308E2,2.1520158E2,2.6169221E0,4.8173193E2,2.304758E2,1.2270121E3,5.739333E1,1.3737261E3,2.9628977E1,2.1619514E3,3.621995E2,5.1060307E1,8.834533E1,7.224265E2,3.94976E2,7.527062E0,4.3110123E0,2.1089058E2],"tree_param":{"num_deleted":"0","num_feature":"36","num_nodes":"31","size_leaf_vector":"1"}},{"base_weights":[2.0688514E-3,-2.0416234E-1,2.3464423E-2,-2.4251102E-1,-8.325257E-2,-1.716141E-1,4.916641E-2,-2.529559E-1,-0E0,-6.3837E-3,-2.7842373E-1,-3.3119053E-1,-1.1213019E-1,6.470285E-2,-1.19218705E-2,-4.501592E-3,-2.532058E-3,3.7940356E-3,-7.331313E-4,4.686319E-4,-3.087954E-3,-3.9578783E-3,-0E0,-0E0,-4.0562125E-3,-0E0,-1.5761951E-3,-2.256574E-4,8.5755665E-4,-6.862165E-4,4.2420375E-4],"categories":[],"categories_nodes":[],"categories_segments":[],"categories_sizes":[],"default_left":[0,0,0,0,0,0,0,0,0,0,0,0,0,0,0,0,0,0,0,0,0,0,0,0,0,0,0,0,0,0,0],"id":40,"left_children":[1,3,5,7,9,11,13,15,17,19,21,23,25,27,29,-1,-1,-1,-1,-1,-1,-1,-1,-1,-1,-1,-1,-1,-1,-1,-1],"loss_changes":[3.232502E1,2.347025E0,3.3500156E1,1.4737072E0,2.0009546E0,6.1973133E0,5.8015747E0,7.5839233E-1,5.774018E-1,2.2652624E0,8.6105466E-1,1.6732082E0,1.6209116E0,3.6946812E0,2.7257369E0,0E0,0E0,0E0,0E0,0E0,0E0,0E0,0E0,0E0,0E0,0E0,0E0,0E0,0E0,0E0,0E0],"parents":[2147483647,0,0,1,1,2,2,3,3,4,4,5,5,6,6,7,7,8,8,9,9,10,10,11,11,12,12,13,13,14,14],"right_children":[2,4,6,8,10,12,14,16,18,20,22,24,26,28,30,-1,-1,-1,-1,-1,-1,-1,-1,-1,-1,-1,-1,-1,-1,-1,-1],"split_conditions":[-1.3957404E0,5.687623E-1,-1.1087539E0,1.5959456E-16,2.148224E0,-2.0015073E0,5.913629E-1,-2.381898E0,-1.7175047E-1,1E0,2.2907832E-1,-1.6256167E0,1.3159653E-2,-1.3777659E0,-1.7673394E-1,-4.501592E-3,-2.532058E-3,3.7940356E-3,-7.331313E-4,4.686319E-4,-3.087954E-3,-3.9578783E-3,-0E0,-0E0,-4.0562125E-3,-0E0,-1.5761951E-3,-2.256574E-4,8.5755665E-4,-6.862165E-4,4.2420375E-4],"split_indices":[10,8,33,24,18,33,33,10,7,6,11,9,16,12,13,0,0,0,0,0,0,0,0,0,0,0,0,0,0,0,0],"split_type":[0,0,0,0,0,0,0,0,0,0,0,0,0,0,0,0,0,0,0,0,0,0,0,0,0,0,0,0,0,0,0],"sum_hessian":[7.4300684E3,6.8691016E2,6.743158E3,5.052191E2,1.8169107E2,7.7321954E2,5.9699385E3,4.8736624E2,1.7852858E1,1.3997098E2,4.1720093E1,1.9792258E2,5.75297E2,4.7928506E3,1.177088E3,8.771919E1,3.9964703E2,4.663834E0,1.3189024E1,1.104143E2,2.9556686E1,3.5465466E1,6.254628E0,4.633815E0,1.9328877E2,9.060913E1,4.8468784E2,4.2786847E2,4.364982E3,6.239047E2,5.531832E2],"tree_param":{"num_deleted":"0","num_feature":"36","num_nodes":"31","size_leaf_vector":"1"}},{"base_weights":[-3.2195675E-3,-1.5283397E-1,3.5471007E-1,-3.1672925E-1,-3.9672654E-2,2.3703721E-1,5.833159E-1,-2.5588655E-1,-4.7980872E-1,-1.0842406E-1,2.3424907E-2,1.8716471E-1,3.681482E-1,5.938078E-1,-0E0,-2.6595893E-3,-4.128695E-3,-0E0,-5.6420346E-3,-8.165807E-4,-2.9288034E-3,4.9101224E-4,-1.509283E-3,2.3020708E-3,-1.3588475E-4,4.978974E-3,4.8265536E-4,7.871775E-3,5.7605156E-3,8.487383E-5,-1.6406728E-3],"categories":[],"categories_nodes":[],"categories_segments":[],"categories_sizes":[],"default_left":[0,0,0,0,0,0,0,0,0,0,0,0,0,0,0,0,0,0,0,0,0,0,0,0,0,0,0,0,0,0,0],"id":41,"left_children":[1,3,5,7,9,11,13,15,17,19,21,23,25,27,29,-1,-1,-1,-1,-1,-1,-1,-1,-1,-1,-1,-1,-1,-1,-1,-1],"loss_changes":[3.9980725E2,9.695308E1,5.7004883E1,1.9375473E1,1.3801342E1,8.101662E0,5.025696E0,2.7908096E0,1.022171E0,7.4926453E0,4.3836536E0,2.6538239E0,6.240837E0,2.8121643E0,1.24756046E-1,0E0,0E0,0E0,0E0,0E0,0E0,0E0,0E0,0E0,0E0,0E0,0E0,0E0,0E0,0E0,0E0],"parents":[2147483647,0,0,1,1,2,2,3,3,4,4,5,5,6,6,7,7,8,8,9,9,10,10,11,11,12,12,13,13,14,14],"right_children":[2,4,6,8,10,12,14,16,18,20,22,24,26,28,30,-1,-1,-1,-1,-1,-1,-1,-1,-1,-1,-1,-1,-1,-1,-1,-1],"split_conditions":[4.9950972E-1,-3.679814E-1,1.3957404E0,1.3389043E0,4.3008562E-2,-2.2531648E-1,6.7434376E-1,9.817491E-1,-7.655734E-1,6.83768E-1,2.5819933E-1,-2.8798926E-1,8.1842846E-1,1E0,1.1606163E0,-2.6595893E-3,-4.128695E-3,-0E0,-5.6420346E-3,-8.165807E-4,-2.9288034E-3,4.9101224E-4,-1.509283E-3,2.3020708E-3,-1.3588475E-4,4.978974E-3,4.8265536E-4,7.871775E-3,5.7605156E-3,8.487383E-5,-1.6406728E-3],"split_indices":[33,33,33,10,33,11,11,11,13,21,11,11,11,5,14,0,0,0,0,0,0,0,0,0,0,0,0,0,0,0,0],"split_type":[0,0,0,0,0,0,0,0,0,0,0,0,0,0,0,0,0,0,0,0,0,0,0,0,0,0,0,0,0,0,0],"sum_hessian":[7.4749194E3,5.2766123E3,2.1983074E3,2.1457385E3,3.130874E3,1.4590532E3,7.3925397E2,1.5746793E3,5.7105914E2,1.5176151E3,1.6132588E3,1.0716365E3,3.8741684E2,7.27604E2,1.1649969E1,1.2476122E3,3.2706708E2,4.9264374E0,5.661327E2,1.2102286E3,3.073866E2,1.4526974E3,1.6056143E2,1.031487E3,4.014936E1,3.2165738E2,6.575946E1,3.864419E2,3.411621E2,5.6507425E0,5.999227E0],"tree_param":{"num_deleted":"0","num_feature":"36","num_nodes":"31","size_leaf_vector":"1"}},{"base_weights":[-0E0,3.9422104E-1,-1.18532166E-1,2.6391995E-1,6.3352203E-1,-1.2557943E-2,-3.2365486E-1,1.6168089E-1,3.4232578E-1,8.0433863E-1,5.3194606E-1,-1.0745023E-1,4.3491434E-2,-1.5409216E-1,-3.708182E-1,2.0782987E-3,-5.440147E-4,3.1384756E-3,4.924498E-3,-0E0,9.595756E-3,3.6505759E-3,6.923142E-3,4.5520454E-5,-1.5561805E-3,9.502486E-4,3.769352E-5,-0E0,-2.132473E-3,-3.806894E-3,-5.3596953E-3],"categories":[],"categories_nodes":[],"categories_segments":[],"categories_sizes":[],"default_left":[0,0,0,0,0,0,0,0,0,0,0,0,0,0,0,0,0,0,0,0,0,0,0,0,0,0,0,0,0,0,0],"id":42,"left_children":[1,3,5,7,9,11,13,15,17,19,21,23,25,27,29,-1,-1,-1,-1,-1,-1,-1,-1,-1,-1,-1,-1,-1,-1,-1,-1],"loss_changes":[3.460655E2,5.1066956E1,1.22692345E2,7.644226E0,6.8115845E0,2.0142832E1,1.4058517E1,2.0569973E0,1.8114471E0,3.7888184E0,2.8167648E0,4.4158783E0,3.3687472E0,1.983511E0,3.8420258E0,0E0,0E0,0E0,0E0,0E0,0E0,0E0,0E0,0E0,0E0,0E0,0E0,0E0,0E0,0E0,0E0],"parents":[2147483647,0,0,1,1,2,2,3,3,4,4,5,5,6,6,7,7,8,8,9,9,10,10,11,11,12,12,13,13,14,14],"right_children":[2,4,6,8,10,12,14,16,18,20,22,24,26,28,30,-1,-1,-1,-1,-1,-1,-1,-1,-1,-1,-1,-1,-1,-1,-1,-1],"split_conditions":[-5.524082E-1,1.3389043E0,5.535536E-1,4.2319164E-1,-2.0015073E0,-1.1679781E-1,3.6495852E-1,3.8488436E-1,1.0009449E0,1.4193561E0,4.6387863E-1,-9.475265E-1,-1.7493206E-1,-6.921493E-1,1.6570181E0,2.0782987E-3,-5.440147E-4,3.1384756E-3,4.924498E-3,-0E0,9.595756E-3,3.6505759E-3,6.923142E-3,4.5520454E-5,-1.5561805E-3,9.502486E-4,3.769352E-5,-0E0,-2.132473E-3,-3.806894E-3,-5.3596953E-3],"split_indices":[33,10,33,11,33,10,9,11,13,11,19,11,33,18,33,0,0,0,0,0,0,0,0,0,0,0,0,0,0,0,0],"split_type":[0,0,0,0,0,0,0,0,0,0,0,0,0,0,0,0,0,0,0,0,0,0,0,0,0,0,0,0,0,0,0],"sum_hessian":[7.396202E3,1.71265E3,5.6835522E3,1.1161813E3,5.9646875E2,3.755894E3,1.9276581E3,4.990072E2,6.1717413E2,2.1228612E2,3.841826E2,1.4115337E3,2.34436E3,4.3156595E2,1.4960922E3,4.7376886E2,2.5238338E1,3.394231E2,2.77751E2,3.8152795E0,2.0847084E2,9.3924675E1,2.9025793E2,2.4844153E2,1.1630922E3,1.1734052E3,1.1709551E3,6.580268E1,3.6576328E2,1.01720746E3,4.788847E2],"tree_param":{"num_deleted":"0","num_feature":"36","num_nodes":"31","size_leaf_vector":"1"}},{"base_weights":[-2.9576053E-3,-2.1109763E-1,1.9563777E-2,-4.2587137E-1,-1.8877722E-1,4.577636E-2,-1.7892402E-1,-0E0,-4.4756773E-1,-2.4506906E-1,-1.1788698E-1,-1.5678756E-2,6.330633E-2,-1.2888421E-1,-3.1244203E-1,-0E0,-5.3520445E-3,-2.9750606E-3,-0E0,-2.5373471E-3,-3.1484215E-4,-6.5145636E-5,-2.8724342E-3,5.835844E-4,1.6977586E-3,-0E0,-1.7076895E-3,-2.7988155E-4,-4.295927E-3],"categories":[],"categories_nodes":[],"categories_segments":[],"categories_sizes":[],"default_left":[0,0,0,0,0,0,0,0,0,0,0,0,0,0,0,0,0,0,0,0,0,0,0,0,0,0,0,0,0],"id":43,"left_children":[1,3,5,7,9,11,13,-1,15,17,19,21,23,25,27,-1,-1,-1,-1,-1,-1,-1,-1,-1,-1,-1,-1,-1,-1],"loss_changes":[3.537876E1,1.940979E0,3.4547028E1,2.1861267E-1,1.7751427E0,6.5153637E0,4.0094013E0,0E0,5.2657127E-2,1.253725E0,2.2850475E0,2.3459032E0,4.57275E0,1.5040007E0,2.1538963E0,0E0,0E0,0E0,0E0,0E0,0E0,0E0,0E0,0E0,0E0,0E0,0E0,0E0,0E0],"parents":[2147483647,0,0,1,1,2,2,3,3,4,4,5,5,6,6,8,8,9,9,10,10,11,11,12,12,13,13,14,14],"right_children":[2,4,6,8,10,12,14,-1,16,18,20,22,24,26,28,-1,-1,-1,-1,-1,-1,-1,-1,-1,-1,-1,-1,-1,-1],"split_conditions":[-1.3408561E0,-2.6035316E0,1.1073073E0,2.3250182E0,1E0,-5.1984084E-1,2.000403E0,-0E0,-1.7171744E0,3.0125513E0,-1.8789711E0,1.3408105E0,8.3728254E-1,-1.962379E-1,6.8391746E-1,-0E0,-5.3520445E-3,-2.9750606E-3,-0E0,-2.5373471E-3,-3.1484215E-4,-6.5145636E-5,-2.8724342E-3,5.835844E-4,1.6977586E-3,-0E0,-1.7076895E-3,-2.7988155E-4,-4.295927E-3],"split_indices":[10,10,10,9,5,10,10,0,8,9,10,21,18,19,19,0,0,0,0,0,0,0,0,0,0,0,0,0,0],"split_type":[0,0,0,0,0,0,0,0,0,0,0,0,0,0,0,0,0,0,0,0,0,0,0,0,0,0,0,0,0],"sum_hessian":[7.442219E3,7.375015E2,6.704718E3,5.8146072E1,6.7935547E2,5.934157E3,7.705605E2,4.4367666E0,5.3709305E1,3.581537E2,3.2120175E2,1.2846418E3,4.649515E3,5.748496E2,1.9571086E2,2.382864E0,5.1326443E1,3.4981793E2,8.335733E0,1.3958388E2,1.8161789E2,1.2416881E3,4.295371E1,4.0309158E3,6.1859955E2,5.9364285E1,5.1548535E2,3.9268368E1,1.5644249E2],"tree_param":{"num_deleted":"0","num_feature":"36","num_nodes":"29","size_leaf_vector":"1"}},{"base_weights":[-3.7190462E-3,-1.4533883E-1,3.691518E-1,-3.6394817E-1,-6.292091E-2,5.690378E-1,2.4313837E-1,-2.5988686E-1,-4.605248E-1,-1.4156623E-1,3.270219E-2,5.8042294E-1,-0E0,1.9544223E-1,3.4593734E-1,-3.1628457E-3,-0E0,-5.7237647E-3,-2.3994427E-3,-6.696677E-4,-1.9400408E-3,8.474355E-4,-6.931381E-4,4.1031553E-3,7.087067E-3,-0E0,-3.4885822E-4,2.0369138E-3,4.285905E-3,4.436828E-3,4.1632127E-4],"categories":[],"categories_nodes":[],"categories_segments":[],"categories_sizes":[],"default_left":[0,0,0,0,0,0,0,0,0,0,0,0,0,0,0,0,0,0,0,0,0,0,0,0,0,0,0,0,0,0,0],"id":44,"left_children":[1,3,5,7,9,11,13,15,17,19,21,23,25,27,29,-1,-1,-1,-1,-1,-1,-1,-1,-1,-1,-1,-1,-1,-1,-1,-1],"loss_changes":[3.9316525E2,9.6354195E1,4.9454376E1,1.2918854E1,2.9885948E1,5.71402E0,4.7935333E0,2.6834068E0,3.9717407E0,3.959221E0,6.522648E0,2.2786255E0,1.0388147E-2,1.7465096E0,3.031887E0,0E0,0E0,0E0,0E0,0E0,0E0,0E0,0E0,0E0,0E0,0E0,0E0,0E0,0E0,0E0,0E0],"parents":[2147483647,0,0,1,1,2,2,3,3,4,4,5,5,6,6,7,7,8,8,9,9,10,10,11,11,12,12,13,13,14,14],"right_children":[2,4,6,8,10,12,14,16,18,20,22,24,26,28,30,-1,-1,-1,-1,-1,-1,-1,-1,-1,-1,-1,-1,-1,-1,-1,-1],"split_conditions":[5.535536E-1,-6.334285E-1,-1.3408561E0,1.0530763E0,4.3008562E-2,6.7434376E-1,9.255105E-1,-1.5056066E-1,5.2825767E-1,-8.8991666E-1,1E0,1.2063568E0,7.505097E-1,1.4927534E0,-6.952305E-1,-3.1628457E-3,-0E0,-5.7237647E-3,-2.3994427E-3,-6.696677E-4,