{"learner":{"attributes":{},"feature_names":["elo_home_pre","elo_away_pre","elo_diff","form_pts_home_3","form_pts_home_5","form_pts_away_3","form_pts_away_5","gd_home_5","gd_away_5","form_avg_home_5","form_avg_away_5","gd_avg_home_5","gd_avg_away_5","momentum_home","momentum_away","consistency_home","consistency_away","prob_home_implied","prob_draw_implied","prob_away_implied"],"feature_types":["float","float","float","float","float","float","float","float","float","float","float","float","float","float","float","float","float","float","float","float"],"gradient_booster":{"model":{"cats":{"enc":[],"feature_segments":[],"sorted_idx":[]},"gbtree_model_param":{"num_parallel_tree":"1","num_trees":"300"},"iteration_indptr":[0,3,6,9,12,15,18,21,24,27,30,33,36,39,42,45,48,51,54,57,60,63,66,69,72,75,78,81,84,87,90,93,96,99,102,105,108,111,114,117,120,123,126,129,132,135,138,141,144,147,150,153,156,159,162,165,168,171,174,177,180,183,186,189,192,195,198,201,204,207,210,213,216,219,222,225,228,231,234,237,240,243,246,249,252,255,258,261,264,267,270,273,276,279,282,285,288,291,294,297,300],"tree_info":[0,1,2,0,1,2,0,1,2,0,1,2,0,1,2,0,1,2,0,1,2,0,1,2,0,1,2,0,1,2,0,1,2,0,1,2,0,1,2,0,1,2,0,1,2,0,1,2,0,1,2,0,1,2,0,1,2,0,1,2,0,1,2,0,1,2,0,1,2,0,1,2,0,1,2,0,1,2,0,1,2,0,1,2,0,1,2,0,1,2,0,1,2,0,1,2,0,1,2,0,1,2,0,1,2,0,1,2,0,1,2,0,1,2,0,1,2,0,1,2,0,1,2,0,1,2,0,1,2,0,1,2,0,1,2,0,1,2,0,1,2,0,1,2,0,1,2,0,1,2,0,1,2,0,1,2,0,1,2,0,1,2,0,1,2,0,1,2,0,1,2,0,1,2,0,1,2,0,1,2,0,1,2,0,1,2,0,1,2,0,1,2,0,1,2,0,1,2,0,1,2,0,1,2,0,1,2,0,1,2,0,1,2,0,1,2,0,1,2,0,1,2,0,1,2,0,1,2,0,1,2,0,1,2,0,1,2,0,1,2,0,1,2,0,1,2,0,1,2,0,1,2,0,1,2,0,1,2,0,1,2,0,1,2,0,1,2,0,1,2,0,1,2,0,1,2,0,1,2,0,1,2,0,1,2,0,1,2,0,1,2,0,1,2,0,1,2,0,1,2],"trees":[{"base_weights":[1.61683E-1,-1.3060005E-1,3.860781E-1,-3.6395624E-1,-5.0313063E-2,2.6078352E-1,7.3462296E-1,-3.3559833E-2,-2.1431614E-2,-1.3479556E-1,1.5962027E-3,2.0759234E-1,3.445703E-1,6.247716E-1,6.123839E-2,-1.1434319E-1,-2.5284749E-2,-8.27154E-4,3.0814853E-1,2.3136145E-1,3.251313E-2,3.3563924E-1,5.639023E-2,5.0790346E-1,4.683816E-2,3.4460366E-1,-8.382117E-3,-3.0802027E-3,2.8848995E-2,-1.6096272E-2,2.420502E-1,-3.847858E-3,1.6511968E-1,6.2058973E-1,3.2368654E-1,4.872781E-1,8.4696345E-2,-2.5968233E-2,3.996405E-2,3.0449592E-2,2.281512E-1,1.6203098E-2,-2.2022221E-2,7.880589E-2,3.312341E-2,2.622307E-1,4.0126538E-1,1.837968E-2,3.7549525E-2,1.9925995E-1,2.3242217E-2,5.5593297E-2,2.4312402E-1,5.808379E-2,3.8568997E-1,1.4001941E-2,-1.0765062E-2,4.1157368E-1,1.9855571E-1,-9.629986E-3,2.7330527E-2,4.4833195E-1,-1.7014878E-2,2.2069387E-1,-9.1783535E-3,6.3415887E-3,3.583398E-2,7.986647E-3,2.0198362E-2],"categories":[],"categories_nodes":[],"categories_segments":[],"categories_sizes":[],"default_left":[0,0,0,0,0,0,0,0,0,0,0,0,0,0,0,0,0,0,0,0,0,0,0,0,0,0,0,0,0,0,0,0,0,0,0,0,0,0,0,0,0,0,0,0,0,0,0,0,0,0,0,0,0,0,0,0,0,0,0,0,0,0,0,0,0,0,0,0,0],"id":0,"left_children":[1,3,5,7,9,11,13,-1,-1,15,17,19,21,23,-1,25,-1,-1,27,29,31,33,-1,35,-1,37,-1,-1,-1,-1,39,-1,41,43,45,47,-1,-1,-1,-1,49,-1,-1,-1,-1,51,53,-1,-1,55,-1,-1,57,-1,59,-1,-1,61,63,-1,-1,65,-1,67,-1,-1,-1,-1,-1],"loss_changes":[4.8173703E2,5.961261E1,1.8110632E2,4.912819E0,1.0451857E1,1.3440323E1,1.9141785E1,0E0,0E0,4.212782E0,6.2713547E0,7.7093277E0,4.6941223E0,4.3460693E0,0E0,3.2246199E0,0E0,0E0,2.716361E0,8.240868E0,2.6965687E0,3.6359406E0,0E0,2.8542557E0,0E0,2.6739316E0,0E0,0E0,0E0,0E0,4.3511353E0,0E0,3.241964E0,2.6866589E0,5.1077576E0,2.8258362E0,0E0,0E0,0E0,0E0,4.737129E0,0E0,0E0,0E0,0E0,6.259693E0,3.0101776E0,0E0,0E0,2.6339378E0,0E0,0E0,4.350216E0,0E0,3.8821716E0,0E0,0E0,3.125576E0,3.583376E0,0E0,0E0,3.0670013E0,0E0,3.4035034E0,0E0,0E0,0E0,0E0,0E0],"parents":[2147483647,0,0,1,1,2,2,3,3,4,4,5,5,6,6,9,9,10,10,11,11,12,12,13,13,15,15,18,18,19,19,20,20,21,21,23,23,25,25,30,30,32,32,33,33,34,34,35,35,40,40,45,45,46,46,49,49,52,52,54,54,57,57,58,58,61,61,63,63],"right_children":[2,4,6,8,10,12,14,-1,-1,16,18,20,22,24,-1,26,-1,-1,28,30,32,34,-1,36,-1,38,-1,-1,-1,-1,40,-1,42,44,46,48,-1,-1,-1,-1,50,-1,-1,-1,-1,52,54,-1,-1,56,-1,-1,58,-1,60,-1,-1,62,64,-1,-1,66,-1,68,-1,-1,-1,-1,-1],"split_conditions":[-1.0522674E-1,-1.0356154E0,8.3518326E-1,-1.8769646E0,-5.3808063E-1,3.5946676E-1,1.4733349E0,-3.3559833E-2,-2.1431614E-2,1.5083561E0,2.1857455E0,1.1475154E0,3.8167818E0,-9.7853255E-1,6.123839E-2,-7.189002E-1,-2.5284749E-2,-8.27154E-4,-3.7096437E-2,-1.7067317E0,4.556327E-1,-1.7511904E0,5.639023E-2,3.3980289E0,4.683816E-2,-1.7067317E0,-8.382117E-3,-3.0802027E-3,2.8848995E-2,-1.6096272E-2,-1.6805521E0,-3.847858E-3,1.010647E0,-6.255495E-1,-5.582355E-1,9.33006E-1,8.4696345E-2,-2.5968233E-2,3.996405E-2,3.0449592E-2,6.7186916E-1,1.6203098E-2,-2.2022221E-2,7.880589E-2,3.312341E-2,-1.6805521E0,-5.3929645E-1,1.837968E-2,3.7549525E-2,3.5177878E-1,2.3242217E-2,5.5593297E-2,-5.0282204E-1,5.808379E-2,-5.2377456E-1,1.4001941E-2,-1.0765062E-2,-6.6016996E-1,6.056888E-1,-9.629986E-3,2.7330527E-2,-1.3163041E0,-1.7014878E-2,5.3644526E-1,-9.1783535E-3,6.3415887E-3,3.583398E-2,7.986647E-3,2.0198362E-2],"split_indices":[2,2,2,2,2,2,2,0,0,1,17,5,17,1,0,1,0,0,8,11,11,8,0,17,0,11,0,0,0,0,10,0,1,11,1,2,0,0,0,0,11,0,0,0,0,10,1,0,0,2,0,0,4,0,1,0,0,1,8,0,0,1,0,2,0,0,0,0,0],"split_type":[0,0,0,0,0,0,0,0,0,0,0,0,0,0,0,0,0,0,0,0,0,0,0,0,0,0,0,0,0,0,0,0,0,0,0,0,0,0,0,0,0,0,0,0,0,0,0,0,0,0,0,0,0,0,0,0,0,0,0,0,0,0,0,0,0,0,0,0,0],"sum_hessian":[7.3435137E3,3.1887358E3,4.154778E3,8.151127E2,2.373623E3,3.057024E3,1.0977538E3,2.254567E2,5.8965594E2,9.055766E2,1.4680465E3,1.8725562E3,1.1844679E3,6.580898E2,4.39664E2,8.3479913E2,7.0777466E1,1.4042999E3,6.374659E1,1.6470994E3,2.254567E2,1.163844E3,2.0623898E1,2.3061267E2,4.2747714E2,1.4530473E1,8.202686E2,1.4999198E1,4.8747395E1,3.609182E1,1.6110076E3,1.3358661E2,9.187009E1,4.546632E1,1.1183777E3,2.2498798E2,5.624699E0,3.2810745E0,1.1249398E1,1.0077586E2,1.5102317E3,8.062069E1,1.1249398E1,8.437049E0,3.702927E1,6.2668524E2,4.9169244E2,5.202847E1,1.729595E2,1.204623E3,3.0560867E2,2.0155172E1,6.065301E2,1.5467923E1,4.7622455E2,1.1854054E3,1.9217722E1,1.2514956E2,4.8138052E2,1.2655573E1,4.6356897E2,1.1905614E2,6.0934243E0,4.5231955E2,2.9060946E1,2.2030071E1,9.702606E1,1.9264595E2,2.596736E2],"tree_param":{"num_deleted":"0","num_feature":"20","num_nodes":"69","size_leaf_vector":"1"}},{"base_weights":[-1.0556695E-1,-7.480594E-2,-2.9561993E-1,-2.72049E-1,-6.025234E-2,2.0891508E-2,-3.2131454E-1,-2.9075071E-2,-2.1739233E-1,-5.130301E-2,-1.3536108E-2,-2.2715054E-2,9.27059E-3,-1.9422416E-2,-2.953633E-2,-1.672352E-2,2.3768169E-1,-4.012782E-2,-1.06868334E-1,7.0332594E-2,-1.3916153E-2,-3.1397894E-3,4.4219536E-3,1.33942785E-2,-8.34014E-3],"categories":[],"categories_nodes":[],"categories_segments":[],"categories_sizes":[],"default_left":[0,0,0,0,0,0,0,0,0,0,0,0,0,0,0,0,0,0,0,0,0,0,0,0,0],"id":1,"left_children":[1,3,5,7,9,11,13,-1,15,17,-1,-1,-1,-1,-1,-1,19,21,23,-1,-1,-1,-1,-1,-1],"loss_changes":[3.9201103E1,1.6515423E1,7.7032623E0,3.1265736E0,6.5941734E0,2.7753725E0,3.2893906E0,0E0,3.7452106E0,3.100646E0,0E0,0E0,0E0,0E0,0E0,0E0,6.0511904E0,2.6185837E0,3.9319944E0,0E0,0E0,0E0,0E0,0E0,0E0],"parents":[2147483647,0,0,1,1,2,2,3,3,4,4,5,5,6,6,8,8,9,9,16,16,17,17,18,18],"right_children":[2,4,6,8,10,12,14,-1,16,18,-1,-1,-1,-1,-1,-1,20,22,24,-1,-1,-1,-1,-1,-1],"split_conditions":[8.700864E-1,-1.4750632E0,-6.266943E-4,-2.2193186E0,8.3482766E-1,-2.0511797E-1,1.8547553E0,-2.9075071E-2,4.956954E0,4.0451843E-1,-1.3536108E-2,-2.2715054E-2,9.27059E-3,-1.9422416E-2,-2.953633E-2,-1.672352E-2,3.0930334E-1,1.2834023E0,-1.0982301E0,7.0332594E-2,-1.3916153E-2,-3.1397894E-3,4.4219536E-3,1.33942785E-2,-8.34014E-3],"split_indices":[2,2,0,2,0,4,2,0,19,2,0,0,0,0,0,0,15,4,4,0,0,0,0,0,0],"split_type":[0,0,0,0,0,0,0,0,0,0,0,0,0,0,0,0,0,0,0,0,0,0,0,0,0],"sum_hessian":[6.725691E3,5.7903667E3,9.3532416E2,3.9620776E2,5.394159E3,6.9314964E1,8.660092E2,1.018331E2,2.9437466E2,5.06855E3,3.256092E2,1.6259066E1,5.30559E1,6.554971E2,2.1051212E2,2.781156E2,1.6259066E1,4.22479E3,8.4375995E2,5.990182E0,1.0268884E1,4.0022974E3,2.2249248E2,3.9791924E1,8.03968E2],"tree_param":{"num_deleted":"0","num_feature":"20","num_nodes":"25","size_leaf_vector":"1"}},{"base_weights":[-7.715241E-2,2.8717732E-1,-2.4948871E-1,6.818021E-1,1.6093782E-1,-1.6674717E-1,-4.6544987E-1,9.272514E-1,5.954895E-1,3.8701484E-3,2.4835236E-1,-6.708275E-2,-2.1569651E-1,-2.6636073E-2,-3.9675258E-2,8.417623E-2,5.700931E-2,4.0335435E-1,6.39033E-1,1.6130013E-2,4.2416494E-2,-7.616978E-2,4.2015534E-2,-2.2398245E-1,9.203984E-3,7.3798425E-2,3.26158E-1,4.643101E-2,2.6548508E-1,-8.990103E-2,1.1198929E-1,-2.131865E-1,-4.4511768E-1,1.707664E-2,6.900457E-2,3.8194522E-1,-4.1627076E-2,-7.2212406E-2,-2.7142996E-1,2.1222608E-2,-6.210357E-3,-1.8465802E-1,-1.9538917E-2,2.3408769E-2,-3.3044912E-2,5.6310324E-3,7.53615E-1,-7.3301955E-3,-1.1719627E-1,-3.7584525E-1,2.812821E-2,-9.8478295E-2,-2.1082403E-1,7.446518E-2,-3.8887996E-3,-1.7631358E-2,2.5750658E-2,5.7089907E-1,-9.034526E-3,-0E0,-3.317557E-2,4.2439725E-2,-1.0932419E-2,3.679128E-3,-1.7686172E-1,-1.4774025E-2,2.2863878E-1,-1.1866003E-2,7.0417546E-2,8.8200994E-2,-1.0535918E-3,-2.0981891E-2,-4.2925095E-3,5.4254867E-2,-7.6441257E-3,5.2528504E-2,5.1001024E-2,1.0027893E-2,-6.056551E-3],"categories":[],"categories_nodes":[],"categories_segments":[],"categories_sizes":[],"default_left":[0,0,0,0,0,0,0,0,0,0,0,0,0,0,0,0,0,0,0,0,0,0,0,0,0,0,0,0,0,0,0,0,0,0,0,0,0,0,0,0,0,0,0,0,0,0,0,0,0,0,0,0,0,0,0,0,0,0,0,0,0,0,0,0,0,0,0,0,0,0,0,0,0,0,0,0,0,0,0],"id":2,"left_children":[1,3,5,7,9,11,13,15,17,-1,19,21,23,-1,-1,-1,-1,25,27,-1,-1,29,-1,31,-1,-1,33,-1,35,37,39,41,43,-1,-1,45,-1,47,49,-1,-1,51,-1,-1,-1,-1,53,55,57,59,61,63,65,-1,-1,-1,67,69,-1,-1,-1,-1,-1,-1,71,-1,73,-1,75,-1,-1,-1,-1,-1,-1,77,-1,-1,-1],"loss_changes":[4.2511285E2,1.08006836E2,8.193518E1,1.0580597E1,1.4907848E1,1.6130104E1,1.0739288E1,2.9852219E0,2.9000244E0,0E0,3.6534195E0,6.6522217E0,6.505577E0,0E0,0E0,0E0,0E0,3.3768673E0,4.629944E0,0E0,0E0,2.7946281E0,0E0,4.9759293E0,0E0,0E0,3.0453515E0,0E0,3.3280673E0,3.137454E0,2.9956493E0,4.190796E0,3.17873E0,0E0,0E0,3.0106306E0,0E0,2.656516E0,2.8692403E0,0E0,0E0,3.280449E0,0E0,0E0,0E0,0E0,3.811831E0,3.2421248E0,5.5842695E0,2.7413692E0,2.6436164E0,4.2491817E0,2.9449654E0,0E0,0E0,0E0,2.9665089E0,5.225793E0,0E0,0E0,0E0,0E0,0E0,0E0,3.3687406E0,0E0,3.0111504E0,0E0,3.0865355E0,0E0,0E0,0E0,0E0,0E0,0E0,3.6202707E0,0E0,0E0,0E0],"parents":[2147483647,0,0,1,1,2,2,3,3,4,4,5,5,6,6,7,7,8,8,10,10,11,11,12,12,17,17,18,18,21,21,23,23,26,26,28,28,29,29,30,30,31,31,32,32,35,35,37,37,38,38,41,41,46,46,47,47,48,48,49,49,50,50,51,51,52,52,56,56,57,57,64,64,66,66,68,68,75,75],"right_children":[2,4,6,8,10,12,14,16,18,-1,20,22,24,-1,-1,-1,-1,26,28,-1,-1,30,-1,32,-1,-1,34,-1,36,38,40,42,44,-1,-1,46,-1,48,50,-1,-1,52,-1,-1,-1,-1,54,56,58,60,62,64,66,-1,-1,-1,68,70,-1,-1,-1,-1,-1,-1,72,-1,74,-1,76,-1,-1,-1,-1,-1,-1,78,-1,-1,-1],"split_conditions":[-3.2770053E-1,-1.2689458E0,6.9881886E-1,-2.1313477E0,1.7816424E-1,-2.2504669E-2,1.3136164E0,-2.6811118E0,1.010647E0,3.8701484E-3,2.541183E0,3.1164763E0,2.1600652E0,-2.6636073E-2,-3.9675258E-2,8.417623E-2,5.700931E-2,-4.8513043E-1,-4.4903695E-4,1.6130013E-2,4.2416494E-2,1.2509843E0,4.2015534E-2,-4.4903695E-4,9.203984E-3,7.3798425E-2,3.5986571E0,4.643101E-2,2.499774E0,5.3505886E-1,-1.8188797E-1,6.9025785E-1,-1.3014534E0,1.707664E-2,6.900457E-2,5.0891023E0,-4.1627076E-2,3.108632E-1,1.1475154E0,2.1222608E-2,-6.210357E-3,9.511746E-2,-1.9538917E-2,2.3408769E-2,-3.3044912E-2,5.6310324E-3,1.8022766E0,-1.3959342E0,-1.726448E0,-2.0511797E-1,-2.4426182E-1,1.2133469E-1,7.03953E-1,7.446518E-2,-3.8887996E-3,-1.7631358E-2,-7.2737336E-1,3.3119252E-1,-9.034526E-3,-0E0,-3.317557E-2,4.2439725E-2,-1.0932419E-2,3.679128E-3,3.1479016E-2,-1.4774025E-2,3.9913476E-1,-1.1866003E-2,1.5811064E0,8.8200994E-2,-1.0535918E-3,-2.0981891E-2,-4.2925095E-3,5.4254867E-2,-7.6441257E-3,1.0419068E-1,5.1001024E-2,1.0027893E-2,-6.056551E-3],"split_indices":[2,2,2,2,1,2,2,2,1,0,12,19,19,0,0,0,0,5,19,0,0,12,0,19,0,0,19,0,1,1,2,9,5,0,0,19,0,16,5,0,0,2,0,0,0,0,6,4,15,4,2,15,1,0,0,0,1,5,0,0,0,0,0,0,2,0,15,0,4,0,0,0,0,0,0,9,0,0,0],"split_type":[0,0,0,0,0,0,0,0,0,0,0,0,0,0,0,0,0,0,0,0,0,0,0,0,0,0,0,0,0,0,0,0,0,0,0,0,0,0,0,0,0,0,0,0,0,0,0,0,0,0,0,0,0,0,0,0,0,0,0,0,0,0,0,0,0,0,0,0,0,0,0,0,0,0,0,0,0,0,0],"sum_hessian":[6.7705303E3,2.1735603E3,4.59697E3,5.260214E2,1.6475388E3,3.3248525E3,1.2721174E3,1.3549692E2,3.9052454E2,7.534319E2,8.94107E2,1.0973524E3,2.2275002E3,7.7630237E2,4.9581512E2,2.97748E1,1.05722115E2,7.378972E1,3.167348E2,8.6778436E2,2.6322649E1,1.0835438E3,1.3808602E1,2.1770125E3,5.04877E1,6.904301E0,6.6885414E1,2.839394E2,3.279543E1,1.0114801E3,7.2063644E1,2.0773315E3,9.968085E1,6.0844154E1,6.0412636E0,2.934328E1,3.4521506E0,9.2345026E2,8.802984E1,3.711062E1,3.4953026E1,1.4990964E3,5.782352E2,4.3151884E0,9.536566E1,1.6829233E1,1.2514046E1,3.8103113E2,5.424192E2,6.602238E1,2.200746E1,3.5211935E2,1.146977E3,9.061895E0,3.4521506E0,4.5309475E1,3.3572165E2,1.1219489E1,5.3119965E2,1.5103159E1,5.091922E1,5.6097445E0,1.6397715E1,1.1823616E2,2.3388321E2,1.1327369E3,1.4240121E1,5.9981117E1,2.7574054E2,5.178226E0,6.0412636E0,1.0744819E2,1.2643501E2,5.6097445E0,8.630377E0,2.6926773E2,6.472782E0,1.626826E2,1.0658515E2],"tree_param":{"num_deleted":"0","num_feature":"20","num_nodes":"79","size_leaf_vector":"1"}},{"base_weights":[1.6135417E-1,-1.0750622E-1,3.6903664E-1,-2.6378447E-1,3.538348E-2,2.5927186E-1,6.8995917E-1,-4.3138513E-1,-1.8130217E-1,5.430808E-2,-1.0094254E-2,1.938432E-1,3.4620285E-1,3.9562594E-2,5.7475936E-2,-4.6261704E-1,-1.4552464E-2,-8.785011E-2,-1.62114E-2,3.5257857E-2,2.9710445E-1,2.1123004E-1,4.8347353E-3,2.8451452E-1,3.9696681E-1,-2.9837508E-2,-5.0755333E-2,-2.8367206E-2,-5.9690908E-2,8.0488704E-2,-5.229373E-2,2.0740043E-2,3.1219328E-2,1.415493E-1,1.69732E-2,3.6628672E-1,1.8442461E-1,3.538066E-1,3.415743E-2,6.0998127E-2,-4.751333E-3,3.5645742E-2,5.0000655E-3,5.4364073E-1,-6.499337E-2,2.4694672E-2,-1.5429449E-2,7.3789423E-3,3.9839613E-1,2.3738189E-2,6.381898E-2,1.6114766E-2,-9.352694E-4,-2.125755E-2,2.5091937E-2,-1.1850904E-2,7.274313E-2,-1.5114167E-2,-1.8747166E-3,5.055983E-1,-6.9968104E-3,2.9079696E-2,-3.1198652E-2,4.697509E-2,7.6966463E-3],"categories":[],"categories_nodes":[],"categories_segments":[],"categories_sizes":[],"default_left":[0,0,0,0,0,0,0,0,0,0,0,0,0,0,0,0,0,0,0,0,0,0,0,0,0,0,0,0,0,0,0,0,0,0,0,0,0,0,0,0,0,0,0,0,0,0,0,0,0,0,0,0,0,0,0,0,0,0,0,0,0,0,0,0,0],"id":3,"left_children":[1,3,5,7,9,11,13,15,17,19,-1,21,23,-1,-1,25,-1,27,-1,29,31,33,-1,35,37,-1,-1,-1,39,41,43,45,-1,47,-1,49,51,53,-1,-1,-1,-1,-1,55,57,-1,-1,-1,59,-1,-1,-1,-1,61,-1,-1,-1,-1,-1,63,-1,-1,-1,-1,-1],"loss_changes":[4.1346466E2,7.210828E1,1.4682983E2,2.1109367E1,5.8178225E0,1.7530457E1,1.7333618E1,3.2246323E0,5.3520546E0,6.963202E0,0E0,3.7119904E0,3.9483795E0,0E0,0E0,2.698021E0,0E0,3.4688E0,0E0,5.62698E0,4.7330866E0,3.957817E0,0E0,4.7760468E0,2.9742355E0,0E0,0E0,0E0,3.2015195E0,2.777947E0,3.4954953E0,3.540748E0,0E0,4.5394297E0,0E0,2.977234E0,2.8930387E0,2.8603592E0,0E0,0E0,0E0,0E0,0E0,3.889389E0,2.6911912E0,0E0,0E0,0E0,3.4640818E0,0E0,0E0,0E0,0E0,3.5936327E0,0E0,0E0,0E0,0E0,0E0,3.4505396E0,0E0,0E0,0E0,0E0,0E0],"parents":[2147483647,0,0,1,1,2,2,3,3,4,4,5,5,6,6,7,7,8,8,9,9,11,11,12,12,15,15,17,17,19,19,20,20,21,21,23,23,24,24,28,28,29,29,30,30,31,31,33,33,35,35,36,36,37,37,43,43,44,44,48,48,53,53,59,59],"right_children":[2,4,6,8,10,12,14,16,18,20,-1,22,24,-1,-1,26,-1,28,-1,30,32,34,-1,36,38,-1,-1,-1,40,42,44,46,-1,48,-1,50,52,54,-1,-1,-1,-1,-1,56,58,-1,-1,-1,60,-1,-1,-1,-1,62,-1,-1,-1,-1,-1,64,-1,-1,-1,-1,-1],"split_conditions":[-1.0522674E-1,-6.091004E-1,8.700864E-1,-1.3383981E0,1.2509843E0,3.2577327E-1,1.4733349E0,-4.9694896E-2,-8.7964517E-1,2.9254428E-1,-1.0094254E-2,1.1475154E0,1.0184425E-2,3.9562594E-2,5.7475936E-2,2.7562163E0,-1.4552464E-2,-8.4572434E-1,-1.62114E-2,-5.0710434E-1,-3.4522188E-1,-5.350616E-1,4.8347353E-3,-2.9007962E-1,1.2545155E0,-2.9837508E-2,-5.0755333E-2,-2.8367206E-2,-1.329413E0,-1.7594793E0,-1.329413E0,4.2475128E-1,3.1219328E-2,6.8799424E-1,1.69732E-2,8.201173E-1,9.856983E-1,-1.6805521E0,3.415743E-2,6.0998127E-2,-4.751333E-3,3.5645742E-2,5.0000655E-3,9.258609E-2,-4.6627307E-1,2.4694672E-2,-1.5429449E-2,7.3789423E-3,-5.861606E-1,2.3738189E-2,6.381898E-2,1.6114766E-2,-9.352694E-4,3.111385E-1,2.5091937E-2,-1.1850904E-2,7.274313E-2,-1.5114167E-2,-1.8747166E-3,1.2590747E-1,-6.9968104E-3,2.9079696E-2,-3.1198652E-2,4.697509E-2,7.6966463E-3],"split_indices":[2,2,2,2,12,2,2,0,0,0,0,5,0,0,0,12,0,6,0,0,2,0,0,0,3,0,0,0,12,12,12,3,0,4,0,2,4,10,0,0,0,0,0,4,2,0,0,0,0,0,0,0,0,0,0,0,0,0,0,2,0,0,0,0,0],"split_type":[0,0,0,0,0,0,0,0,0,0,0,0,0,0,0,0,0,0,0,0,0,0,0,0,0,0,0,0,0,0,0,0,0,0,0,0,0,0,0,0,0,0,0,0,0,0,0,0,0,0,0,0,0,0,0,0,0,0,0,0,0,0,0,0,0],"sum_hessian":[7.4030264E3,3.225694E3,4.177332E3,1.5416506E3,1.6840433E3,3.1136448E3,1.0636873E3,5.0698737E2,1.0346633E3,1.5281881E3,1.558552E2,1.778891E3,1.3347538E3,6.208025E2,4.428848E2,4.4203256E2,6.49548E1,3.9181104E2,6.428523E2,1.4183766E3,1.0981157E2,1.5561505E3,2.227405E2,6.058143E2,7.289396E2,4.0732614E2,3.4706417E1,2.9909021E1,3.61902E2,9.375926E2,4.8078397E2,4.116314E1,6.864843E1,5.493247E2,1.0068258E3,3.3145593E2,2.7435834E2,5.177033E2,2.1123628E2,3.2746315E0,3.5862738E2,1.4062787E1,9.235298E2,9.375659E0,4.714083E2,1.7781164E1,2.3381975E1,4.8749768E2,6.1827007E1,3.2199432E2,9.461604E0,2.18645E2,5.5713337E1,1.8025848E1,4.9967743E2,3.74633E0,5.629329E0,8.928512E1,3.821232E2,5.1443726E1,1.0383282E1,8.543336E0,9.482512E0,3.4447365E1,1.699636E1],"tree_param":{"num_deleted":"0","num_feature":"20","num_nodes":"65","size_leaf_vector":"1"}},{"base_weights":[-9.857185E-2,-7.031541E-2,-2.8427437E-1,-2.1951382E-1,-5.3485908E-2,-2.2114329E-1,-2.4977261E-2,-3.7972763E-2,-2.0184863E-1,-3.6772795E-2,-1.4896724E-1,8.3794654E-4,-1.684141E-2,-1.5256169E-2,1.707064E-2,-3.9648533E-2,1.3774835E-2,-7.870482E-3,-1.8897487E-2,6.007933E-2,-2.9712697E-3,-4.40037E-2,9.991955E-2,-2.6225408E-3,-1.2288155E-2,1.4513511E-2,5.898657E-1,-7.659453E-3,2.8803682E-1,6.425545E-2,-3.288494E-3,5.4991955E-1,-5.029154E-2,-5.0529945E-3,5.2568827E-2,-4.367825E-2,1.497514E-2],"categories":[],"categories_nodes":[],"categories_segments":[],"categories_sizes":[],"default_left":[0,0,0,0,0,0,0,0,0,0,0,0,0,0,0,0,0,0,0,0,0,0,0,0,0,0,0,0,0,0,0,0,0,0,0,0,0],"id":4,"left_children":[1,3,5,7,9,11,-1,-1,13,15,17,-1,-1,-1,19,21,-1,-1,-1,-1,-1,23,25,-1,-1,27,29,-1,31,-1,-1,33,35,-1,-1,-1,-1],"loss_changes":[3.503756E1,1.4516205E1,4.375374E0,3.2456284E0,8.284616E0,3.0987377E0,0E0,0E0,2.7453194E0,3.0078983E0,3.208353E0,0E0,0E0,0E0,2.8720548E0,2.6583934E0,0E0,0E0,0E0,0E0,0E0,3.1552153E0,5.29287E0,0E0,0E0,3.9566646E0,4.5388937E0,0E0,3.387059E0,0E0,0E0,3.131816E0,2.625806E0,0E0,0E0,0E0,0E0],"parents":[2147483647,0,0,1,1,2,2,3,3,4,4,5,5,8,8,9,9,10,10,14,14,15,15,21,21,22,22,25,25,26,26,28,28,31,31,32,32],"right_children":[2,4,6,8,10,12,-1,-1,14,16,18,-1,-1,-1,20,22,-1,-1,-1,-1,-1,24,26,-1,-1,28,30,-1,32,-1,-1,34,36,-1,-1,-1,-1],"split_conditions":[9.124419E-1,-1.1746789E0,1.4733349E0,-2.6811118E0,5.123617E-1,-1.5369287E0,-2.4977261E-2,-3.7972763E-2,1.2839757E0,4.9050805E-1,-1.9430071E-1,8.3794654E-4,-1.684141E-2,-1.5256169E-2,1.974224E0,3.260088E0,1.3774835E-2,-7.870482E-3,-1.8897487E-2,6.007933E-2,-2.9712697E-3,2.718523E0,1.248474E0,-2.6225408E-3,-1.2288155E-2,3.9029017E-1,3.4402473E0,-7.659453E-3,3.4285374E0,6.425545E-2,-3.288494E-3,-4.165483E-1,1.2133469E-1,-5.0529945E-3,5.2568827E-2,-4.367825E-2,1.497514E-2],"split_indices":[2,2,2,2,2,8,0,0,18,2,1,0,0,0,18,18,0,0,0,0,0,18,8,0,0,4,18,0,18,0,0,1,15,0,0,0,0],"split_type":[0,0,0,0,0,0,0,0,0,0,0,0,0,0,0,0,0,0,0,0,0,0,0,0,0,0,0,0,0,0,0,0,0,0,0,0,0],"sum_hessian":[6.698911E3,5.8158804E3,8.830309E2,5.8744366E2,5.2284365E3,5.0144504E2,3.8158585E2,2.8101927E1,5.5934174E2,4.452565E3,7.758715E2,4.8760464E1,4.5268457E2,5.098183E2,4.9523464E1,4.4010093E3,5.155588E1,6.170889E2,1.5878261E2,3.443754E0,4.6079712E1,4.270119E3,1.3088988E2,4.10549E3,1.646291E2,1.1214721E2,1.8742662E1,7.5899994E1,3.6247223E1,1.2340945E1,6.4017177E0,2.0897337E1,1.5349885E1,5.1221523E0,1.5775184E1,5.1114345E0,1.023845E1],"tree_param":{"num_deleted":"0","num_feature":"20","num_nodes":"37","size_leaf_vector":"1"}},{"base_weights":[-7.78935E-2,-1.4090206E-1,4.8800066E-1,-5.7374556E-2,-3.8189098E-1,6.6617787E-1,1.5076514E-1,-1.4023218E-1,1.9741748E-1,-3.0584475E-1,-3.555713E-2,5.547074E-1,7.8758126E-1,2.4986821E-1,-9.007301E-2,-6.889374E-2,-2.2217762E-1,4.9248845E-3,2.3037302E-1,-2.9430464E-2,-1.7855823E-1,2.9985368E-2,6.9546205E-1,8.3123016E-1,3.1516328E-1,-1.3004225E-2,2.9058793E-1,-4.0756434E-2,-0E0,-1.5314993E-1,-7.184137E-4,-2.2144338E-2,-1.7292584E-1,5.298142E-1,2.1298945E-1,-1.4458811E-2,7.473238E-2,7.889448E-2,6.115013E-1,6.879896E-2,5.0069124E-2,3.633184E-2,-2.708086E-2,7.5611347E-1,1.6987657E-2,2.9124388E-2,-1.0239806E-2,-2.9108834E-2,-9.05174E-3,3.4381572E-2,-2.2750411E-2,-1.9332975E-1,-2.3255162E-2,4.2074367E-2,-7.017181E-3,1.3826128E-2,4.9670313E-2,1.9851387E-1,-3.3332374E-2,2.2606833E-1,7.445769E-1,-0E0,7.545875E-2,-3.486654E-2,4.273455E-1,-1.4951382E-2,-4.132612E-3,-2.571804E-2,3.1137887E-2,2.183239E-2,-1.8076727E-2,-0E0,5.1399793E-2,5.8388717E-2,2.565172E-1,2.7386427E-2,-7.9903E-3,-1.2500322E-2,4.3869313E-2,5.236721E-3,-3.697907E-2,-4.1001447E-2,3.8533363E-2,1.883301E-2,-1.9257446E-4],"categories":[],"categories_nodes":[],"categories_segments":[],"categories_sizes":[],"default_left":[0,0,0,0,0,0,0,0,0,0,0,0,0,0,0,0,0,0,0,0,0,0,0,0,0,0,0,0,0,0,0,0,0,0,0,0,0,0,0,0,0,0,0,0,0,0,0,0,0,0,0,0,0,0,0,0,0,0,0,0,0,0,0,0,0,0,0,0,0,0,0,0,0,0,0,0,0,0,0,0,0,0,0,0,0],"id":5,"left_children":[1,3,5,7,9,11,13,15,17,19,-1,21,23,25,27,29,31,-1,33,-1,35,-1,37,39,41,-1,43,-1,45,47,49,-1,51,53,55,-1,57,-1,59,-1,-1,-1,-1,61,-1,-1,-1,-1,-1,-1,63,65,67,-1,-1,-1,-1,69,-1,71,73,-1,-1,75,77,-1,-1,-1,79,-1,-1,-1,-1,-1,81,83,-1,-1,-1,-1,-1,-1,-1,-1,-1],"loss_changes":[2.4176854E2,1.22733635E2,4.053569E1,9.571173E1,1.6377579E1,5.5131226E0,5.676902E0,1.9914352E1,4.489689E0,1.6092957E1,0E0,3.368843E0,3.9420624E0,3.0520048E0,3.2243237E0,1.0475121E1,7.870514E0,0E0,4.3195915E0,0E0,4.348915E0,0E0,3.3356285E0,2.6445007E0,2.9734163E0,0E0,2.6347551E0,0E0,3.7524133E0,4.3810787E0,1.1140447E1,0E0,3.2206879E0,2.7689314E0,4.0678177E0,0E0,3.98945E0,0E0,4.2004776E0,0E0,0E0,0E0,0E0,3.0084891E0,0E0,0E0,0E0,0E0,0E0,0E0,5.186469E0,3.165699E0,2.636834E0,0E0,0E0,0E0,0E0,2.7577806E0,0E0,2.8973808E0,3.15876E0,0E0,0E0,4.8887377E0,3.4400988E0,0E0,0E0,0E0,2.8230085E0,0E0,0E0,0E0,0E0,0E0,3.4470959E0,4.1295934E0,0E0,0E0,0E0,0E0,0E0,0E0,0E0,0E0,0E0],"parents":[2147483647,0,0,1,1,2,2,3,3,4,4,5,5,6,6,7,7,8,8,9,9,11,11,12,12,13,13,14,14,15,15,16,16,18,18,20,20,22,22,23,23,24,24,26,26,28,28,29,29,30,30,32,32,33,33,34,34,36,36,38,38,43,43,50,50,51,51,52,52,57,57,59,59,60,60,63,63,64,64,68,68,74,74,75,75],"right_children":[2,4,6,8,10,12,14,16,18,20,-1,22,24,26,28,30,32,-1,34,-1,36,-1,38,40,42,-1,44,-1,46,48,50,-1,52,54,56,-1,58,-1,60,-1,-1,-1,-1,62,-1,-1,-1,-1,-1,-1,64,66,68,-1,-1,-1,-1,70,-1,72,74,-1,-1,76,78,-1,-1,-1,80,-1,-1,-1,-1,-1,82,84,-1,-1,-1,-1,-1,-1,-1,-1,-1],"split_conditions":[1.2126815E0,2.768277E-1,1.8217911E-1,1.75016E-2,1.2407967E0,1.9885639E0,1.2407967E0,-4.9024722E-1,1.7816424E-1,-2.4368377E-1,-3.555713E-2,8.890191E-1,2.0004879E-1,1.7716531E-1,1.3910081E0,-6.6016996E-1,-7.885126E-1,4.9248845E-3,-1.2757175E0,-2.9430464E-2,1.248474E0,2.9985368E-2,3.3116496E-1,-7.708887E-1,1.8912593E0,-1.3004225E-2,3.9142704E-1,-4.0756434E-2,1.6701678E0,-1.4763094E0,-1.5448164E0,-2.2144338E-2,8.199505E-1,1.8022766E0,2.5340445E0,-1.4458811E-2,1.379882E0,7.889448E-2,8.199505E-1,6.879896E-2,5.0069124E-2,3.633184E-2,-2.708086E-2,1.5671192E0,1.6987657E-2,2.9124388E-2,-1.0239806E-2,-2.9108834E-2,-9.05174E-3,3.4381572E-2,1.4627358E0,1.4096165E0,-4.2880967E-1,4.2074367E-2,-7.017181E-3,1.3826128E-2,4.9670313E-2,8.805945E-1,-3.3332374E-2,9.196096E-1,-2.3675616E-1,-0E0,7.545875E-2,-1.9307663E-1,-1.0580224E0,-1.4951382E-2,-4.132612E-3,-2.571804E-2,1.6737169E-1,2.183239E-2,-1.8076727E-2,-0E0,5.1399793E-2,5.8388717E-2,1.3998723E0,-8.941434E-1,-7.9903E-3,-1.2500322E-2,4.3869313E-2,5.236721E-3,-3.697907E-2,-4.1001447E-2,3.8533363E-2,1.883301E-2,-1.9257446E-4],"split_indices":[1,0,0,1,0,1,0,0,1,1,0,13,17,8,0,1,1,0,0,0,8,0,6,0,8,0,8,0,0,1,0,0,8,6,8,0,17,0,8,0,0,0,0,1,0,0,0,0,0,0,8,13,0,0,0,0,0,0,0,6,0,0,0,11,11,0,0,0,0,0,0,0,0,0,1,8,0,0,0,0,0,0,0,0,0],"split_type":[0,0,0,0,0,0,0,0,0,0,0,0,0,0,0,0,0,0,0,0,0,0,0,0,0,0,0,0,0,0,0,0,0,0,0,0,0,0,0,0,0,0,0,0,0,0,0,0,0,0,0,0,0,0,0,0,0,0,0,0,0,0,0,0,0,0,0,0,0,0,0,0,0,0,0,0,0,0,0,0,0,0,0,0,0],"sum_hessian":[6.783131E3,6.10415E3,6.7898096E2,4.534114E3,1.5700364E3,4.4354688E2,2.3543407E2,3.4224473E3,1.1116664E3,1.0180215E3,5.5201483E2,2.330489E2,2.1049799E2,1.6771608E2,6.771798E1,1.8318425E3,1.5906047E3,2.3373984E2,8.7792664E2,5.1067694E2,5.0734457E2,1.2986205E2,1.0318686E2,1.9197403E2,1.8523958E1,1.348772E1,1.5422836E2,1.040597E1,5.7312008E1,8.171482E2,1.01469434E3,5.1366376E2,1.076941E3,4.691885E1,8.3100775E2,4.49235E2,5.810957E1,1.4990009E1,8.819685E1,6.6103096E1,1.25870926E2,1.4557167E1,3.966791E0,1.1768261E1,1.424601E2,1.5180909E1,4.2131096E1,5.5408512E1,7.617397E2,4.1681946E1,9.730124E2,9.458548E2,1.310862E2,4.1675156E1,5.243692E0,8.1564795E2,1.53598E1,4.8186626E1,9.922943E0,2.335256E1,6.484429E1,3.9032543E0,7.865007E0,9.483302E2,2.4682224E1,7.8921173E2,1.5664307E2,1.8103834E1,1.1298237E2,3.8745884E1,9.4407425E0,1.6299574E1,7.052987E0,5.2147343E1,1.2696951E1,5.37842E2,4.1048822E2,6.0760555E0,1.8606169E1,1.0528619E2,7.6961803E0,3.0495987E0,9.647352E0,5.921841E1,4.7862357E2],"tree_param":{"num_deleted":"0","num_feature":"20","num_nodes":"85","size_leaf_vector":"1"}},{"base_weights":[1.4987156E-1,5.6894876E-2,3.3230355E-1,1.1643193E-1,-1.7730682E-1,2.5476485E-1,5.035277E-1,1.0466881E-1,5.953364E-1,-1.9052972E-1,2.01391E-2,3.367717E-1,9.838922E-2,5.8728516E-1,2.8302792E-1,2.2243929E-1,6.713098E-2,5.529525E-2,2.9692616E-2,-7.2825444E-3,-1.7832508E-2,5.4320186E-2,3.2291093E-1,1.5395154E-1,-1.2218028E-2,6.1048704E-1,1.312878E-3,3.1892818E-1,-1.8978085E-2,-1.99656E-2,2.3932058E-1,-4.2995135E-3,6.927799E-3,3.3009008E-1,-1.6104724E-2,8.506196E-3,3.1683728E-2,4.7934882E-2,3.7331253E-2,2.3377208E-2,-2.6638543E-2,2.7250007E-2,2.009024E-1,3.2879274E-5,-4.069437E-2,3.210682E-1,5.2044913E-2,8.182106E-3,3.0603054E-1,-3.9127055E-3,2.2390438E-2,1.7131781E-2,3.2988884E-2],"categories":[],"categories_nodes":[],"categories_segments":[],"categories_sizes":[],"default_left":[0,0,0,0,0,0,0,0,0,0,0,0,0,0,0,0,0,0,0,0,0,0,0,0,0,0,0,0,0,0,0,0,0,0,0,0,0,0,0,0,0,0,0,0,0,0,0,0,0,0,0,0,0],"id":6,"left_children":[1,3,5,7,9,11,13,15,17,19,-1,21,23,25,27,29,31,-1,-1,-1,-1,-1,33,35,-1,37,-1,39,-1,-1,41,43,-1,45,-1,-1,-1,-1,-1,-1,-1,-1,47,-1,-1,49,-1,-1,51,-1,-1,-1,-1],"loss_changes":[1.238524E2,6.751292E1,3.2486206E1,2.152956E1,6.1046963E0,2.164846E1,1.3871689E1,1.6576725E1,2.7205238E0,5.5538406E0,0E0,6.7027283E0,9.035284E0,7.1141357E0,4.311001E0,7.903408E0,7.075143E0,0E0,0E0,0E0,0E0,0E0,4.383415E0,4.2468634E0,0E0,2.6499481E0,0E0,3.4041767E0,0E0,0E0,5.22488E0,2.817523E0,0E0,3.7958527E0,0E0,0E0,0E0,0E0,0E0,0E0,0E0,0E0,5.9227467E0,0E0,0E0,2.975319E0,0E0,0E0,2.7513962E0,0E0,0E0,0E0,0E0],"parents":[2147483647,0,0,1,1,2,2,3,3,4,4,5,5,6,6,7,7,8,8,9,9,11,11,12,12,13,13,14,14,15,15,16,16,22,22,23,23,25,25,27,27,30,30,31,31,33,33,42,42,45,45,48,48],"right_children":[2,4,6,8,10,12,14,16,18,20,-1,22,24,26,28,30,32,-1,-1,-1,-1,-1,34,36,-1,38,-1,40,-1,-1,42,44,-1,46,-1,-1,-1,-1,-1,-1,-1,-1,48,-1,-1,50,-1,-1,52,-1,-1,-1,-1],"split_conditions":[4.5678368E-1,8.2091814E-1,1.3187611E0,2.8185E0,2.2237628E0,3.908519E-1,6.05885E-1,-6.8431365E-1,1.3233668E0,1.2509843E0,2.01391E-2,-1.7283914E0,1.6810507E0,1.183026E0,2.0232308E0,-1.9136544E0,-6.206882E-1,5.529525E-2,2.9692616E-2,-7.2825444E-3,-1.7832508E-2,5.4320186E-2,2.7350168E0,2.1033926E0,-1.2218028E-2,-4.6928057E-1,1.312878E-3,2.7562163E0,-1.8978085E-2,-1.99656E-2,-1.5444461E0,3.9427748E0,6.927799E-3,4.122161E0,-1.6104724E-2,8.506196E-3,3.1683728E-2,4.7934882E-2,3.7331253E-2,2.3377208E-2,-2.6638543E-2,2.7250007E-2,-1.8969944E-1,3.2879274E-5,-4.069437E-2,-1.6540109E0,5.2044913E-2,8.182106E-3,8.396334E-1,-3.9127055E-3,2.2390438E-2,1.7131781E-2,3.2988884E-2],"split_indices":[7,12,7,17,17,12,12,12,19,12,0,6,12,19,19,7,7,0,0,0,0,0,19,17,0,12,0,12,0,0,12,19,0,17,0,0,0,0,0,0,0,0,7,0,0,9,0,0,3,0,0,0,0],"split_type":[0,0,0,0,0,0,0,0,0,0,0,0,0,0,0,0,0,0,0,0,0,0,0,0,0,0,0,0,0,0,0,0,0,0,0,0,0,0,0,0,0,0,0,0,0,0,0,0,0,0,0,0,0],"sum_hessian":[7.309004E3,4.8427974E3,2.4662063E3,3.8623572E3,9.804402E2,1.699034E3,7.6717224E2,3.7705935E3,9.1763565E1,9.544966E2,2.5943596E1,1.1131053E3,5.859288E2,5.5475574E2,2.1241653E2,9.0913635E2,2.8614573E3,3.7965267E1,5.3798294E1,4.4011945E2,5.1437714E2,3.16423E1,1.081463E3,4.8920255E2,9.672623E1,5.3244336E2,2.2312342E1,2.0023872E2,1.2177813E1,2.8169327E1,8.8096704E2,9.283531E2,1.9331042E3,1.0683712E3,1.3091767E1,4.4829025E2,4.0912296E1,2.1315036E2,3.1929303E2,1.9422435E2,6.0143647E0,1.6845058E2,7.125164E2,9.2055585E2,7.797201E0,1.047557E3,2.0814182E1,4.0450806E2,3.080084E2,1.8942087E1,1.028615E3,2.3707407E2,7.093432E1],"tree_param":{"num_deleted":"0","num_feature":"20","num_nodes":"53","size_leaf_vector":"1"}},{"base_weights":[-8.919889E-2,-7.4979894E-2,-1.7779356E-1,-6.9463015E-2,-2.2076799E-2,-1.6004667E-2,-9.7436376E-2,-4.2551947E-3,-1.8596625E-1,-9.012337E-3,4.171718E-1,-2.2168513E-1,4.4768784E-2,5.745076E-3,7.198747E-2,1.0412666E-2,-1.7096452E-2,1.637395E-2,-1.9531682E-2],"categories":[],"categories_nodes":[],"categories_segments":[],"categories_sizes":[],"default_left":[0,0,0,0,0,0,0,0,0,0,0,0,0,0,0,0,0,0,0],"id":7,"left_children":[1,3,5,7,-1,-1,9,-1,11,-1,13,15,17,-1,-1,-1,-1,-1,-1],"loss_changes":[8.306686E0,7.7523956E0,4.0890503E0,4.542206E0,0E0,0E0,6.764883E0,0E0,2.6815834E0,0E0,4.6624985E0,3.0470467E0,2.6910934E0,0E0,0E0,0E0,0E0,0E0,0E0],"parents":[2147483647,0,0,1,1,2,2,3,3,6,6,8,8,10,10,11,11,12,12],"right_children":[2,4,6,8,-1,-1,10,-1,12,-1,14,16,18,-1,-1,-1,-1,-1,-1],"split_conditions":[1.104342E0,2.9592848E0,3.3116496E-1,1.6769975E0,-2.2076799E-2,-1.6004667E-2,2.9665534E0,-4.2551947E-3,1.1157055E0,-9.012337E-3,2.718523E0,-6.7277324E-1,2.3197827E0,5.745076E-3,7.198747E-2,1.0412666E-2,-1.7096452E-2,1.637395E-2,-1.9531682E-2],"split_indices":[11,17,6,8,0,0,17,0,15,0,18,13,8,0,0,0,0,0,0],"split_type":[0,0,0,0,0,0,0,0,0,0,0,0,0,0,0,0,0,0,0],"sum_hessian":[6.658509E3,5.7409536E3,9.175555E2,5.6178364E3,1.2311699E2,5.346741E2,3.828814E2,5.2995522E3,3.182841E2,3.593603E2,2.3521143E1,2.7679956E2,4.1484535E1,1.5903243E1,7.6179004E0,1.9091854E1,2.577077E2,2.67171E1,1.4767433E1],"tree_param":{"num_deleted":"0","num_feature":"20","num_nodes":"19","size_leaf_vector":"1"}},{"base_weights":[-7.130471E-2,1.1123633E-2,-3.1647295E-1,-5.4906577E-2,2.3344621E-1,-3.5192287E-1,-1.3067335E-3,1.0138207E-1,-9.615599E-2,2.4751909E-1,-2.8396428E-2,-2.7012363E-1,-3.379845E-2,8.454107E-3,-1.0223686E-2,3.121591E-1,7.006424E-2,-1.4216225E-1,-2.3854624E-2,1.1534934E-2,3.514813E-1,-2.149202E-2,-1.3012752E-1,2.973997E-2,5.043232E-2,-1.5171515E-2,9.235484E-2,-6.1181835E-3,-1.8225013E-1,-3.480057E-2,6.006631E-1,2.7041702E-2,3.2456259E-3,-8.842694E-2,-3.3335872E-2,-1.9905087E-2,2.1838022E-2,9.9696614E-2,-3.6240064E-2,-1.9454563E-2,-1.0220606E-2,4.597358E-3,-5.0475253E-3,9.988398E-3,6.808738E-2,-8.037713E-3,5.7255868E-2,6.3486854E-3,6.432271E-2],"categories":[],"categories_nodes":[],"categories_segments":[],"categories_sizes":[],"default_left":[0,0,0,0,0,0,0,0,0,0,0,0,0,0,0,0,0,0,0,0,0,0,0,0,0,0,0,0,0,0,0,0,0,0,0,0,0,0,0,0,0,0,0,0,0,0,0,0,0],"id":8,"left_children":[1,3,5,7,9,11,13,15,17,19,-1,21,-1,-1,-1,23,25,27,29,-1,31,-1,33,-1,35,-1,37,-1,39,41,43,-1,-1,45,-1,-1,-1,47,-1,-1,-1,-1,-1,-1,-1,-1,-1,-1,-1],"loss_changes":[1.3481248E2,7.328322E1,1.8639984E1,2.4787323E1,1.0420258E1,1.7463394E1,3.190365E0,5.166548E0,1.0071667E1,8.948883E0,0E0,5.924797E0,0E0,0E0,0E0,3.1639452E0,4.5221663E0,3.81678E0,7.9364004E0,0E0,6.4243355E0,0E0,3.3472066E0,0E0,3.1538978E0,0E0,2.8538237E0,0E0,3.3558807E0,4.680069E0,3.222352E0,0E0,0E0,5.601703E0,0E0,0E0,0E0,3.2428527E0,0E0,0E0,0E0,0E0,0E0,0E0,0E0,0E0,0E0,0E0,0E0],"parents":[2147483647,0,0,1,1,2,2,3,3,4,4,5,5,6,6,7,7,8,8,9,9,11,11,15,15,16,16,17,17,18,18,20,20,22,22,24,24,26,26,28,28,29,29,30,30,33,33,37,37],"right_children":[2,4,6,8,10,12,14,16,18,20,-1,22,-1,-1,-1,24,26,28,30,-1,32,-1,34,-1,36,-1,38,-1,40,42,44,-1,-1,46,-1,-1,-1,48,-1,-1,-1,-1,-1,-1,-1,-1,-1,-1,-1],"split_conditions":[3.111385E-1,9.177128E-1,1.5080543E0,-9.0542066E-1,2.2237628E0,1.2407967E0,9.655209E-1,-1.4940165E0,5.1624462E-2,1.5080543E0,-2.8396428E-2,6.253873E-1,-3.379845E-2,8.454107E-3,-1.0223686E-2,-7.749101E-1,-1.434169E0,-1.8884292E-1,3.351462E0,1.1534934E-2,-6.266943E-4,-2.149202E-2,2.1857455E0,2.973997E-2,-2.572797E-1,-1.5171515E-2,3.3148608E0,-6.1181835E-3,-1.10316E0,-4.8187652E-1,-3.3306536E-1,2.7041702E-2,3.2456259E-3,2.6678214E0,-3.3335872E-2,-1.9905087E-2,2.1838022E-2,3.43172E0,-3.6240064E-2,-1.9454563E-2,-1.0220606E-2,4.597358E-3,-5.0475253E-3,9.988398E-3,6.808738E-2,-8.037713E-3,5.7255868E-2,6.3486854E-3,6.432271E-2],"split_indices":[0,10,6,0,17,0,0,0,10,6,0,6,0,0,0,9,6,9,19,0,0,0,17,0,6,0,18,0,10,9,0,0,0,18,0,0,0,19,0,0,0,0,0,0,0,0,0,0,0],"split_type":[0,0,0,0,0,0,0,0,0,0,0,0,0,0,0,0,0,0,0,0,0,0,0,0,0,0,0,0,0,0,0,0,0,0,0,0,0,0,0,0,0,0,0,0,0,0,0,0,0],"sum_hessian":[6.666048E3,4.987926E3,1.6781218E3,3.844742E3,1.143184E3,1.5075398E3,1.7058199E2,8.01213E2,3.043529E3,1.1195236E3,2.3660444E1,9.6242645E2,5.451134E2,9.14276E1,7.915438E1,1.02163536E2,6.9904944E2,1.8572467E3,1.1862822E3,6.403195E2,4.7920404E2,7.2626794E2,2.3615851E2,6.844018E1,3.372336E1,4.8393562E1,6.506559E2,8.082659E2,1.0489807E3,1.166492E3,1.9790333E1,4.1635992E2,6.2844112E1,2.1252907E2,2.3629438E1,1.4346082E1,1.9377275E1,6.437183E2,6.9375687E0,2.4811702E2,8.008638E2,3.2120956E2,8.4528235E2,9.711902E0,1.007843E1,2.0645801E2,6.071059E0,6.3927203E2,4.4462714E0],"tree_param":{"num_deleted":"0","num_feature":"20","num_nodes":"49","size_leaf_vector":"1"}},{"base_weights":[1.4600399E-1,3.230665E-3,4.333364E-1,-2.733096E-1,8.379832E-2,3.278637E-1,6.45013E-1,-1.1442284E-2,-3.5578933E-1,-3.3047453E-2,1.367684E-1,2.756933E-1,2.769058E-2,3.8232896E-2,5.242021E-2,-3.3885777E-2,-2.0853255E-2,-4.754729E-2,5.230159E-1,1.2800534E-1,4.008952E-1,2.875641E-1,-1.0566772E-2,1.3331317E-3,-8.529065E-3,4.725125E-2,-2.0934949E-2,-4.9197838E-2,1.300385E-1,4.53137E-1,-3.2998268E-2,2.332601E-1,2.846464E-2,8.490072E-2,1.1008925E-2,-3.5405147E-3,3.7330728E-2,2.1943437E-1,5.2251894E-2,9.175092E-3,1.6709144E-1,4.6103127E-2,2.0832166E-1,-1.404149E-4,2.8900217E-2,1.8293925E-1,-1.6384976E-2,1.9368196E-2,9.667525E-3,1.1372063E-2,5.692715E-1,-1.357389E-2,5.3802505E-2],"categories":[],"categories_nodes":[],"categories_segments":[],"categories_sizes":[],"default_left":[0,0,0,0,0,0,0,0,0,0,0,0,0,0,0,0,0,0,0,0,0,0,0,0,0,0,0,0,0,0,0,0,0,0,0,0,0,0,0,0,0,0,0,0,0,0,0,0,0,0,0,0,0],"id":9,"left_children":[1,3,5,7,9,11,13,-1,15,17,19,21,-1,-1,-1,-1,-1,23,25,27,29,31,-1,-1,-1,-1,-1,-1,33,35,-1,37,-1,39,-1,-1,-1,41,-1,43,45,-1,47,-1,-1,49,-1,-1,-1,-1,51,-1,-1],"loss_changes":[3.0456174E2,1.1051641E2,5.4690186E1,9.56279E0,2.3825878E1,6.486023E0,8.054108E0,0E0,4.1406326E0,9.509131E0,5.9523125E0,5.1125946E0,0E0,0E0,0E0,0E0,0E0,6.107562E0,4.371232E0,4.2568817E0,3.898141E0,6.583542E0,0E0,0E0,0E0,0E0,0E0,0E0,3.5461617E0,3.947668E0,0E0,4.6919365E0,0E0,6.5035024E0,0E0,0E0,0E0,3.0790482E0,0E0,2.6973922E0,3.2387428E0,0E0,3.1397781E0,0E0,0E0,2.7858868E0,0E0,0E0,0E0,0E0,3.3593926E0,0E0,0E0],"parents":[2147483647,0,0,1,1,2,2,3,3,4,4,5,5,6,6,8,8,9,9,10,10,11,11,17,17,18,18,19,19,20,20,21,21,28,28,29,29,31,31,33,33,37,37,39,39,40,40,42,42,45,45,50,50],"right_children":[2,4,6,8,10,12,14,-1,16,18,20,22,-1,-1,-1,-1,-1,24,26,28,30,32,-1,-1,-1,-1,-1,-1,34,36,-1,38,-1,40,-1,-1,-1,42,-1,44,46,-1,48,-1,-1,50,-1,-1,-1,-1,52,-1,-1],"split_conditions":[3.2577327E-1,-8.097755E-1,1.0766059E0,1.010647E0,-3.2770053E-1,6.8561345E-1,1.6734059E0,-1.1442284E-2,-2.0389426E0,2.314185E0,2.5986614E0,1.9180118E0,2.769058E-2,3.8232896E-2,5.242021E-2,-3.3885777E-2,-2.0853255E-2,1.1511758E-1,3.3385646E0,-2.5601375E0,1.7497499E0,6.7227805E-1,-1.0566772E-2,1.3331317E-3,-8.529065E-3,4.725125E-2,-2.0934949E-2,-4.9197838E-2,-1.8969944E-1,2.7067056E0,-3.2998268E-2,3.3162115E0,2.846464E-2,-2.2504669E-2,1.1008925E-2,-3.5405147E-3,3.7330728E-2,-1.9654522E0,5.2251894E-2,3.136646E0,3.4449366E-1,4.6103127E-2,3.5373762E-1,-1.404149E-4,2.8900217E-2,1.75016E-2,-1.6384976E-2,1.9368196E-2,9.667525E-3,1.1372063E-2,3.1479016E-2,-1.357389E-2,5.3802505E-2],"split_indices":[2,2,2,1,2,2,2,0,2,17,17,19,0,0,0,0,0,1,18,7,7,7,0,0,0,0,0,0,7,18,0,17,0,2,0,0,0,8,0,18,1,0,14,0,0,1,0,0,0,0,2,0,0],"split_type":[0,0,0,0,0,0,0,0,0,0,0,0,0,0,0,0,0,0,0,0,0,0,0,0,0,0,0,0,0,0,0,0,0,0,0,0,0,0,0,0,0,0,0,0,0,0,0,0,0,0,0,0,0],"sum_hessian":[7.427279E3,4.9626367E3,2.464642E3,1.1186625E3,3.843974E3,1.6462526E3,8.183895E2,4.9268835E2,6.259742E2,1.1972101E3,2.646764E3,9.903737E2,6.558789E2,4.8868344E2,3.2970605E2,1.6168677E2,4.6428738E2,1.1674789E3,2.973122E1,2.5631523E3,8.3611565E1,9.6456757E2,2.5806158E1,6.2374146E2,5.437374E2,2.5014965E1,4.7162557E0,5.615156E0,2.557537E3,7.935924E1,4.252328E0,6.8217346E2,2.823941E2,1.053675E3,1.503862E3,1.1975225E1,6.738401E1,6.657216E2,1.645182E1,5.5048553E2,5.0318954E2,1.4915166E1,6.5080646E2,5.3538446E2,1.5101037E1,4.8517392E2,1.8015596E1,3.0200314E2,3.488033E2,4.6668307E2,1.8490873E1,3.7981038E0,1.469277E1],"tree_param":{"num_deleted":"0","num_feature":"20","num_nodes":"53","size_leaf_vector":"1"}},{"base_weights":[-9.310456E-2,-6.331897E-2,-3.039795E-1,-2.528588E-1,-5.0492875E-2,-1.6973926E-2,-3.7044498E-1,-3.2591859E-1,-9.108548E-3,-3.1179123E-2,-1.0864737E-1,-2.6379652E-2,4.8127132E-3,2.3388507E-2,-2.4470644E-2,-3.7049998E-2,1.4845793E-1,-9.07483E-2,-1.8069575E-2,4.7802713E-2,-1.2692812E-2,2.3894338E-2,-3.8951132E-2,5.9106266E-3,7.4923116E-1,-6.7677563E-3,1.5564037E-2,-8.057226E-3,-2.9945096E-2,-0E0,7.160879E-2,-1.7921451E-2,-2.5956765E-2,-4.340417E-3,-4.8381872E-3,-3.99532E-4,6.1904866E-2],"categories":[],"categories_nodes":[],"categories_segments":[],"categories_sizes":[],"default_left":[0,0,0,0,0,0,0,0,0,0,0,0,0,0,0,0,0,0,0,0,0,0,0,0,0,0,0,0,0,0,0,0,0,0,0,0,0],"id":10,"left_children":[1,3,5,7,9,-1,11,13,-1,15,17,-1,-1,19,-1,21,23,25,-1,-1,-1,-1,27,-1,29,-1,-1,-1,31,-1,-1,-1,33,35,-1,-1,-1],"loss_changes":[4.1318123E1,1.3959372E1,2.7740479E0,3.0287838E0,6.040284E0,0E0,2.7547417E0,2.6899624E0,0E0,4.259364E0,3.6524858E0,0E0,0E0,2.8347263E0,0E0,2.8097134E0,4.4477687E0,3.2443018E0,0E0,0E0,0E0,0E0,2.753316E0,0E0,2.80294E0,0E0,0E0,0E0,3.1856258E0,0E0,0E0,0E0,3.3520243E0,2.9723501E0,0E0,0E0,0E0],"parents":[2147483647,0,0,1,1,2,2,3,3,4,4,6,6,7,7,9,9,10,10,13,13,15,15,16,16,17,17,22,22,24,24,28,28,32,32,33,33],"right_children":[2,4,6,8,10,-1,12,14,-1,16,18,-1,-1,20,-1,22,24,26,-1,-1,-1,-1,28,-1,30,-1,-1,-1,32,-1,-1,-1,34,36,-1,-1,-1],"split_conditions":[9.570205E-1,-1.5186765E0,1.56753E0,-5.6535566E-1,3.2577327E-1,-1.6973926E-2,2.0344427E0,8.7464905E-1,-9.108548E-3,3.260088E0,1.7816424E-1,-2.6379652E-2,4.8127132E-3,-6.851812E-1,-2.4470644E-2,-1.39565E0,1.4548312E0,7.9261415E-2,-1.8069575E-2,4.7802713E-2,-1.2692812E-2,2.3894338E-2,-1.1297048E0,5.9106266E-3,3.2851183E0,-6.7677563E-3,1.5564037E-2,-8.057226E-3,-1.7283914E0,-0E0,7.160879E-2,-1.7921451E-2,3.1555736E-1,6.322656E-1,-4.8381872E-3,-3.99532E-4,6.1904866E-2],"split_indices":[2,2,0,0,2,0,18,1,0,18,1,0,0,14,0,1,1,1,0,0,0,0,0,0,18,0,0,0,6,0,0,0,1,0,0,0,0],"split_type":[0,0,0,0,0,0,0,0,0,0,0,0,0,0,0,0,0,0,0,0,0,0,0,0,0,0,0,0,0,0,0,0,0,0,0,0,0],"sum_hessian":[6.5969043E3,5.7819185E3,8.149856E2,3.647206E2,5.4171978E3,4.4873285E2,3.6625275E2,2.2438148E2,1.4033913E2,4.0708606E3,1.3463374E3,3.5382153E2,1.2431213E1,1.8518198E1,2.0586328E2,3.9438423E3,1.270182E2,1.2100599E3,1.3627751E2,4.6374435E0,1.38807535E1,1.8306793E1,3.9255356E3,1.15815414E2,1.1202791E1,1.179722E3,3.0337862E1,3.9702383E2,3.5285117E3,3.0378053E0,8.164986E0,5.7914528E1,3.4705972E3,2.349149E3,1.1214482E3,2.345748E3,3.4008884E0],"tree_param":{"num_deleted":"0","num_feature":"20","num_nodes":"37","size_leaf_vector":"1"}},{"base_weights":[-6.986452E-2,2.6713133E-1,-2.1179232E-1,5.8819085E-1,1.4311618E-1,-1.4722238E-1,-4.5844105E-1,7.042887E-1,4.6694395E-1,2.4110276E-1,8.2797274E-2,-3.992937E-2,-2.0206383E-1,-2.6839858E-2,-5.307295E-1,5.390616E-2,3.702349E-2,-0E0,4.8695168E-1,2.1016496E-1,4.1006523E-1,7.364918E-2,5.3574856E-2,-1.02086544E-1,1.5981842E-2,-1.8137646E-1,-2.9514733E-1,-0E0,-3.711032E-2,3.6155704E-2,1.4642925E-2,1.793094E-2,2.9632903E-3,5.6713384E-1,-2.154247E-4,8.349148E-2,-3.732423E-2,-7.465247E-2,-3.0144488E-2,3.6399993E-3,-1.1947954E-1,-1.08088754E-1,-2.0877515E-1,-2.1437977E-2,2.0450792E-1,3.298057E-1,6.173549E-2,2.9487824E-2,1.1450979E-2,-1.4470547E-2,-1.1709719E-2,6.437628E-3,-1.4028111E-2,-6.1573824E-3,-3.022641E-2,-1.4674558E-2,6.731421E-3,4.457257E-2,-1.279477E-2,2.94975E-2,-2.7373519E-2,2.8125075E-1,4.6941317E-3,-6.532493E-2,1.6621651E-1,-1.230754E-2,3.014409E-2,-1.15625545E-1,4.4543766E-3,1.0286638E-1,-9.008362E-3,3.5571107E-3,5.211363E-1,-3.1651344E-2,-6.297429E-2,-8.435267E-3,2.5290107E-2,1.6240834E-1,7.1996845E-2,1.2540694E-1,-1.3978985E-2,6.313099E-2,-3.3259925E-2,3.2821983E-2,-1.4949889E-3],"categories":[],"categories_nodes":[],"categories_segments":[],"categories_sizes":[],"default_left":[0,0,0,0,0,0,0,0,0,0,0,0,0,0,0,0,0,0,0,0,0,0,0,0,0,0,0,0,0,0,0,0,0,0,0,0,0,0,0,0,0,0,0,0,0,0,0,0,0,0,0,0,0,0,0,0,0,0,0,0,0,0,0,0,0,0,0,0,0,0,0,0,0,0,0,0,0,0,0,0,0,0,0,0,0],"id":11,"left_children":[1,3,5,7,9,11,13,15,17,19,21,23,25,-1,27,-1,-1,-1,29,31,33,35,-1,37,39,41,43,-1,-1,-1,-1,-1,-1,45,-1,47,-1,49,-1,-1,51,53,55,-1,57,59,-1,61,-1,63,-1,-1,-1,-1,-1,-1,-1,-1,-1,-1,-1,65,67,69,71,-1,-1,73,-1,75,-1,-1,77,-1,79,-1,-1,81,-1,83,-1,-1,-1,-1,-1],"loss_changes":[3.1867963E2,7.83542E1,7.448012E1,7.311432E0,8.316895E0,2.1797401E1,4.2315216E0,3.3936615E0,2.607666E0,2.618805E0,5.406405E0,4.404704E0,4.5754395E0,0E0,3.1168823E0,0E0,0E0,0E0,2.8065262E0,3.9417934E0,5.497198E0,5.200502E0,0E0,5.420909E0,3.3268638E0,3.94178E0,4.311722E0,0E0,0E0,0E0,0E0,0E0,0E0,4.3757114E0,0E0,3.8607712E0,0E0,3.1860914E0,0E0,0E0,2.6416967E0,3.1156435E0,2.9294662E0,0E0,2.9753582E0,2.7449293E0,0E0,3.2013493E0,0E0,3.1407015E0,0E0,0E0,0E0,0E0,0E0,0E0,0E0,0E0,0E0,0E0,0E0,3.520282E0,3.4963348E0,3.0522494E0,2.8305955E0,0E0,0E0,2.7584884E0,0E0,4.6816354E0,0E0,0E0,2.9326081E0,0E0,3.7643397E0,0E0,0E0,5.6555324E0,0E0,3.24811E0,0E0,0E0,0E0,0E0,0E0],"parents":[2147483647,0,0,1,1,2,2,3,3,4,4,5,5,6,6,7,7,8,8,9,9,10,10,11,11,12,12,14,14,18,18,19,19,20,20,21,21,23,23,24,24,25,25,26,26,33,33,35,35,37,37,40,40,41,41,42,42,44,44,45,45,47,47,49,49,61,61,62,62,63,63,64,64,67,67,69,69,72,72,74,74,77,77,79,79],"right_children":[2,4,6,8,10,12,14,16,18,20,22,24,26,-1,28,-1,-1,-1,30,32,34,36,-1,38,40,42,44,-1,-1,-1,-1,-1,-1,46,-1,48,-1,50,-1,-1,52,54,56,-1,58,60,-1,62,-1,64,-1,-1,-1,-1,-1,-1,-1,-1,-1,-1,-1,66,68,70,72,-1,-1,74,-1,76,-1,-1,78,-1,80,-1,-1,82,-1,84,-1,-1,-1,-1,-1],"split_conditions":[-4.09626E-1,-1.2689458E0,8.0163354E-1,-1.7439748E0,-8.097755E-1,-4.4728138E-2,1.3136164E0,1.7838011E0,-1.9136544E0,1.3998723E0,2.541183E0,-2.941843E-1,8.8777244E-1,-2.6839858E-2,-8.19895E-1,5.390616E-2,3.702349E-2,-0E0,2.2153401E0,1.2064089E0,2.057224E0,2.338303E0,5.3574856E-2,-3.256071E-1,5.162808E-1,1.18968084E-1,2.133857E0,-0E0,-3.711032E-2,3.6155704E-2,1.4642925E-2,1.793094E-2,2.9632903E-3,5.7160205E-1,-2.154247E-4,2.9852775E-1,-3.732423E-2,-1.8969944E-1,-3.0144488E-2,3.6399993E-3,-3.2068986E-1,1.4434509E0,2.133857E0,-2.1437977E-2,-6.7277324E-1,1.0801362E0,6.173549E-2,-8.9934677E-1,1.1450979E-2,3.4032056E-1,-1.1709719E-2,6.437628E-3,-1.4028111E-2,-6.1573824E-3,-3.022641E-2,-1.4674558E-2,6.731421E-3,4.457257E-2,-1.279477E-2,2.94975E-2,-2.7373519E-2,-6.492004E-1,-3.921433E-2,-8.1446385E-1,-1.2779713E-1,-1.230754E-2,3.014409E-2,-1.4826657E0,4.4543766E-3,-8.3618253E-1,-9.008362E-3,3.5571107E-3,-4.0501294E-1,-3.1651344E-2,-6.206882E-1,-8.435267E-3,2.5290107E-2,-6.395505E-1,7.1996845E-2,-5.2576774E-1,-1.3978985E-2,6.313099E-2,-3.3259925E-2,3.2821983E-2,-1.4949889E-3],"split_indices":[2,2,2,2,2,2,2,10,7,1,12,1,7,0,3,0,0,0,1,10,1,17,0,1,1,2,19,0,0,0,0,0,0,15,0,1,0,7,0,0,2,19,19,0,13,17,0,12,0,10,0,0,0,0,0,0,0,0,0,0,0,2,12,10,2,0,0,7,0,7,0,0,3,0,7,0,0,1,0,10,0,0,0,0,0],"split_type":[0,0,0,0,0,0,0,0,0,0,0,0,0,0,0,0,0,0,0,0,0,0,0,0,0,0,0,0,0,0,0,0,0,0,0,0,0,0,0,0,0,0,0,0,0,0,0,0,0,0,0,0,0,0,0,0,0,0,0,0,0,0,0,0,0,0,0,0,0,0,0,0,0,0,0,0,0,0,0,0,0,0,0,0,0],"sum_hessian":[6.6628936E3,1.9738345E3,4.689059E3,5.49114E2,1.4247205E3,3.7174111E3,9.71648E2,2.7879492E2,2.7031906E2,5.4069366E2,8.8402686E2,1.2594307E3,2.4579805E3,5.1504376E2,4.5660428E2,1.8001393E2,9.878099E1,1.0773099E1,2.5954596E2,4.5888794E2,8.180572E1,8.7328546E2,1.0741395E1,5.9899524E2,6.604355E2,2.014183E3,4.4379742E2,1.1830165E1,4.447741E2,2.2282748E2,3.6718483E1,3.470285E2,1.1185942E2,5.978119E1,2.2024527E1,8.602955E2,1.2989999E1,5.553048E2,4.3690445E1,5.194421E2,1.4099338E2,5.5142975E2,1.4627532E3,4.28008E2,1.5789439E1,3.586208E1,2.391911E1,5.2709827E2,3.3319717E2,3.448895E2,2.1041531E2,3.946444E1,1.01528946E2,5.247166E2,2.6713114E1,1.4338677E3,2.888551E1,7.682302E0,8.107138E0,3.1876955E1,3.9851265E0,4.5971302E1,4.8112698E2,2.705749E2,7.431463E1,1.136573E1,3.460557E1,1.5942375E2,3.2170325E2,7.553972E1,1.9503516E2,5.7050587E1,1.726404E1,1.9975191E1,1.3944856E2,4.0347675E1,3.5192043E1,1.08092165E1,6.4548244E0,5.900076E1,8.044781E1,5.161957E0,5.647259E0,1.7788721E1,4.1212036E1],"tree_param":{"num_deleted":"0","num_feature":"20","num_nodes":"85","size_leaf_vector":"1"}},{"base_weights":[1.3143715E-1,4.53013E-2,3.7141073E-1,9.721011E-2,-1.354471E-1,2.7086934E-1,5.484522E-1,1.621554E-2,1.4620359E-1,-1.6243206E-1,4.3922838E-2,3.274432E-1,-5.055298E-2,6.230212E-1,4.0832233E-1,2.4003276E-1,-3.3609748E-3,1.531327E-1,-5.819419E-2,-9.066844E-2,-1.8032063E-2,5.6220423E-2,1.7255805E-2,3.7823036E-1,2.2051491E-1,-3.3573758E-2,-7.6509925E-4,6.4846486E-1,9.696542E-4,3.1253687E-1,3.9440468E-2,2.7518375E-3,2.8764239E-2,-1.4811962E-2,1.2449666E-2,2.2251229E-1,1.3087085E-1,-3.511391E-2,3.330324E-2,1.13009745E-2,-7.416193E-3,-5.258671E-4,4.7995076E-2,3.6086068E-1,4.861308E-2,3.1799793E-1,1.361422E-1,-6.246814E-3,4.506453E-2,2.376131E-2,-1.9748844E-2,2.4209702E-3,-5.9948815E-3,2.1126749E-1,5.0917827E-2,1.10938765E-1,1.4138785E-2,-2.0243054E-2,2.079995E-1,3.7791032E-2,3.3622596E-1,2.305701E-1,5.718076E-1,2.2955813E-1,-6.3585145E-3,3.3848193E-2,1.3240707E-2,1.2666295E-1,-7.5659035E-3,3.7765965E-2,6.291808E-3,-3.7233453E-2,2.379112E-2,2.7084984E-2,4.5967014E-3,4.8662946E-2,-9.132599E-3,1.8602837E-2,-2.2553805E-2,1.1671352E-1,2.1850934E-2,-4.898701E-2,1.415262E-1,8.2324715E-3,-3.045899E-2,4.203251E-2,-5.9365902E-2,-2.1787718E-2,4.0092725E-2],"categories":[],"categories_nodes":[],"categories_segments":[],"categories_sizes":[],"default_left":[0,0,0,0,0,0,0,0,0,0,0,0,0,0,0,0,0,0,0,0,0,0,0,0,0,0,0,0,0,0,0,0,0,0,0,0,0,0,0,0,0,0,0,0,0,0,0,0,0,0,0,0,0,0,0,0,0,0,0,0,0,0,0,0,0,0,0,0,0,0,0,0,0,0,0,0,0,0,0,0,0,0,0,0,0,0,0,0,0],"id":12,"left_children":[1,3,5,7,9,11,13,15,17,19,21,23,25,27,29,31,33,35,37,39,-1,-1,41,43,45,-1,-1,47,-1,49,-1,-1,-1,-1,51,53,55,-1,57,-1,-1,-1,-1,59,-1,61,63,-1,-1,-1,-1,-1,-1,65,-1,67,-1,-1,69,-1,71,73,75,77,-1,-1,-1,79,-1,-1,81,-1,-1,-1,-1,-1,-1,-1,-1,83,-1,-1,85,-1,-1,-1,87,-1,-1],"loss_changes":[1.5329727E2,5.1249287E1,3.4599915E1,1.679697E1,5.9321213E0,2.2842827E1,7.038681E0,7.0974383E0,3.7746315E0,7.6439514E0,3.0191333E0,5.58152E0,3.0835524E0,6.9262085E0,3.7311897E0,4.578882E0,5.0444827E0,3.835308E0,3.7184317E0,2.880229E0,0E0,0E0,2.8449876E0,3.8055649E0,2.690464E0,0E0,0E0,4.2398224E0,0E0,3.4989452E0,0E0,0E0,0E0,0E0,3.1543393E0,3.3152618E0,2.8540688E0,0E0,4.0565996E0,0E0,0E0,0E0,0E0,2.9552612E0,0E0,3.2408066E0,4.055294E0,0E0,0E0,0E0,0E0,0E0,0E0,2.7195587E0,0E0,5.3901157E0,0E0,0E0,3.0963268E0,0E0,6.7828217E0,3.0842934E0,4.154914E0,3.2427063E0,0E0,0E0,0E0,2.6371784E0,0E0,0E0,2.811586E0,0E0,0E0,0E0,0E0,0E0,0E0,0E0,0E0,3.012209E0,0E0,0E0,2.6696413E0,0E0,0E0,0E0,2.9804316E0,0E0,0E0],"parents":[2147483647,0,0,1,1,2,2,3,3,4,4,5,5,6,6,7,7,8,8,9,9,10,10,11,11,12,12,13,13,14,14,15,15,16,16,17,17,18,18,19,19,22,22,23,23,24,24,27,27,29,29,34,34,35,35,36,36,38,38,43,43,45,45,46,46,53,53,55,55,58,58,60,60,61,61,62,62,63,63,67,67,70,70,79,79,82,82,86,86],"right_children":[2,4,6,8,10,12,14,16,18,20,22,24,26,28,30,32,34,36,38,40,-1,-1,42,44,46,-1,-1,48,-1,50,-1,-1,-1,-1,52,54,56,-1,58,-1,-1,-1,-1,60,-1,62,64,-1,-1,-1,-1,-1,-1,66,-1,68,-1,-1,70,-1,72,74,76,78,-1,-1,-1,80,-1,-1,82,-1,-1,-1,-1,-1,-1,-1,-1,84,-1,-1,86,-1,-1,-1,88,-1,-1],"split_conditions":[3.111385E-1,9.177128E-1,1.2407967E0,-6.4909565E-1,-1.030656E-2,1.213832E0,7.3935395E-1,-1.3014534E0,3.1223643E0,1.5080543E0,-1.2742589E0,3.3116496E-1,-4.0501294E-1,2.4660704E0,2.137535E0,3.0930334E-1,-1.4940165E0,-8.1446385E-1,3.2082663E0,-1.2757175E0,-1.8032063E-2,5.6220423E-2,1.9692878E0,1.9692878E0,4.2475128E-1,-3.3573758E-2,-7.6509925E-4,-4.0931305E-1,9.696542E-4,2.3907213E0,3.9440468E-2,2.7518375E-3,2.8764239E-2,-1.4811962E-2,7.3935395E-1,2.3654988E0,6.7186916E-1,-3.511391E-2,-1.5217581E-1,1.13009745E-2,-7.416193E-3,-5.258671E-4,4.7995076E-2,-1.3014534E0,4.861308E-2,7.938055E-1,1.1475154E0,-6.246814E-3,4.506453E-2,2.376131E-2,-1.9748844E-2,2.4209702E-3,-5.9948815E-3,-6.126411E-1,5.0917827E-2,1.2545155E0,1.4138785E-2,-2.0243054E-2,-4.339444E-1,3.7791032E-2,-1.6805521E0,5.15866E-1,8.890191E-1,2.8651726E0,-6.3585145E-3,3.3848193E-2,1.3240707E-2,2.0677066E-1,-7.5659035E-3,3.7765965E-2,-3.654501E-1,-3.7233453E-2,2.379112E-2,2.7084984E-2,4.5967014E-3,4.8662946E-2,-9.132599E-3,1.8602837E-2,-2.2553805E-2,1.9487646E-1,2.1850934E-2,-4.898701E-2,-2.746204E-1,8.2324715E-3,-3.045899E-2,4.203251E-2,2.3939626E-1,-2.1787718E-2,4.0092725E-2],"split_indices":[0,10,0,0,0,6,5,5,18,6,11,6,3,18,0,15,0,10,18,0,0,0,11,11,3,0,0,11,0,6,0,0,0,0,5,18,11,0,13,0,0,0,0,5,0,0,5,0,0,0,0,0,0,0,0,3,0,0,0,0,10,0,13,18,0,0,0,0,0,0,0,0,0,0,0,0,0,0,0,0,0,0,0,0,0,0,11,0,0],"split_type":[0,0,0,0,0,0,0,0,0,0,0,0,0,0,0,0,0,0,0,0,0,0,0,0,0,0,0,0,0,0,0,0,0,0,0,0,0,0,0,0,0,0,0,0,0,0,0,0,0,0,0,0,0,0,0,0,0,0,0,0,0,0,0,0,0,0,0,0,0,0,0,0,0,0,0,0,0,0,0,0,0,0,0,0,0,0,0,0,0],"sum_hessian":[7.4225864E3,5.4631484E3,1.9594379E3,4.245656E3,1.2174928E3,1.2511139E3,7.083239E2,1.6027131E3,2.6429426E3,1.0598145E3,1.5767825E2,1.0646895E3,1.864245E2,4.6048535E2,2.4783856E2,1.300504E2,1.4726627E3,2.5578071E3,8.513543E1,6.241086E2,4.3570593E2,4.66081E0,1.5301744E2,7.195742E2,3.4511517E2,1.4436408E1,1.719881E2,4.4150778E2,1.8977562E1,1.6001488E2,8.782369E1,6.289179E1,6.7158615E1,1.0260558E2,1.3700573E3,6.1757654E2,1.9402306E3,1.465556E1,7.047987E1,3.989879E1,5.842098E2,1.4736182E2,5.655623E0,6.8528046E2,3.4293785E1,1.5818556E2,1.869296E2,6.8390326E0,4.3466876E2,1.5156337E2,8.4515E0,1.1167665E3,2.5329071E2,6.054143E2,1.2162217E1,1.5426394E3,3.9759122E2,2.3727911E1,4.675196E1,7.561819E1,6.0966223E2,1.18805626E2,3.937994E1,1.3380556E2,5.312404E1,3.295466E1,5.7245966E2,1.4419396E3,1.0069976E2,1.6546318E1,3.0205645E1,8.181164E0,6.014811E2,5.771331E1,6.1092316E1,3.3158936E1,6.221004E0,1.2481423E2,8.9913225E0,1.3733044E3,6.863516E1,4.275993E0,2.5929651E1,1.364269E3,9.035474E0,8.07301E0,1.7856642E1,1.3141574E1,4.715067E0],"tree_param":{"num_deleted":"0","num_feature":"20","num_nodes":"89","size_leaf_vector":"1"}},{"base_weights":[-8.606524E-2,-6.813853E-2,-2.787359E-1,-6.030107E-2,-2.1650597E-1,-3.2270992E-1,1.6089528E-3,-9.674627E-2,-3.928714E-2,-2.2701139E-2,-9.362185E-3,-2.6667587E-2,-2.365288E-1,-5.899435E-2,-2.5791362E-1,-2.2060467E-2,-2.360454E-3,-1.8356571E-2,3.4045596E-2,-8.354689E-2,1.0495618E-2,-1.5234176E-2,-5.044266E-1,-6.0048685E-3,5.9600927E-2,2.128251E-2,-1.8916879E-3,-3.9542772E-2,2.5189811E-2],"categories":[],"categories_nodes":[],"categories_segments":[],"categories_sizes":[],"default_left":[0,0,0,0,0,0,0,0,0,0,0,0,0,0,0,0,0,0,0,0,0,0,0,0,0,0,0,0,0],"id":13,"left_children":[1,3,5,7,9,11,-1,13,15,-1,-1,-1,17,19,21,-1,-1,-1,-1,23,25,-1,27,-1,-1,-1,-1,-1,-1],"loss_changes":[2.2572773E1,6.900093E0,7.507145E0,4.3305607E0,2.6066093E0,2.6612816E0,0E0,1.257234E1,4.7033296E0,0E0,0E0,0E0,5.1929207E0,2.90563E0,3.102747E0,0E0,0E0,0E0,0E0,5.175578E0,5.140722E0,0E0,3.2064133E0,0E0,0E0,0E0,0E0,0E0,0E0],"parents":[2147483647,0,0,1,1,2,2,3,3,4,4,5,5,7,7,8,8,12,12,13,13,14,14,19,19,20,20,22,22],"right_children":[2,4,6,8,10,12,-1,14,16,-1,-1,-1,18,20,22,-1,-1,-1,-1,24,26,-1,28,-1,-1,-1,-1,-1,-1],"split_conditions":[1.3417169E0,1.8564607E0,1.0852664E0,-2.5424746E-1,-2.0511797E-1,1.5811064E0,1.6089528E-3,2.9254428E-1,-1.7283914E0,-2.2701139E-2,-9.362185E-3,-2.6667587E-2,2.0344427E0,-4.0332332E-1,5.663585E-1,-2.2060467E-2,-2.360454E-3,-1.8356571E-2,3.4045596E-2,2.768277E-1,-3.512871E-1,-1.5234176E-2,7.03953E-1,-6.0048685E-3,5.9600927E-2,2.128251E-2,-1.8916879E-3,-3.9542772E-2,2.5189811E-2],"split_indices":[0,1,1,12,4,4,0,0,6,0,0,0,18,1,18,0,0,0,0,0,1,0,1,0,0,0,0,0,0],"split_type":[0,0,0,0,0,0,0,0,0,0,0,0,0,0,0,0,0,0,0,0,0,0,0,0,0,0,0,0,0],"sum_hessian":[6.567567E3,6.0102046E3,5.5736255E2,5.7108706E3,2.9933405E2,4.8748422E2,6.98783E1,2.0829065E3,3.6279639E3,1.1940053E2,1.7993353E2,2.694954E2,2.1798885E2,1.6893572E3,3.9354935E2,5.7403244E1,3.5705608E3,2.0922888E2,8.759962E0,1.2516115E3,4.377458E2,3.466093E2,4.694002E1,1.2462124E3,5.398971E0,5.0044323E1,3.8770145E2,4.358919E1,3.350827E0],"tree_param":{"num_deleted":"0","num_feature":"20","num_nodes":"29","size_leaf_vector":"1"}},{"base_weights":[-6.346925E-2,-1.384301E-1,9.6987456E-2,-5.9803188E-2,-2.5567752E-1,1.477254E-1,-1.22804746E-1,1.698426E-2,-1.0400867E-1,-2.166805E-1,-3.7976015E-1,1.6436744E-1,-2.6503133E-2,3.603916E-4,-1.961752E-2,-1.925999E-2,6.285199E-3,-1.07632704E-1,8.774431E-2,-1.4035611E-2,-3.0930882E-2,-2.742555E-2,3.458458E-2,7.3247286E-3,1.9574936E-2,1.4724496E-2,-4.1233934E-2,-2.202804E-1,-5.6546354E-3,-3.4588925E-3,3.7889116E-2,-4.6037408E-3,-1.9102987E-2],"categories":[],"categories_nodes":[],"categories_segments":[],"categories_sizes":[],"default_left":[0,0,0,0,0,0,0,0,0,0,0,0,0,0,0,0,0,0,0,0,0,0,0,0,0,0,0,0,0,0,0,0,0],"id":14,"left_children":[1,3,5,7,9,11,13,15,17,19,21,23,-1,-1,-1,25,-1,27,-1,-1,-1,-1,-1,-1,-1,-1,29,31,-1,-1,-1,-1,-1],"loss_changes":[7.996622E1,4.167775E1,2.3600246E1,9.241971E0,8.594475E0,1.5292049E1,8.444881E0,2.7191567E0,8.348949E0,3.3394318E0,8.6034355E0,1.1531963E1,0E0,0E0,0E0,3.382698E0,0E0,4.6930065E0,0E0,0E0,0E0,0E0,0E0,0E0,0E0,0E0,3.29801E0,2.6977243E0,0E0,0E0,0E0,0E0,0E0],"parents":[2147483647,0,0,1,1,2,2,3,3,4,4,5,5,6,6,7,7,8,8,9,9,10,10,11,11,15,15,17,17,26,26,27,27],"right_children":[2,4,6,8,10,12,14,16,18,20,22,24,-1,-1,-1,26,-1,28,-1,-1,-1,-1,-1,-1,-1,-1,30,32,-1,-1,-1,-1,-1],"split_conditions":[6.290167E-1,2.3939626E-1,8.881056E-1,-6.255495E-1,1.3205785E0,2.271108E0,5.7028794E-1,5.1624462E-2,4.2313976E0,2.9592848E0,1.6362761E0,1.495105E0,-2.6503133E-2,3.603916E-4,-1.961752E-2,-1.9229681E0,6.285199E-3,-1.10316E0,8.774431E-2,-1.4035611E-2,-3.0930882E-2,-2.742555E-2,3.458458E-2,7.3247286E-3,1.9574936E-2,1.4724496E-2,2.9269001E0,-1.487591E0,-5.6546354E-3,-3.4588925E-3,3.7889116E-2,-4.6037408E-3,-1.9102987E-2],"split_indices":[10,11,11,11,11,17,16,10,19,17,19,10,0,0,0,11,0,10,0,0,0,0,0,0,0,0,19,15,0,0,0,0,0],"split_type":[0,0,0,0,0,0,0,0,0,0,0,0,0,0,0,0,0,0,0,0,0,0,0,0,0,0,0,0,0,0,0,0,0],"sum_hessian":[6.6469326E3,4.5317866E3,2.1151462E3,2.714406E3,1.8173804E3,1.7196527E3,3.954936E2,9.89169E2,1.725237E3,1.3850533E3,4.3232706E2,1.6685798E3,5.107286E1,2.215977E2,1.7389589E2,6.646968E2,3.2447223E2,1.7211268E3,4.1102433E0,1.3259442E3,5.910916E1,4.2209515E2,1.0231911E1,1.1415527E3,5.270271E2,5.5454964E1,6.092418E2,3.0709827E2,1.4140286E3,6.003696E2,8.872177E0,8.80275E1,2.1907077E2],"tree_param":{"num_deleted":"0","num_feature":"20","num_nodes":"33","size_leaf_vector":"1"}},{"base_weights":[1.2452559E-1,3.4630507E-2,3.7790263E-1,8.35115E-2,-1.615677E-1,2.7478036E-1,5.5717355E-1,-4.0539363E-3,1.340746E-1,-1.3921782E-1,-3.6953726E-1,3.2480896E-2,1.94939E-1,6.3322824E-1,3.3374196E-1,8.561824E-3,-3.4535844E-3,1.2433294E-1,3.81662E-2,-1.00239E-1,-1.5609623E-2,-2.7686575E-2,4.525924E-2,2.4473867E-1,-6.8949506E-2,4.4215646E-2,-1.6098473E-2,2.1548991E-1,3.813582E-2,1.6076188E-1,3.8933747E-2,-1.769293E-1,-4.218833E-2,2.3346516E-1,4.950865E-2,-6.992597E-3,5.9656877E-2,1.4322084E-1,6.019603E-2,1.7226027E-1,-1.623164E-1,3.0138647E-2,5.3049393E-2,-5.0386634E-2,-1.9402623E-2,-1.9259892E-3,-4.486034E-2,5.1836696E-2,2.2321734E-1,1.308562E-2,-4.7713183E-2,2.4037031E-2,1.5800096E-1,-3.6068473E-2,8.2087144E-2,-1.0333025E-1,4.2468472E-3,-1.8310033E-2,4.521085E-3,-2.677683E-2,1.5708648E-2,1.5153767E-1,3.497627E-2,-1.8850164E-2,2.0032478E-2,-2.2608544E-1,2.3489557E-3,9.90519E-2,1.8248533E-1,1.8695243E-2,-2.1180084E-2,1.13614894E-1,-2.8640604E-2,3.2481074E-2,1.1780712E-2,1.2695436E-1,-2.5029046E-2,-9.549819E-3,1.0323369E-2],"categories":[],"categories_nodes":[],"categories_segments":[],"categories_sizes":[],"default_left":[0,0,0,0,0,0,0,0,0,0,0,0,0,0,0,0,0,0,0,0,0,0,0,0,0,0,0,0,0,0,0,0,0,0,0,0,0,0,0,0,0,0,0,0,0,0,0,0,0,0,0,0,0,0,0,0,0,0,0,0,0,0,0,0,0,0,0,0,0,0,0,0,0,0,0,0,0,0,0],"id":15,"left_children":[1,3,5,7,9,11,13,15,17,19,21,-1,23,25,27,-1,-1,29,-1,31,-1,-1,-1,33,35,-1,-1,37,-1,39,41,43,45,47,-1,-1,-1,49,-1,51,53,55,-1,57,-1,-1,-1,-1,59,-1,-1,-1,61,-1,63,65,-1,-1,-1,-1,-1,67,-1,-1,-1,69,-1,71,73,-1,-1,75,-1,-1,-1,77,-1,-1,-1],"loss_changes":[1.6988553E2,5.2826965E1,3.5833893E1,1.9579533E1,4.9351845E0,1.975621E1,1.1765167E1,9.719886E0,1.138311E1,3.3646088E0,3.9233856E0,0E0,1.1764378E1,7.150833E0,4.5977516E0,0E0,0E0,8.454628E0,0E0,3.0236664E0,0E0,0E0,0E0,3.74337E0,4.2286587E0,0E0,0E0,5.4800396E0,0E0,7.1280746E0,5.082596E0,3.9368238E0,3.1991327E0,3.626667E0,0E0,0E0,0E0,4.357525E0,0E0,4.590332E0,5.972977E0,3.4733975E0,0E0,3.5793822E0,0E0,0E0,0E0,0E0,3.1366272E0,0E0,0E0,0E0,3.7200928E0,0E0,2.950955E0,2.6971154E0,0E0,0E0,0E0,0E0,0E0,2.6512642E0,0E0,0E0,0E0,3.5613513E0,0E0,4.6767073E0,2.8067245E0,0E0,0E0,3.8683567E0,0E0,0E0,0E0,3.9089022E0,0E0,0E0,0E0],"parents":[2147483647,0,0,1,1,2,2,3,3,4,4,5,5,6,6,7,7,8,8,9,9,10,10,12,12,13,13,14,14,17,17,19,19,23,23,24,24,27,27,29,29,30,30,31,31,32,32,33,33,37,37,39,39,40,40,41,41,43,43,48,48,52,52,54,54,55,55,61,61,65,65,67,67,68,68,71,71,75,75],"right_children":[2,4,6,8,10,12,14,16,18,20,22,-1,24,26,28,-1,-1,30,-1,32,-1,-1,-1,34,36,-1,-1,38,-1,40,42,44,46,48,-1,-1,-1,50,-1,52,54,56,-1,58,-1,-1,-1,-1,60,-1,-1,-1,62,-1,64,66,-1,-1,-1,-1,-1,68,-1,-1,-1,70,-1,72,74,-1,-1,76,-1,-1,-1,78,-1,-1,-1],"split_conditions":[3.111385E-1,8.199505E-1,1.2407967E0,-6.625651E-1,2.3197827E0,-4.6561992E-1,9.196096E-1,-6.798817E-1,2.918454E0,5.7160205E-1,8.3628124E-1,3.2480896E-2,1.248474E0,2.8570437E0,2.228696E0,8.561824E-3,-3.4535844E-3,1.7716531E-1,3.81662E-2,-6.366132E-1,-1.5609623E-2,-2.7686575E-2,4.525924E-2,3.8167818E0,2.8013446E0,4.4215646E-2,-1.6098473E-2,2.1609702E0,3.813582E-2,1.6208972E-1,2.4527113E0,-9.670997E-1,2.4621654E0,-1.3014534E0,4.950865E-2,-6.992597E-3,5.9656877E-2,2.7483063E0,6.019603E-2,-1.6805521E0,3.267377E0,-7.696896E-2,5.3049393E-2,-1.3534853E0,-1.9402623E-2,-1.9259892E-3,-4.486034E-2,5.1836696E-2,-1.6805521E0,1.308562E-2,-4.7713183E-2,2.4037031E-2,1.8788105E0,-3.6068473E-2,-1.5217581E-1,3.9913476E-1,4.2468472E-3,-1.8310033E-2,4.521085E-3,-2.677683E-2,1.5708648E-2,-3.9875907E-1,3.497627E-2,-1.8850164E-2,2.0032478E-2,-8.4572434E-1,2.3489557E-3,1.1475154E0,-1.7511904E0,1.8695243E-2,-2.1180084E-2,-4.0589255E-1,-2.8640604E-2,3.2481074E-2,1.1780712E-2,-1.487591E0,-2.5029046E-2,-9.549819E-3,1.0323369E-2],"split_indices":[0,8,0,0,8,8,6,8,17,15,17,0,8,18,0,0,0,8,0,0,0,0,0,17,17,0,0,17,0,17,17,0,17,5,0,0,0,8,0,10,18,5,0,0,0,0,0,0,10,0,0,0,4,0,13,15,0,0,0,0,0,0,0,0,0,6,0,5,8,0,0,0,0,0,0,15,0,0,0],"split_type":[0,0,0,0,0,0,0,0,0,0,0,0,0,0,0,0,0,0,0,0,0,0,0,0,0,0,0,0,0,0,0,0,0,0,0,0,0,0,0,0,0,0,0,0,0,0,0,0,0,0,0,0,0,0,0,0,0,0,0,0,0,0,0,0,0,0,0,0,0,0,0,0,0,0,0,0,0,0,0],"sum_hessian":[7.4641377E3,5.5105005E3,1.953637E3,4.412786E3,1.0977144E3,1.2415927E3,7.120444E2,1.6131213E3,2.7996648E3,9.9279895E2,1.0491543E2,3.509524E2,8.9064026E2,5.2995197E2,1.8209239E2,4.2469333E2,1.188428E3,2.7379446E3,6.1720394E1,6.947248E2,2.9807422E2,1.0172562E2,3.1898065E0,7.5025586E2,1.4038435E2,5.212498E2,8.702115E0,1.2057339E2,6.1519012E1,1.9165728E3,8.213717E2,2.968395E2,3.9788525E2,7.339559E2,1.6300018E1,1.3601907E2,4.365278E0,1.0939198E2,1.11814E1,1.8517161E3,6.485668E1,8.122972E2,9.074521E0,1.3786417E2,1.5897533E2,3.8973676E2,8.148514E0,1.3197762E1,7.207581E2,1.03889565E2,5.502424E0,1.3386343E2,1.7178527E3,2.6379988E1,3.8476692E1,1.556821E2,6.566151E2,4.891095E1,8.8953224E1,7.6634226E0,7.1309467E2,1.6882231E3,2.9629505E1,1.37158985E1,2.4760796E1,8.3478004E1,7.2204094E1,6.302169E2,1.0580062E3,1.1476326E1,7.200168E1,6.137283E2,1.648864E1,3.2609753E1,1.0253965E3,5.979063E2,1.5821966E1,4.8990997E1,5.489153E2],"tree_param":{"num_deleted":"0","num_feature":"20","num_nodes":"79","size_leaf_vector":"1"}},{"base_weights":[-7.5349346E-2,-4.9771193E-2,-2.713416E-1,-1.989417E-1,-3.7707552E-2,-1.5353029E-2,-2.6609944E-2,-1.1943873E-1,-2.0366643E-2,-2.2244258E-2,-8.555001E-3,-2.521945E-2,-4.672776E-3,-1.7142615E-3,1.5616589E-2],"categories":[],"categories_nodes":[],"categories_segments":[],"categories_sizes":[],"default_left":[0,0,0,0,0,0,0,0,0,0,0,0,0,0,0],"id":16,"left_children":[1,3,5,7,9,-1,-1,11,-1,13,-1,-1,-1,-1,-1],"loss_changes":[3.254967E1,1.0295543E1,3.9141655E0,3.2663174E0,7.1909966E0,0E0,0E0,2.9289281E0,0E0,3.2379584E0,0E0,0E0,0E0,0E0,0E0],"parents":[2147483647,0,0,1,1,2,2,3,3,4,4,7,7,9,9],"right_children":[2,4,6,8,10,-1,-1,12,-1,14,-1,-1,-1,-1,-1],"split_conditions":[9.793987E-1,-1.3794532E0,1.7891799E0,1.5080543E0,5.123617E-1,-1.5353029E-2,-2.6609944E-2,1.7581879E-1,-2.0366643E-2,4.9050805E-1,-8.555001E-3,-2.521945E-2,-4.672776E-3,-1.7142615E-3,1.5616589E-2],"split_indices":[2,2,2,6,2,0,0,12,0,2,0,0,0,0,0],"split_type":[0,0,0,0,0,0,0,0,0,0,0,0,0,0,0],"sum_hessian":[6.5132563E3,5.7629585E3,7.5029767E2,4.2905597E2,5.3339023E3,5.425829E2,2.0771478E2,2.4068541E2,1.8837056E2,4.5379893E3,7.9591345E2,3.9457554E1,2.0122786E2,4.4876763E3,5.0312813E1],"tree_param":{"num_deleted":"0","num_feature":"20","num_nodes":"15","size_leaf_vector":"1"}},{"base_weights":[-5.9549633E-2,2.5980026E-1,-1.9530176E-1,5.327321E-1,1.6007479E-1,-1.3237311E-1,-4.183323E-1,5.618725E-1,2.986254E-1,2.0915398E-1,1.09552234E-1,-5.769995E-2,-2.0798379E-1,-2.437818E-2,-3.4664933E-2,4.714291E-2,5.109415E-1,9.410632E-3,6.067422E-2,2.7617353E-1,1.4729257E-1,3.586585E-2,1.601903E-2,-4.0775053E-3,6.855084E-2,-1.475765E-2,5.5472916E-3,4.2050266E-1,4.1628428E-2,1.7829297E-2,6.470488E-2,1.2802875E-1,3.9190393E-2,1.3699795E-1,-3.2317355E-2,5.1659916E-2,2.338284E-2,5.7577696E-2,1.1615089E-1,5.492913E-3,4.22491E-1,-4.419352E-3,2.4139611E-2,2.8096577E-3,1.4907824E-2,4.2112187E-2,-8.619357E-3],"categories":[],"categories_nodes":[],"categories_segments":[],"categories_sizes":[],"default_left":[0,0,0,0,0,0,0,0,0,0,0,0,0,0,0,0,0,0,0,0,0,0,0,0,0,0,0,0,0,0,0,0,0,0,0,0,0,0,0,0,0,0,0,0,0,0,0],"id":17,"left_children":[1,3,5,7,9,11,13,15,17,19,21,23,25,-1,-1,-1,27,-1,-1,29,31,33,-1,-1,-1,-1,-1,35,-1,-1,-1,37,-1,39,41,-1,-1,-1,43,-1,45,-1,-1,-1,-1,-1,-1],"loss_changes":[2.8616132E2,5.3345825E1,6.484027E1,3.2903442E0,3.4737587E0,2.0323437E1,5.2756653E0,2.6403656E0,5.3307385E0,2.8809052E0,6.5130053E0,3.7695556E0,4.422447E0,0E0,0E0,0E0,2.6684952E0,0E0,0E0,3.0149174E0,2.9097967E0,3.1482434E0,0E0,0E0,0E0,0E0,0E0,4.2878036E0,0E0,0E0,0E0,2.797545E0,0E0,2.7983866E0,3.2779632E0,0E0,0E0,0E0,2.6872077E0,0E0,3.3127847E0,0E0,0E0,0E0,0E0,0E0,0E0],"parents":[2147483647,0,0,1,1,2,2,3,3,4,4,5,5,6,6,7,7,8,8,9,9,10,10,11,11,12,12,16,16,19,19,20,20,21,21,27,27,31,31,33,33,34,34,38,38,40,40],"right_children":[2,4,6,8,10,12,14,16,18,20,22,24,26,-1,-1,-1,28,-1,-1,30,32,34,-1,-1,-1,-1,-1,36,-1,-1,-1,38,-1,40,42,-1,-1,-1,44,-1,46,-1,-1,-1,-1,-1,-1],"split_conditions":[-4.09626E-1,-1.3022087E0,7.7260435E-1,3.2811983E0,-7.1876204E-1,1.0387525E-1,1.38535E0,-2.1313477E0,5.7780237E0,6.05885E-1,6.05885E-1,3.9639869E0,1.9635639E0,-2.437818E-2,-3.4664933E-2,4.714291E-2,1.2509843E0,9.410632E-3,6.067422E-2,3.833246E0,-7.316524E-1,-7.696896E-2,1.601903E-2,-4.0775053E-3,6.855084E-2,-1.475765E-2,5.5472916E-3,-3.921433E-2,4.1628428E-2,1.7829297E-2,6.470488E-2,-2.1291487E0,3.9190393E-2,3.9029017E-1,1.2545155E0,5.1659916E-2,2.338284E-2,5.7577696E-2,1.0419068E-1,5.492913E-3,8.8777244E-1,-4.419352E-3,2.4139611E-2,2.8096577E-3,1.4907824E-2,4.2112187E-2,-8.619357E-3],"split_indices":[2,2,2,19,2,2,2,2,19,12,12,19,19,0,0,0,12,0,0,19,2,5,0,0,0,0,0,12,0,0,0,7,0,4,3,0,0,0,9,0,7,0,0,0,0,0,0],"split_type":[0,0,0,0,0,0,0,0,0,0,0,0,0,0,0,0,0,0,0,0,0,0,0,0,0,0,0,0,0,0,0,0,0,0,0,0,0,0,0,0,0,0,0,0,0,0,0],"sum_hessian":[6.600929E3,1.9682544E3,4.632675E3,5.25688E2,1.4425664E3,3.6144983E3,1.0181765E3,4.6610406E2,5.958389E1,7.283298E2,7.1423663E2,1.8207534E3,1.7937449E3,6.101475E2,4.0802896E2,1.2928125E2,3.368228E2,4.7427307E1,1.2156584E1,3.4688818E2,3.814416E2,4.5153836E2,2.6269824E2,1.8176177E3,3.1357627E0,1.7440348E3,4.9710056E1,1.7856337E2,1.5825945E2,3.4014038E2,6.7478004E0,3.6589468E2,1.5546898E1,1.8362057E2,2.679178E2,3.2393562E1,1.4616982E2,5.352621E0,3.6054205E2,1.5439946E2,2.922112E1,2.4800557E2,1.9912222E1,2.1013277E2,1.5040929E2,2.196567E1,7.255452E0],"tree_param":{"num_deleted":"0","num_feature":"20","num_nodes":"47","size_leaf_vector":"1"}},{"base_weights":[1.1295054E-1,2.041664E-1,-9.460524E-2,1.4330418E-1,3.855301E-1,-2.09407E-2,-3.3391905E-1,1.8531916E-1,4.1612756E-2,3.544811E-1,4.7274236E-2,-1.0191406E-2,5.4265797E-2,-2.4615051E-2,-5.284005E-3,8.120555E-2,2.2498448E-1,-4.2651678E-3,7.4340686E-2,3.6120364E-1,-9.506244E-3,3.1564265E-2,2.7198859E-2,-4.770418E-2,5.9044305E-3,3.3786628E-1,1.9881167E-1,5.247605E-4,8.30508E-3,2.065484E-2,4.1462722E-1,2.491224E-3,-3.9410945E-2,3.9949614E-1,1.2856033E-1,1.4042911E-2,-1.517738E-2,2.473448E-2,3.7427865E-2,3.8251564E-2,2.1585789E-2,1.4880486E-2,-1.7316366E-2],"categories":[],"categories_nodes":[],"categories_segments":[],"categories_sizes":[],"default_left":[0,0,0,0,0,0,0,0,0,0,0,0,0,0,0,0,0,0,0,0,0,0,0,0,0,0,0,0,0,0,0,0,0,0,0,0,0,0,0,0,0,0,0],"id":18,"left_children":[1,3,5,7,9,11,13,15,17,19,-1,-1,21,-1,-1,23,25,-1,27,29,-1,31,-1,-1,-1,33,35,-1,-1,-1,37,-1,-1,39,41,-1,-1,-1,-1,-1,-1,-1,-1],"loss_changes":[1.4107724E2,5.6962906E1,3.9966354E1,1.649353E1,1.2045685E1,1.6843937E1,3.5632362E0,1.12224655E1,3.8769536E0,4.000183E0,0E0,0E0,8.436455E0,0E0,0E0,3.00558E0,5.679161E0,0E0,2.7002473E0,3.3873749E0,0E0,2.9508095E0,0E0,0E0,0E0,4.608368E0,4.8423157E0,0E0,0E0,0E0,3.8997116E0,0E0,0E0,3.5150642E0,2.9376874E0,0E0,0E0,0E0,0E0,0E0,0E0,0E0,0E0],"parents":[2147483647,0,0,1,1,2,2,3,3,4,4,5,5,6,6,7,7,8,8,9,9,12,12,15,15,16,16,18,18,19,19,21,21,25,25,26,26,30,30,33,33,34,34],"right_children":[2,4,6,8,10,12,14,16,18,20,-1,-1,22,-1,-1,24,26,-1,28,30,-1,32,-1,-1,-1,34,36,-1,-1,-1,38,-1,-1,40,42,-1,-1,-1,-1,-1,-1,-1,-1],"split_conditions":[1.398551E-1,6.7186916E-1,1.5083561E0,-3.317719E-1,2.1807387E0,-1.8969944E-1,1.5693587E0,-6.255495E-1,-7.749101E-1,2.0376236E0,4.7274236E-2,-1.0191406E-2,1.9652443E0,-2.4615051E-2,-5.284005E-3,-2.9911263E0,-1.1399467E0,-4.2651678E-3,-1.7007895E-1,1.1032668E0,-9.506244E-3,4.2313976E0,2.7198859E-2,-4.770418E-2,5.9044305E-3,-6.798817E-1,1.9638383E0,5.247605E-4,8.30508E-3,2.065484E-2,5.7160205E-1,2.491224E-3,-3.9410945E-2,-1.2294717E0,3.9722428E-1,1.4042911E-2,-1.517738E-2,2.473448E-2,3.7427865E-2,3.8251564E-2,2.1585789E-2,1.4880486E-2,-1.7316366E-2],"split_indices":[1,11,1,1,7,7,9,11,9,19,0,0,7,0,0,7,6,0,1,7,0,19,0,0,0,8,5,0,0,0,15,0,0,1,9,0,0,0,0,0,0,0,0],"split_type":[0,0,0,0,0,0,0,0,0,0,0,0,0,0,0,0,0,0,0,0,0,0,0,0,0,0,0,0,0,0,0,0,0,0,0,0,0,0,0,0,0,0,0],"sum_hessian":[7.4494966E3,5.176195E3,2.2733018E3,3.8771243E3,1.2990708E3,1.7393796E3,5.339221E2,2.741306E3,1.1358184E3,1.1812545E3,1.1781619E2,6.4359955E2,1.0957802E3,4.8180142E2,5.212071E1,7.585806E2,1.9827252E3,2.6923117E2,8.6658716E2,1.1660612E3,1.5193436E1,1.0290731E3,6.6706985E1,4.6509924E0,7.539296E2,3.7057034E2,1.6121549E3,3.6322873E2,5.0335846E2,5.6087714E2,6.05184E2,1.02141284E3,7.660289E0,2.8500568E2,8.556467E1,1.5861655E3,2.5989408E1,4.3855865E2,1.6662535E2,9.512796E1,1.8987772E2,7.003718E1,1.5527484E1],"tree_param":{"num_deleted":"0","num_feature":"20","num_nodes":"43","size_leaf_vector":"1"}},{"base_weights":[-7.3149286E-2,-5.2975625E-2,-2.654615E-1,-1.0580692E-2,-4.187902E-2,-1.3455368E-2,-2.5539037E-2,-2.6288306E-2,-1.17050365E-1,7.889641E-1,-2.7808262E-2,3.0614333E-2,-8.552511E-3,1.0131963E-2,9.882454E-2,-1.5455252E-1,-1.4880614E-3,-4.572161E-3,-2.2042945E-2],"categories":[],"categories_nodes":[],"categories_segments":[],"categories_sizes":[],"default_left":[0,0,0,0,0,0,0,0,0,0,0,0,0,0,0,0,0,0,0],"id":19,"left_children":[1,3,5,-1,7,-1,-1,9,11,13,15,-1,-1,-1,-1,17,-1,-1,-1],"loss_changes":[2.5118645E1,6.610691E0,4.384266E0,0E0,6.179838E0,0E0,0E0,5.2208576E0,4.2136955E0,2.76866E0,3.278994E0,0E0,0E0,0E0,0E0,2.7651386E0,0E0,0E0,0E0],"parents":[2147483647,0,0,1,1,2,2,4,4,7,7,8,8,9,9,10,10,15,15],"right_children":[2,4,6,-1,8,-1,-1,10,12,14,16,-1,-1,-1,-1,18,-1,-1,-1],"split_conditions":[1.1044685E0,-1.1746789E0,1.7315779E0,-1.0580692E-2,5.123617E-1,-1.3455368E-2,-2.5539037E-2,-2.775632E0,-1.3959342E0,-4.1915786E-1,-1.434169E0,3.0614333E-2,-8.552511E-3,1.0131963E-2,9.882454E-2,1.4096165E0,-1.4880614E-3,-4.572161E-3,-2.2042945E-2],"split_indices":[2,2,2,0,2,0,0,7,4,2,6,0,0,0,0,13,0,0,0],"split_type":[0,0,0,0,0,0,0,0,0,0,0,0,0,0,0,0,0,0,0],"sum_hessian":[6.5006387E3,5.8851226E3,6.1551587E2,5.7349615E2,5.3116265E3,3.8087476E2,2.3464113E2,4.402854E3,9.087725E2,7.653567E0,4.3952007E3,1.2573113E1,8.961994E2,4.226969E0,3.426598E0,1.9568256E2,4.199518E3,1.3022278E2,6.5459785E1],"tree_param":{"num_deleted":"0","num_feature":"20","num_nodes":"19","size_leaf_vector":"1"}},{"base_weights":[-5.985977E-2,2.1799974E-1,-1.9959965E-1,4.5835513E-1,1.3594633E-1,-1.4221863E-1,-4.4476587E-1,4.8580092E-1,1.1846324E-1,5.404124E-2,1.9377103E-1,-2.7655622E-2,-1.8735276E-1,-3.7245524E-1,-3.4488346E-2,4.2385705E-2,4.2494133E-1,4.5374017E-2,-2.7203916E-3,4.398168E-1,2.409026E-3,2.0183073E-1,-3.3554967E-2,-4.5727617E-3,-2.1689658E-1,-1.6357309E-1,-1.9975623E-2,-2.83683E-1,-3.2037526E-2,3.0455387E-1,4.939704E-1,5.5610135E-2,-4.4691578E-2,1.7585601E-1,2.3897398E-2,-3.5563428E-2,1.9591714E-1,-3.4159E-1,7.827008E-3,-1.3486052E-1,-1.5228918E-2,-3.702151E-2,-1.5053874E-2,4.623772E-1,8.6187925E-3,5.8483094E-2,4.5202973E-1,2.9795177E-2,-3.717963E-2,1.6873373E-1,4.746147E-2,-7.133108E-2,7.1645975E-3,1.1052692E-1,6.390314E-2,-3.2928705E-2,-2.6930392E-2,-4.4851103E-3,-1.6704443E-1,5.7748765E-1,-1.977197E-2,4.0838964E-2,2.3957118E-2,1.2249451E-2,-1.6169325E-2,-1.2500229E-2,-1.100373E-2,6.440574E-2,5.077989E-3,5.1883E-2,-1.2620015E-2,3.7105545E-2,-1.8547492E-1,8.001193E-3,7.526708E-1,-1.8698627E-2,2.7718974E-2,8.739417E-3,-3.8642365E-2,-1.2900901E-2,4.5271628E-2,2.2810068E-2,6.3964374E-2,1.7411819E-1,-3.0376025E-2,-0E0,5.7937294E-1,-7.469916E-2,3.392168E-1,1.2475036E-1,-2.4000736E-2,6.47987E-2,1.2225905E-2,-8.415161E-3,3.5019577E-1,3.514233E-2,-4.1374013E-2,-1.7643072E-2,1.9225629E-2,6.5215565E-2,4.2652683E-3],"categories":[],"categories_nodes":[],"categories_segments":[],"categories_sizes":[],"default_left":[0,0,0,0,0,0,0,0,0,0,0,0,0,0,0,0,0,0,0,0,0,0,0,0,0,0,0,0,0,0,0,0,0,0,0,0,0,0,0,0,0,0,0,0,0,0,0,0,0,0,0,0,0,0,0,0,0,0,0,0,0,0,0,0,0,0,0,0,0,0,0,0,0,0,0,0,0,0,0,0,0,0,0,0,0,0,0,0,0,0,0,0,0,0,0,0,0,0,0,0,0],"id":20,"left_children":[1,3,5,7,9,11,13,15,17,19,21,23,25,27,-1,-1,29,-1,-1,31,-1,33,-1,35,37,39,-1,41,-1,43,45,-1,47,49,-1,51,53,55,-1,57,-1,-1,-1,59,-1,-1,61,-1,-1,63,-1,65,-1,67,-1,-1,69,-1,71,73,-1,-1,-1,-1,-1,75,-1,-1,-1,-1,-1,77,79,-1,81,-1,83,-1,-1,-1,-1,-1,-1,85,87,89,91,93,95,97,-1,-1,-1,-1,99,-1,-1,-1,-1,-1,-1],"loss_changes":[2.5504243E2,4.3138924E1,6.1300995E1,5.0082397E0,7.684536E0,1.825431E1,3.3460236E0,3.8893585E0,3.9049644E0,4.7637825E0,5.223896E0,4.314511E0,6.2266006E0,3.042324E0,0E0,0E0,2.7011871E0,0E0,0E0,5.837686E0,0E0,3.484703E0,0E0,5.5190296E0,4.5288496E0,3.4445457E0,0E0,3.032919E0,0E0,3.5338287E0,2.968876E0,0E0,3.2550392E0,2.707344E0,0E0,3.902389E0,7.1642795E0,3.348318E0,0E0,3.0517693E0,0E0,0E0,0E0,6.119443E0,0E0,0E0,2.677185E0,0E0,0E0,3.5238628E0,0E0,3.2391167E0,0E0,2.8855186E0,0E0,0E0,2.997262E0,0E0,3.6449146E0,4.592041E0,0E0,0E0,0E0,0E0,0E0,4.061401E0,0E0,0E0,0E0,0E0,0E0,4.156591E0,2.6418629E0,0E0,2.907404E0,0E0,2.827903E0,0E0,0E0,0E0,0E0,0E0,0E0,6.626559E0,3.734368E0,2.9054255E0,3.8137522E0,4.255814E0,4.053688E0,2.988843E0,0E0,0E0,0E0,0E0,3.3058934E0,0E0,0E0,0E0,0E0,0E0,0E0],"parents":[2147483647,0,0,1,1,2,2,3,3,4,4,5,5,6,6,7,7,8,8,9,9,10,10,11,11,12,12,13,13,16,16,19,19,21,21,23,23,24,24,25,25,27,27,29,29,30,30,32,32,33,33,35,35,36,36,37,37,39,39,43,43,46,46,49,49,51,51,53,53,56,56,58,58,59,59,65,65,71,71,72,72,74,74,76,76,83,83,84,84,85,85,86,86,87,87,88,88,89,89,94,94],"right_children":[2,4,6,8,10,12,14,16,18,20,22,24,26,28,-1,-1,30,-1,-1,32,-1,34,-1,36,38,40,-1,42,-1,44,46,-1,48,50,-1,52,54,56,-1,58,-1,-1,-1,60,-1,-1,62,-1,-1,64,-1,66,-1,68,-1,-1,70,-1,72,74,-1,-1,-1,-1,-1,76,-1,-1,-1,-1,-1,78,80,-1,82,-1,84,-1,-1,-1,-1,-1,-1,86,88,90,92,94,96,98,-1,-1,-1,-1,100,-1,-1,-1,-1,-1,-1],"split_conditions":[-3.2770053E-1,-1.2689458E0,8.9314055E-1,5.756226E-1,1.1511758E-1,-4.4728138E-2,1.3136164E0,-2.0389426E0,-1.2142584E0,-9.952315E-1,2.4197762E0,2.3393622E-1,8.881056E-1,-7.428943E-1,-3.4488346E-2,4.2385705E-2,-7.872696E-1,4.5374017E-2,-2.7203916E-3,3.3116496E-1,2.409026E-3,1.3998723E0,-3.3554967E-2,-1.8689148E-1,8.881056E-1,4.3205938E-1,-1.9975623E-2,-1.4663428E0,-3.2037526E-2,3.0930334E-1,1.3024302E0,5.5610135E-2,-6.842332E-2,1.5368149E0,2.3897398E-2,1.3926564E0,1.6208972E-1,7.101404E-1,7.827008E-3,-4.8513043E-1,-1.5228918E-2,-3.702151E-2,-1.5053874E-2,-8.519186E-1,8.6187925E-3,5.8483094E-2,-6.851812E-1,2.9795177E-2,-3.717963E-2,1.3024302E0,4.746147E-2,2.3159819E-2,7.1645975E-3,-1.4904952E0,6.390314E-2,-3.2928705E-2,9.523697E-1,-4.4851103E-3,-1.0580224E0,-6.851812E-1,-1.977197E-2,4.0838964E-2,2.3957118E-2,1.2249451E-2,-1.6169325E-2,-2.9024613E-1,-1.100373E-2,6.440574E-2,5.077989E-3,5.1883E-2,-1.2620015E-2,-6.266943E-4,1.67246E0,8.001193E-3,1.2495412E-1,-1.8698627E-2,-4.8513043E-1,8.739417E-3,-3.8642365E-2,-1.2900901E-2,4.5271628E-2,2.2810068E-2,6.3964374E-2,-4.2774835E-1,-7.711977E-2,-5.648756E-1,-4.9591547E-1,1.213832E0,-4.0589255E-1,-9.097631E-1,-2.4000736E-2,6.47987E-2,1.2225905E-2,-8.415161E-3,-6.6986924E-1,3.514233E-2,-4.1374013E-2,-1.7643072E-2,1.9225629E-2,6.5215565E-2,4.2652683E-3],"split_indices":[2,2,2,17,1,2,2,2,0,2,17,0,11,1,0,0,0,0,0,6,0,1,0,0,11,2,0,16,0,15,1,0,1,11,0,14,17,0,0,5,0,0,0,0,0,0,14,0,0,1,0,11,0,11,0,0,1,0,11,14,0,0,0,0,0,2,0,0,0,0,0,0,1,0,16,0,5,0,0,0,0,0,0,1,2,1,0,6,0,1,0,0,0,0,0,0,0,0,0,0,0],"split_type":[0,0,0,0,0,0,0,0,0,0,0,0,0,0,0,0,0,0,0,0,0,0,0,0,0,0,0,0,0,0,0,0,0,0,0,0,0,0,0,0,0,0,0,0,0,0,0,0,0,0,0,0,0,0,0,0,0,0,0,0,0,0,0,0,0,0,0,0,0,0,0,0,0,0,0,0,0,0,0,0,0,0,0,0,0,0,0,0,0,0,0,0,0,0,0,0,0,0,0,0,0],"sum_hessian":[6.568315E3,2.197152E3,4.371163E3,5.580163E2,1.6391356E3,3.543373E3,8.277899E2,5.15406E2,4.2610306E1,6.8070074E2,9.5843494E2,1.00347687E3,2.5398962E3,3.8164645E2,4.4614346E2,1.5746565E2,3.5794034E2,9.895488E0,3.2714817E1,3.0548687E1,6.5015204E2,9.4786743E2,1.0567495E1,8.96008E2,1.0746887E2,2.0757744E3,4.641217E2,2.016499E2,1.7999657E2,1.3241862E2,2.2552173E2,1.7508871E1,1.3039816E1,8.0894714E2,1.3892026E2,7.7752014E2,1.1848787E2,7.878893E1,2.8679937E1,1.4059733E3,6.698012E2,3.817159E1,1.6347832E2,6.914706E1,6.327156E1,2.2220955E1,2.0330077E2,6.3366337E0,6.7031817E0,7.988262E2,1.0121003E1,6.217061E2,1.5581401E2,1.0679367E2,1.1694205E1,5.3625053E1,2.5163883E1,4.5006912E2,9.559042E2,6.036522E1,8.781837E0,8.110578E1,1.2219499E2,7.787708E2,2.0055326E1,3.782309E2,2.4347522E2,3.8969374E0,1.0289673E2,3.772353E0,2.139153E1,7.773006E1,8.7817413E2,1.7212717E1,4.3152504E1,5.1296303E1,3.269346E2,6.810588E1,9.624178E0,8.748441E2,3.3299932E0,1.3911748E1,2.9240755E1,9.432086E1,2.3261374E2,6.6208046E1,2.8112816E1,2.0857768E2,2.4036062E1,4.910538E1,1.7102665E1,1.4066648E1,1.4046167E1,1.878918E2,2.0685875E1,2.0604599E1,3.4314625E0,1.366603E1,3.543935E1,6.185249E0,1.4500627E1],"tree_param":{"num_deleted":"0","num_feature":"20","num_nodes":"101","size_leaf_vector":"1"}},{"base_weights":[1.2153248E-1,-7.8921214E-2,2.8246304E-1,-2.6779154E-1,1.2742845E-2,1.7188881E-1,4.2575717E-1,-1.6467394E-1,-3.4607673E-1,6.0094143E-3,-3.8870692E-2,1.4726861E-1,2.2838975E-1,3.6993313E-1,4.0136266E-2,-1.1922307E-2,6.7868635E-2,-2.801531E-2,-1.5716193E-2,4.2474642E-2,-4.742062E-2,1.6841221E-1,6.595251E-2,2.0537749E-1,3.0459274E-2,2.8885934E-1,2.8494991E-2,-9.318127E-2,4.421024E-2,1.1808414E-1,1.4623043E-2,3.889229E-1,2.7817145E-3,1.5294178E-2,-8.191261E-3,4.3186255E-2,2.612365E-1,-6.298423E-2,-1.361772E-2,1.1917862E-1,-1.1159508E-2,8.735645E-3,-2.5693988E-2,-9.845654E-4,5.9425715E-2,1.8552287E-2,-2.549303E-2,-1.1888921E-2,-4.641259E-3,9.783546E-2,5.5050526E-2,7.0304334E-2,-1.129824E-3,1.3548076E-1,-1.0843708E-2,4.2606685E-3,2.930623E-2],"categories":[],"categories_nodes":[],"categories_segments":[],"categories_sizes":[],"default_left":[0,0,0,0,0,0,0,0,0,0,0,0,0,0,0,0,0,0,0,0,0,0,0,0,0,0,0,0,0,0,0,0,0,0,0,0,0,0,0,0,0,0,0,0,0,0,0,0,0,0,0,0,0,0,0,0,0],"id":21,"left_children":[1,3,5,7,9,11,13,15,17,-1,19,21,23,25,-1,-1,-1,-1,-1,-1,27,29,31,33,-1,35,-1,37,39,41,-1,43,-1,-1,-1,-1,45,47,-1,49,-1,-1,-1,-1,-1,-1,-1,-1,51,53,-1,-1,-1,55,-1,-1,-1],"loss_changes":[2.4027803E2,5.7475597E1,6.5258606E1,8.584251E0,8.696464E0,3.1226044E0,1.600824E1,5.311881E0,4.3842545E0,0E0,7.303755E0,2.7263412E0,3.3171463E0,4.970215E0,0E0,0E0,0E0,0E0,0E0,0E0,5.490917E0,2.8802795E0,2.6221073E0,3.966465E0,0E0,4.461525E0,0E0,2.724123E0,6.7321825E0,3.004221E0,0E0,4.8686156E0,0E0,0E0,0E0,0E0,3.1829433E0,4.3802247E0,0E0,4.391665E0,0E0,0E0,0E0,0E0,0E0,0E0,0E0,0E0,5.2443376E0,2.9959443E0,0E0,0E0,0E0,5.67892E0,0E0,0E0,0E0],"parents":[2147483647,0,0,1,1,2,2,3,3,4,4,5,5,6,6,7,7,8,8,10,10,11,11,12,12,13,13,20,20,21,21,22,22,23,23,25,25,27,27,28,28,29,29,31,31,36,36,37,37,39,39,48,48,49,49,53,53],"right_children":[2,4,6,8,10,12,14,16,18,-1,20,22,24,26,-1,-1,-1,-1,-1,-1,28,30,32,34,-1,36,-1,38,40,42,-1,44,-1,-1,-1,-1,46,48,-1,50,-1,-1,-1,-1,-1,-1,-1,-1,52,54,-1,-1,-1,56,-1,-1,-1],"split_conditions":[-7.236075E-2,-8.273326E-1,5.5837846E-1,1.010647E0,-2.3107733E-1,3.2577327E-1,1.4733349E0,3.4375458E0,-1.9596648E-1,6.0094143E-3,-1.329413E0,-1.062872E-1,8.805945E-1,2.9254428E-1,4.0136266E-2,-1.1922307E-2,6.7868635E-2,-2.801531E-2,-1.5716193E-2,4.2474642E-2,-1.2341322E-1,-4.6877566E-1,-5.1647987E-2,6.738315E-1,3.0459274E-2,-1.7025826E0,2.8494991E-2,3.3049944E-1,9.856983E-1,2.2483454E0,1.4623043E-2,8.2091814E-1,2.7817145E-3,1.5294178E-2,-8.191261E-3,4.3186255E-2,3.0514388E0,-9.7930364E-2,-1.361772E-2,3.3991296E0,-1.1159508E-2,8.735645E-3,-2.5693988E-2,-9.845654E-4,5.9425715E-2,1.8552287E-2,-2.549303E-2,-1.1888921E-2,-1.113419E0,1.3998723E0,5.5050526E-2,7.0304334E-2,-1.129824E-3,4.5096856E-1,-1.0843708E-2,4.2606685E-3,2.930623E-2],"split_indices":[2,2,2,1,1,2,2,18,0,0,12,1,0,0,0,0,0,0,0,0,0,0,2,0,0,16,0,1,4,18,0,12,0,0,0,0,18,1,0,18,0,0,0,0,0,0,0,0,0,1,0,0,0,0,0,0,0],"split_type":[0,0,0,0,0,0,0,0,0,0,0,0,0,0,0,0,0,0,0,0,0,0,0,0,0,0,0,0,0,0,0,0,0,0,0,0,0,0,0,0,0,0,0,0,0,0,0,0,0,0,0,0,0,0,0,0,0],"sum_hessian":[7.446122E3,3.315054E3,4.1310684E3,1.0842036E3,2.2308503E3,2.3331873E3,1.7978811E3,4.698382E2,6.143654E2,9.090729E2,1.3217775E3,1.6293385E3,7.0384863E2,1.3406986E3,4.5718246E2,4.661613E2,3.6769056E0,3.917702E2,2.2259523E2,1.6243727E1,1.3055337E3,1.28991E3,3.3942847E2,6.3830756E2,6.554106E1,5.0103204E2,8.396666E2,8.7298334E2,4.3255038E2,6.197234E2,6.701867E2,2.346081E1,3.1596768E2,6.042229E2,3.408462E1,3.60902E1,4.6494183E2,6.8265814E2,1.9032518E2,3.1905573E2,1.1349466E2,6.0816095E2,1.1562443E1,1.2510327E1,1.0950481E1,4.577239E2,7.2179265E0,2.327307E2,4.4992746E2,3.1007858E2,8.97714E0,4.6661115E0,4.4526135E2,2.7157346E2,3.8505146E1,2.186084E2,5.296504E1],"tree_param":{"num_deleted":"0","num_feature":"20","num_nodes":"57","size_leaf_vector":"1"}},{"base_weights":[-7.3326245E-2,-5.8775283E-2,-1.6571806E-1,-3.8304627E-3,-2.6358254E-2,-1.4104015E-2,-4.7269864E-3],"categories":[],"categories_nodes":[],"categories_segments":[],"categories_sizes":[],"default_left":[0,0,0,0,0,0,0],"id":22,"left_children":[1,3,5,-1,-1,-1,-1],"loss_changes":[8.63747E0,4.6345615E0,3.3926086E0,0E0,0E0,0E0,0E0],"parents":[2147483647,0,0,1,1,2,2],"right_children":[2,4,6,-1,-1,-1,-1],"split_conditions":[1.104342E0,2.7483063E0,6.056888E-1,-3.8304627E-3,-2.6358254E-2,-1.4104015E-2,-4.7269864E-3],"split_indices":[11,8,8,0,0,0,0],"split_type":[0,0,0,0,0,0,0],"sum_hessian":[6.478196E3,5.5999136E3,8.782824E2,5.556936E3,4.2977394E1,6.132803E2,2.6500214E2],"tree_param":{"num_deleted":"0","num_feature":"20","num_nodes":"7","size_leaf_vector":"1"}},{"base_weights":[-5.707119E-2,2.5056794E-1,-1.644249E-1,4.7042647E-1,1.5739831E-1,-1.0302534E-1,-4.0725404E-1,6.5480375E-1,2.7058816E-2,1.4728314E-1,5.537744E-1,-4.5367062E-2,-1.1664068E-2,-2.2435257E-2,-3.3935506E-2,4.7064442E-2,-1.3932816E-3,1.0449301E-2,-3.3318933E-2,2.443112E-1,7.0703946E-2,-4.8178674E-5,-5.6217536E-3,3.1535387E-2,-4.408158E-2,5.6193963E-2,-4.93994E-3,8.357054E-2,-1.7137493E-1,3.673945E-2,2.2313051E-1,-2.798485E-2,1.0160362E-2,-1.8542742E-2,5.8424124E-3,-1.663345E-2,1.8659666E-2],"categories":[],"categories_nodes":[],"categories_segments":[],"categories_sizes":[],"default_left":[0,0,0,0,0,0,0,0,0,0,0,0,0,0,0,0,0,0,0,0,0,0,0,0,0,0,0,0,0,0,0,0,0,0,0,0,0],"id":23,"left_children":[1,3,5,7,9,11,13,15,-1,17,19,21,-1,-1,-1,-1,-1,-1,-1,23,-1,25,-1,-1,-1,27,-1,29,31,33,35,-1,-1,-1,-1,-1,-1],"loss_changes":[2.1707884E2,3.4610214E1,7.25011E1,6.480545E0,4.558714E0,1.519418E1,6.664612E0,3.6191483E0,0E0,4.322399E0,3.8791485E0,3.5175529E0,0E0,0E0,0E0,0E0,0E0,0E0,0E0,3.5327473E0,0E0,3.8857567E0,0E0,0E0,0E0,3.301319E0,0E0,3.0409563E0,4.392251E0,5.3794074E0,2.8125558E0,0E0,0E0,0E0,0E0,0E0,0E0],"parents":[2147483647,0,0,1,1,2,2,3,3,4,4,5,5,6,6,7,7,9,9,10,10,11,11,19,19,21,21,25,25,27,27,28,28,29,29,30,30],"right_children":[2,4,6,8,10,12,14,16,-1,18,20,22,-1,-1,-1,-1,-1,-1,-1,24,-1,26,-1,-1,-1,28,-1,30,32,34,36,-1,-1,-1,-1,-1,-1],"split_conditions":[-5.1814115E-1,-1.3383981E0,7.7260435E-1,-2.1313477E0,2.541183E0,1.0387525E-1,1.2756243E0,2.4799848E0,2.7058816E-2,2.314185E0,-8.273326E-1,-2.0505407E-1,-1.1664068E-2,-2.2435257E-2,-3.3935506E-2,4.7064442E-2,-1.3932816E-3,1.0449301E-2,-3.3318933E-2,9.8329145E-1,7.0703946E-2,8.890191E-1,-5.6217536E-3,3.1535387E-2,-4.408158E-2,8.471367E-1,-4.93994E-3,2.3617655E-1,8.8777244E-1,-6.851812E-1,-1.8594278E-1,-2.798485E-2,1.0160362E-2,-1.8542742E-2,5.8424124E-3,-1.663345E-2,1.8659666E-2],"split_indices":[2,2,2,2,12,2,2,18,0,17,2,2,0,0,0,0,0,0,0,9,0,13,0,0,0,1,0,1,7,14,15,0,0,0,0,0,0],"split_type":[0,0,0,0,0,0,0,0,0,0,0,0,0,0,0,0,0,0,0,0,0,0,0,0,0,0,0,0,0,0,0,0,0,0,0,0,0],"sum_hessian":[6.5733823E3,1.6996443E3,4.8737383E3,5.0468512E2,1.1949591E3,3.8913328E3,9.824052E2,1.4242719E2,3.6225793E2,1.1662113E3,2.874779E1,2.1087954E3,1.7825375E3,5.288663E2,4.5353897E2,1.3577307E2,6.654112E0,1.1560048E3,1.020655E1,1.8066776E1,1.0681013E1,9.5277246E2,1.156023E3,1.4857858E1,3.2089179E0,5.3378766E2,4.1898477E2,4.7778973E2,5.5997948E1,3.595795E2,1.1821025E2,3.2605705E1,2.339224E1,4.823094E1,3.1134854E2,1.0869759E1,1.0734049E2],"tree_param":{"num_deleted":"0","num_feature":"20","num_nodes":"37","size_leaf_vector":"1"}},{"base_weights":[1.0823004E-1,1.533155E-1,-7.1150154E-2,1.2448628E-1,4.0704006E-1,-1.5733162E-1,3.4665E-2,1.1434232E-1,3.8691002E-1,4.1786334E-1,-1.6424723E-2,-9.411715E-3,-2.9640673E-2,9.083854E-2,-7.954609E-3,1.9972531E-1,8.604012E-2,4.5570396E-2,2.2019088E-2,2.292753E-1,3.0419422E-2,5.2780104E-3,3.6931545E-2,9.2299275E-2,2.3014882E-1,5.5126105E-2,1.7852595E-1,2.0380748E-2,-2.4298409E-2,1.1504979E-2,1.6859692E-2,1.6000012E-2,-4.855025E-2,5.8566097E-2,-3.9673787E-2,1.8646689E-1,-1.3514854E-2,9.132803E-3,-1.1994878E-1,-2.046071E-2,5.4962994E-3,1.3754852E-2,1.12996815E-4,2.3128469E-2,-1.3847908E-2,-4.4273455E-3,5.247393E-3,1.9830465E-2,-1.5087034E-1,-1.985779E-2,2.688319E-2],"categories":[],"categories_nodes":[],"categories_segments":[],"categories_sizes":[],"default_left":[0,0,0,0,0,0,0,0,0,0,0,0,0,0,0,0,0,0,0,0,0,0,0,0,0,0,0,0,0,0,0,0,0,0,0,0,0,0,0,0,0,0,0,0,0,0,0,0,0,0,0],"id":24,"left_children":[1,3,5,7,9,11,13,15,17,19,-1,-1,-1,21,-1,23,25,-1,-1,27,-1,-1,-1,29,31,33,35,-1,-1,37,-1,-1,-1,39,-1,41,-1,-1,43,45,-1,-1,47,-1,-1,-1,-1,-1,49,-1,-1],"loss_changes":[6.014984E1,4.3291214E1,1.3644354E1,1.4043793E1,4.31514E0,4.223297E0,5.6730323E0,1.2328796E1,3.2096348E0,2.9431305E0,0E0,0E0,0E0,2.7603188E0,0E0,4.0682487E0,1.097131E1,0E0,0E0,3.2331414E0,0E0,0E0,0E0,3.4777656E0,4.0736275E0,6.1919365E0,2.8898888E0,0E0,0E0,3.0386186E0,0E0,0E0,0E0,5.0404253E0,0E0,2.624855E0,0E0,0E0,3.3915412E0,2.7073965E0,0E0,0E0,3.266819E0,0E0,0E0,0E0,0E0,0E0,3.6291776E0,0E0,0E0],"parents":[2147483647,0,0,1,1,2,2,3,3,4,4,5,5,6,6,7,7,8,8,9,9,13,13,15,15,16,16,19,19,23,23,24,24,25,25,26,26,29,29,33,33,35,35,38,38,39,39,42,42,48,48],"right_children":[2,4,6,8,10,12,14,16,18,20,-1,-1,-1,22,-1,24,26,-1,-1,28,-1,-1,-1,30,32,34,36,-1,-1,38,-1,-1,-1,40,-1,42,-1,-1,44,46,-1,-1,48,-1,-1,-1,-1,-1,50,-1,-1],"split_conditions":[8.2091814E-1,1.3205785E0,2.3939626E-1,2.5672266E0,2.0488598E0,2.541183E0,1.6810507E0,-6.8431365E-1,2.3038082E0,8.396334E-1,-1.6424723E-2,-9.411715E-3,-2.9640673E-2,2.6179972E0,-7.954609E-3,-8.19895E-1,4.556327E-1,4.5570396E-2,2.2019088E-2,6.05885E-1,3.0419422E-2,5.2780104E-3,3.6931545E-2,-4.8513043E-1,3.3109283E0,4.0330224E0,2.7634296E0,2.0380748E-2,-2.4298409E-2,8.890191E-1,1.6859692E-2,1.6000012E-2,-4.855025E-2,-8.417859E-1,-3.9673787E-2,2.0842798E0,-1.3514854E-2,9.132803E-3,-1.7594793E0,-4.0501294E-1,5.4962994E-3,1.3754852E-2,8.881056E-1,2.3128469E-2,-1.3847908E-2,-4.4273455E-3,5.247393E-3,1.9830465E-2,8.890191E-1,-1.985779E-2,2.688319E-2],"split_indices":[12,11,11,17,19,12,12,12,18,3,0,0,0,11,0,3,11,0,0,12,0,0,0,5,18,19,19,0,0,13,0,0,0,11,0,3,0,0,12,3,0,0,11,0,0,0,0,0,13,0,0],"split_type":[0,0,0,0,0,0,0,0,0,0,0,0,0,0,0,0,0,0,0,0,0,0,0,0,0,0,0,0,0,0,0,0,0,0,0,0,0,0,0,0,0,0,0,0,0,0,0,0,0,0,0],"sum_hessian":[7.4338765E3,5.9421475E3,1.491729E3,5.337191E3,6.049563E2,8.237268E2,6.6800214E2,5.1399346E3,1.9725667E2,5.95549E2,9.407276E0,7.713881E2,5.233872E1,4.887138E2,1.7928835E2,1.2765967E3,3.863338E3,3.5365284E1,1.6189139E2,7.9179085E1,5.1636993E2,4.7542557E2,1.3288231E1,2.841646E2,9.92432E2,2.8982327E3,9.6510516E2,7.131719E1,7.8618917E0,1.882175E2,9.594711E1,9.881796E2,4.2523685E0,2.8832993E3,1.4933168E1,9.4607666E2,1.9028545E1,9.8688995E1,8.95285E1,6.255762E2,2.2577231E3,8.729682E2,7.310842E1,1.3070157E1,7.645834E1,4.3176443E2,1.9381174E2,2.5650095E1,4.745833E1,3.8259003E1,9.199326E0],"tree_param":{"num_deleted":"0","num_feature":"20","num_nodes":"51","size_leaf_vector":"1"}},{"base_weights":[-7.015248E-2,-5.3415906E-2,-1.983584E-1,-1.0993493E-2,-4.274418E-2,-1.4198221E-1,-1.810662E-2,-3.2227185E-2,-6.820678E-3,-2.4099383E-3,-2.1311104E-1,5.1574297E-2,-2.258085E-3,-2.2976438E-2,-7.521305E-3],"categories":[],"categories_nodes":[],"categories_segments":[],"categories_sizes":[],"default_left":[0,0,0,0,0,0,0,0,0,0,0,0,0,0,0],"id":25,"left_children":[1,3,5,-1,7,9,-1,11,-1,-1,13,-1,-1,-1,-1],"loss_changes":[1.3749218E1,6.4963036E0,2.6760216E0,0E0,3.0860443E0,3.0028477E0,0E0,2.849378E0,0E0,0E0,2.9340696E0,0E0,0E0,0E0,0E0],"parents":[2147483647,0,0,1,1,2,2,4,4,5,5,7,7,10,10],"right_children":[2,4,6,-1,8,10,-1,12,-1,-1,14,-1,-1,-1,-1],"split_conditions":[9.793987E-1,-1.2364198E0,1.5187964E0,-1.0993493E-2,5.123617E-1,3.0930334E-1,-1.810662E-2,-3.0041504E0,-6.820678E-3,-2.4099383E-3,1.1604083E0,5.1574297E-2,-2.258085E-3,-2.2976438E-2,-7.521305E-3],"split_indices":[2,2,2,0,2,15,0,11,0,0,2,0,0,0,0],"split_type":[0,0,0,0,0,0,0,0,0,0,0,0,0,0,0],"sum_hessian":[6.4451504E3,5.7032925E3,7.4185815E2,5.1088644E2,5.192406E3,4.0614944E2,3.357087E2,4.3917656E3,8.006401E2,1.6436823E2,2.4178122E2,4.3828597E0,4.387383E3,1.0812837E2,1.3365283E2],"tree_param":{"num_deleted":"0","num_feature":"20","num_nodes":"15","size_leaf_vector":"1"}},{"base_weights":[-5.7528786E-2,2.308057E-1,-1.6669263E-1,4.151598E-1,1.2208443E-1,-1.13898896E-1,-3.895019E-1,4.3781766E-1,7.945685E-2,7.953997E-3,4.672714E-2,-3.308466E-3,-1.2662754E-2,-2.1104248E-2,-3.2969963E-2,5.874739E-1,3.9124036E-1,4.833153E-2,-1.9979356E-1,4.4810273E-2,1.747178E-2,2.3287885E-1,4.8509395E-1,-3.7381284E-2,7.86598E-3,2.0737384E-2,1.168916E-3,4.665173E-2,4.2505795E-1,-1.7387234E-2,3.0694397E-2],"categories":[],"categories_nodes":[],"categories_segments":[],"categories_sizes":[],"default_left":[0,0,0,0,0,0,0,0,0,0,0,0,0,0,0,0,0,0,0,0,0,0,0,0,0,0,0,0,0,0,0],"id":26,"left_children":[1,3,5,7,9,11,13,15,17,-1,-1,-1,-1,-1,-1,19,21,-1,23,-1,-1,25,27,-1,-1,-1,-1,-1,29,-1,-1],"loss_changes":[2.0440004E2,3.5556396E1,5.5258392E1,4.8540344E0,3.175909E0,1.7812294E1,6.506073E0,3.9607544E0,7.7068286E0,0E0,0E0,0E0,0E0,0E0,0E0,3.0243835E0,6.787689E0,0E0,3.3780324E0,0E0,0E0,2.6274347E0,3.1379395E0,0E0,0E0,0E0,0E0,0E0,3.9795341E0,0E0,0E0],"parents":[2147483647,0,0,1,1,2,2,3,3,4,4,5,5,6,6,7,7,8,8,15,15,16,16,18,18,21,21,22,22,28,28],"right_children":[2,4,6,8,10,12,14,16,18,-1,-1,-1,-1,-1,-1,20,22,-1,24,-1,-1,26,28,-1,-1,-1,-1,-1,30,-1,-1],"split_conditions":[-4.963254E-1,-1.1746789E0,8.0163354E-1,2.4038656E0,1.5073696E0,9.511746E-2,1.3136164E0,-2.1313477E0,-1.2142584E0,7.953997E-3,4.672714E-2,-3.308466E-3,-1.2662754E-2,-2.1104248E-2,-3.2969963E-2,2.3907213E0,-7.941654E-1,4.833153E-2,1.1475154E0,4.4810273E-2,1.747178E-2,-1.3022087E0,-5.717058E-1,-3.7381284E-2,7.86598E-3,2.0737384E-2,1.168916E-3,4.665173E-2,-5.3884566E-1,-1.7387234E-2,3.0694397E-2],"split_indices":[2,2,2,18,0,2,2,2,0,0,0,0,0,0,0,6,0,0,5,0,0,2,0,0,0,0,0,0,0,0,0],"split_type":[0,0,0,0,0,0,0,0,0,0,0,0,0,0,0,0,0,0,0,0,0,0,0,0,0,0,0,0,0,0,0],"sum_hessian":[6.4941787E3,1.7826396E3,4.711539E3,6.600613E2,1.1225784E3,3.8103452E3,9.0119385E2,6.174069E2,4.2654392E1,1.1125809E3,9.997451E0,1.9967091E3,1.8136361E3,4.8897745E2,4.1221637E2,1.445018E2,4.7290512E2,1.3378664E1,2.9275728E1,1.184814E2,2.6020397E1,1.7742894E2,2.9547617E2,1.432019E1,1.4955539E1,1.3224579E2,4.5183163E1,6.687066E1,2.2860551E2,7.629847E0,2.2097566E2],"tree_param":{"num_deleted":"0","num_feature":"20","num_nodes":"31","size_leaf_vector":"1"}},{"base_weights":[1.0637639E-1,1.5076156E-1,-6.737582E-2,9.192086E-2,2.682861E-1,-1.4178826E-1,2.5095614E-2,1.8706125E-1,5.9300482E-2,2.0639552E-1,3.5383338E-1,9.679553E-3,-1.0548452E-2,8.054622E-2,-9.431075E-3,-1.2230061E-2,1.982996E-1,-1.9381908E-3,9.833154E-2,2.3743308E-1,4.567514E-3,3.2242265E-2,1.9690884E-2,3.700342E-3,2.6119156E-2,-2.6373386E-2,2.0422944E-1,1.0119955E-1,-3.349267E-2,2.4502888E-1,-1.5308942E-2,2.1364751E-1,-7.89664E-3,8.945007E-2,2.747578E-1,3.8727906E-2,1.585722E-2,1.3662331E-2,5.1401928E-2,1.247782E-1,4.545195E-2,4.2642975E-1,7.17276E-3,-2.3714872E-2,1.340355E-1,6.7464397E-3,-1.255362E-3,2.5895268E-1,5.355425E-2,9.434104E-3,-3.714686E-2,3.1110197E-2,-7.824603E-3],"categories":[],"categories_nodes":[],"categories_segments":[],"categories_sizes":[],"default_left":[0,0,0,0,0,0,0,0,0,0,0,0,0,0,0,0,0,0,0,0,0,0,0,0,0,0,0,0,0,0,0,0,0,0,0,0,0,0,0,0,0,0,0,0,0,0,0,0,0,0,0,0,0],"id":27,"left_children":[1,3,5,7,9,11,13,15,17,19,21,-1,-1,23,-1,-1,25,-1,27,29,-1,-1,-1,-1,-1,-1,31,33,-1,35,-1,37,-1,39,41,-1,-1,-1,-1,43,45,47,-1,-1,49,-1,-1,51,-1,-1,-1,-1,-1],"loss_changes":[5.7582184E1,4.1000427E1,1.0476957E1,1.222393E1,1.030571E1,3.092085E0,6.097453E0,4.1692085E0,1.0139245E1,4.8887024E0,6.1625443E0,0E0,0E0,3.8767917E0,0E0,0E0,3.357151E0,0E0,3.3472538E0,3.316021E0,0E0,0E0,0E0,0E0,0E0,0E0,2.962223E0,4.0380745E0,0E0,3.4622269E0,0E0,6.4582443E0,0E0,2.9158936E0,3.104209E0,0E0,0E0,0E0,0E0,4.5592003E0,2.9465275E0,3.6222057E0,0E0,0E0,2.9187717E0,0E0,0E0,3.5074327E0,0E0,0E0,0E0,0E0,0E0],"parents":[2147483647,0,0,1,1,2,2,3,3,4,4,5,5,6,6,7,7,8,8,9,9,10,10,13,13,16,16,18,18,19,19,26,26,27,27,29,29,31,31,33,33,34,34,39,39,40,40,41,41,44,44,47,47],"right_children":[2,4,6,8,10,12,14,16,18,20,22,-1,-1,24,-1,-1,26,-1,28,30,-1,-1,-1,-1,-1,-1,32,34,-1,36,-1,38,-1,40,42,-1,-1,-1,-1,44,46,48,-1,-1,50,-1,-1,52,-1,-1,-1,-1,-1],"split_conditions":[8.199505E-1,4.5678368E-1,2.412893E-1,-6.798817E-1,1.1032668E0,-7.696896E-2,1.6769975E0,-1.9136544E0,-6.206882E-1,3.9142704E-1,-4.6561992E-1,9.679553E-3,-1.0548452E-2,1.9652443E0,-9.431075E-3,-1.2230061E-2,-6.851812E-1,-1.9381908E-3,3.813085E0,2.3941312E0,4.567514E-3,3.2242265E-2,1.9690884E-2,3.700342E-3,2.6119156E-2,-2.6373386E-2,1.5835072E0,-4.4903695E-4,-3.349267E-2,-1.7283914E0,-1.5308942E-2,1.6783795E-1,-7.89664E-3,3.5373762E-1,2.133857E0,3.8727906E-2,1.585722E-2,1.3662331E-2,5.1401928E-2,-1.726448E0,3.9913476E-1,1.7581879E-1,7.17276E-3,-2.3714872E-2,1.9638383E0,6.7464397E-3,-1.255362E-3,5.7160205E-1,5.355425E-2,9.434104E-3,-3.714686E-2,3.1110197E-2,-7.824603E-3],"split_indices":[8,7,7,8,7,5,8,7,7,8,8,0,0,7,0,0,14,0,19,19,0,0,0,0,0,0,19,19,0,6,0,19,0,14,19,0,0,0,0,15,15,12,0,0,5,0,0,15,0,0,0,0,0],"split_type":[0,0,0,0,0,0,0,0,0,0,0,0,0,0,0,0,0,0,0,0,0,0,0,0,0,0,0,0,0,0,0,0,0,0,0,0,0,0,0,0,0,0,0,0,0,0,0,0,0,0,0,0,0],"sum_hessian":[7.4627817E3,5.9457583E3,1.5170237E3,3.964046E3,1.9817123E3,8.424238E2,6.745999E2,1.0094657E3,2.95458E3,1.1522881E3,8.2942426E2,3.551329E1,8.069106E2,5.051692E2,1.6943071E2,2.9137987E1,9.803277E2,9.0733215E2,2.047248E3,9.4053516E2,2.1175287E2,2.911637E2,5.382606E2,4.6591513E2,3.9254063E1,9.201571E0,9.711261E2,2.0379987E3,9.249393E0,9.2606226E2,1.4472918E1,9.443683E2,2.6757832E1,1.9107006E3,1.2729807E2,3.3274803E1,8.927875E2,9.224689E2,2.1899443E1,1.055648E3,8.550526E2,6.6090034E1,6.120804E1,1.9518396E1,1.0361295E3,4.6796313E2,3.8708948E2,4.5848907E1,2.0241127E1,1.0301742E3,5.955388E0,3.0533869E1,1.5315041E1],"tree_param":{"num_deleted":"0","num_feature":"20","num_nodes":"53","size_leaf_vector":"1"}},{"base_weights":[-6.362425E-2,-3.9191864E-2,-2.3708723E-1,-1.2964948E-1,-2.57654E-2,2.0998681E-3,-2.5333753E-1,-6.4568515E-3,-2.4098139E-1,-9.2214235E-4,-9.7091146E-2,-1.8640883E-2,-7.064825E-2,-4.3446597E-1,-7.880286E-3,-4.0691867E-2,-1.3728981E-2,-1.5824933E-2,1.5622972E-1,-3.457093E-2,1.0876848E-2,4.9846396E-2,-1.2821144E-1,4.8538484E-2,-0E0,-2.29779E-2,1.0048605E-1,-1.62487E-1,2.499637E-2,4.9259033E-2,-1.0723649E-2,-2.5180213E-3,2.0743456E-1,-6.4612785E-3,-3.635013E-2,9.274055E-2,1.5995221E-1,2.899414E-1,-2.7280424E-3,3.5846406E-1,-3.026545E-2,7.826244E-3,4.622575E-2],"categories":[],"categories_nodes":[],"categories_segments":[],"categories_sizes":[],"default_left":[0,0,0,0,0,0,0,0,0,0,0,0,0,0,0,0,0,0,0,0,0,0,0,0,0,0,0,0,0,0,0,0,0,0,0,0,0,0,0,0,0,0,0],"id":28,"left_children":[1,3,5,7,9,-1,11,-1,13,-1,15,-1,17,19,-1,21,-1,-1,23,-1,-1,25,27,-1,29,-1,31,33,-1,-1,-1,-1,35,-1,-1,-1,37,39,-1,41,-1,-1,-1],"loss_changes":[2.715048E1,6.795E0,3.5181923E0,2.7140741E0,4.2527113E0,0E0,2.6245651E0,0E0,3.970954E0,0E0,4.1295877E0,0E0,2.7994595E0,2.9748783E0,0E0,3.7219532E0,0E0,0E0,2.7857249E0,0E0,0E0,4.390383E0,3.9988122E0,0E0,2.6408489E0,0E0,3.0252392E0,5.4231186E0,0E0,0E0,0E0,0E0,5.780371E0,0E0,0E0,0E0,2.9619899E0,3.4260545E0,0E0,4.628793E0,0E0,0E0,0E0],"parents":[2147483647,0,0,1,1,2,2,3,3,4,4,6,6,8,8,10,10,12,12,13,13,15,15,18,18,21,21,22,22,24,24,26,26,27,27,32,32,36,36,37,37,39,39],"right_children":[2,4,6,8,10,-1,12,-1,14,-1,16,-1,18,20,-1,22,-1,-1,24,-1,-1,26,28,-1,30,-1,32,34,-1,-1,-1,-1,36,-1,-1,-1,38,40,-1,42,-1,-1,-1],"split_conditions":[9.124419E-1,-1.0142606E0,-1.8088584E0,1.9638383E0,5.123617E-1,2.0998681E-3,9.177128E-1,-6.4568515E-3,-1.8769646E0,-9.2214235E-4,5.1624462E-2,-1.8640883E-2,1.5811064E0,1.1157055E0,-7.880286E-3,-9.2774105E-1,-1.3728981E-2,-1.5824933E-2,1.56753E0,-3.457093E-2,1.0876848E-2,-6.3086134E-1,1.2029026E0,4.8538484E-2,1.3187611E0,-2.29779E-2,2.5794933E-2,-1.7737842E-1,2.499637E-2,4.9259033E-2,-1.0723649E-2,-2.5180213E-3,-5.6535566E-1,-6.4612785E-3,-3.635013E-2,9.274055E-2,-1.0835409E0,-1.030656E-2,-2.7280424E-3,-2.9755297E-1,-3.026545E-2,7.826244E-3,4.622575E-2],"split_indices":[2,2,1,5,2,0,10,0,2,0,10,0,4,15,0,1,0,0,0,0,0,0,0,0,7,0,7,1,0,0,0,0,0,0,0,0,1,0,0,0,0,0,0],"split_type":[0,0,0,0,0,0,0,0,0,0,0,0,0,0,0,0,0,0,0,0,0,0,0,0,0,0,0,0,0,0,0,0,0,0,0,0,0,0,0,0,0,0,0],"sum_hessian":[6.4268984E3,5.6351846E3,7.9171375E2,7.2511835E2,4.9100664E3,4.416849E1,7.475453E2,5.541997E2,1.7091864E2,4.194677E3,7.153895E2,6.72076E2,7.5469315E1,6.607919E1,1.0483945E2,4.6632077E2,2.4906873E2,4.4901184E1,3.0568132E1,5.9381878E1,6.697316E0,2.2748067E2,2.3884009E2,6.816781E0,2.375135E1,2.5510658E1,2.0197002E2,2.2406071E2,1.477938E1,3.9531553E0,1.9798197E1,8.715864E1,1.1481137E2,1.903229E2,3.37378E1,4.1045065E0,1.1070686E2,6.799801E1,4.270886E1,6.265694E1,5.341071E0,3.62232E1,2.6433739E1],"tree_param":{"num_deleted":"0","num_feature":"20","num_nodes":"43","size_leaf_vector":"1"}},{"base_weights":[-4.6627123E-2,1.8807039E-1,-1.7310666E-1,2.6565539E-2,1.16275385E-1,-1.1136874E-1,-3.5834667E-1,1.2547211E-1,-3.345808E-2,-6.744167E-2,-1.5559529E-1,-2.9463243E-1,-3.0412313E-2,2.0722209E-1,8.6422555E-2,-4.3520898E-2,-1.6540137E-1,-1.2602286E-1,-1.6155785E-2,-2.0623015E-2,3.114183E-2,2.2283535E-1,-4.8268214E-2,8.010255E-2,4.9311567E-2,-3.7038364E-2,-3.2177318E-2,-2.9935732E-2,-1.14488795E-1,-8.900373E-3,3.1154681E-2,1.50902E-1,3.255543E-1,4.153921E-2,1.0022111E-2,-1.2365574E-2,-1.7556965E-2,-1.5132764E-2,5.9588943E-2,-2.3726195E-2,1.2061634E-2,2.8931332E-1,5.672741E-2,5.0360717E-2,-3.5593644E-2,-4.2165113E-3,-2.1004204E-1,-2.752774E-1,2.1540248E-1,1.467038E-1,3.8891438E-1,1.3649661E-2,1.800492E-2,-3.0056821E-2,9.506962E-3,-2.8154736E-2,5.4057613E-3,7.818895E-2,-3.836851E-2,6.064745E-1,1.08094364E-1,2.348922E-2,-2.26064E-2,3.8296543E-2,1.0414266E-2,-7.0315907E-3,6.022185E-2,-2.342742E-3,4.791937E-2,-1.2510749E-2,6.256768E-2,-0E0,6.434119E-2,1.9063683E-1,-4.297018E-2,-1.8892277E-2,2.0163713E-2,1.5080867E-2,-2.5414484E-2,-2.739904E-2,2.084709E-2,-6.3525476E-3,9.246551E-3],"categories":[],"categories_nodes":[],"categories_segments":[],"categories_sizes":[],"default_left":[0,0,0,0,0,0,0,0,0,0,0,0,0,0,0,0,0,0,0,0,0,0,0,0,0,0,0,0,0,0,0,0,0,0,0,0,0,0,0,0,0,0,0,0,0,0,0,0,0,0,0,0,0,0,0,0,0,0,0,0,0,0,0,0,0,0,0,0,0,0,0,0,0,0,0,0,0,0,0,0,0,0,0],"id":29,"left_children":[1,3,5,-1,7,9,11,13,-1,15,17,19,-1,21,23,25,27,29,-1,-1,-1,31,-1,33,-1,35,-1,-1,37,-1,-1,39,41,43,-1,-1,45,-1,47,-1,-1,49,-1,51,-1,53,55,57,59,61,63,-1,65,67,-1,-1,-1,69,-1,71,73,-1,75,-1,-1,-1,77,-1,-1,-1,-1,-1,-1,79,-1,-1,-1,-1,81,-1,-1,-1,-1],"loss_changes":[1.9389519E2,3.2914413E1,4.839852E1,0E0,9.313484E0,6.117359E0,5.665085E0,5.212988E0,0E0,3.6874847E0,3.6902733E0,3.5850105E0,0E0,7.5139465E0,4.2783775E0,3.420944E0,4.1616344E0,2.9613247E0,0E0,0E0,0E0,3.7312393E0,0E0,2.8221083E0,0E0,3.5132432E0,0E0,0E0,4.991445E0,0E0,0E0,3.994627E0,3.5514698E0,3.3961535E0,0E0,0E0,2.8160865E0,0E0,5.1974707E0,0E0,0E0,2.6820354E0,0E0,3.3327641E0,0E0,3.8701997E0,4.2913775E0,3.3202047E0,2.6538417E0,2.9257998E0,4.5396385E0,0E0,2.9484527E0,2.6087198E0,0E0,0E0,0E0,3.2460244E0,0E0,2.7499824E0,3.223159E0,0E0,3.6301513E0,0E0,0E0,0E0,6.007921E0,0E0,0E0,0E0,0E0,0E0,0E0,3.3869262E0,0E0,0E0,0E0,0E0,3.0477898E0,0E0,0E0,0E0,0E0],"parents":[2147483647,0,0,1,1,2,2,4,4,5,5,6,6,7,7,9,9,10,10,11,11,13,13,14,14,15,15,16,16,17,17,21,21,23,23,25,25,28,28,31,31,32,32,33,33,36,36,38,38,41,41,43,43,45,45,46,46,47,47,48,48,49,49,50,50,52,52,53,53,57,57,59,59,60,60,62,62,66,66,73,73,78,78],"right_children":[2,4,6,-1,8,10,12,14,-1,16,18,20,-1,22,24,26,28,30,-1,-1,-1,32,-1,34,-1,36,-1,-1,38,-1,-1,40,42,44,-1,-1,46,-1,48,-1,-1,50,-1,52,-1,54,56,58,60,62,64,-1,66,68,-1,-1,-1,70,-1,72,74,-1,76,-1,-1,-1,78,-1,-1,-1,-1,-1,-1,80,-1,-1,-1,-1,82,-1,-1,-1,-1],"split_conditions":[-3.2770053E-1,-1.2689458E0,6.9881886E-1,2.6565539E-2,2.347946E0,1.0387525E-1,1.246593E0,-8.273326E-1,-3.345808E-2,6.9025785E-1,3.3116496E-1,3.0957308E0,-3.0412313E-2,3.3214748E0,1.5073696E0,3.4137528E0,-6.851812E-1,3.3775337E0,-1.6155785E-2,-2.0623015E-2,3.114183E-2,3.9913476E-1,-4.8268214E-2,2.9852775E-1,4.9311567E-2,-9.89859E-1,-3.2177318E-2,-2.9935732E-2,5.4591037E-2,-8.900373E-3,3.1154681E-2,-1.2364198E0,-8.4463036E-1,2.8318602E-1,1.0022111E-2,-1.2365574E-2,3.7180987E-1,-1.5132764E-2,9.8329145E-1,-2.3726195E-2,1.2061634E-2,3.9971036E-1,5.672741E-2,-5.5150205E-1,-3.5593644E-2,-1.8689148E-1,7.5387174E-1,4.8502335E-1,2.6715168E-1,-1.0356154E0,-5.296248E-1,1.3649661E-2,-6.355584E-1,3.3328397E0,9.506962E-3,-2.8154736E-2,5.4057613E-3,3.746895E-1,-3.836851E-2,-1.4857838E-1,